-1.687803424936190178e+00 7.933246741029856830e-01 9.112133021931905219e-01 4.477249710241049119e-01 -1.351241462579253705e+00 -2.783828857184925010e+00 -4.878217177691746564e-01 1.797259134936986635e+00 8.311220614215234503e-01 9.649740369943059226e-02 -5.000453612289327276e-01 -4.544403523664612976e-01 -1.169195908576115661e+00 1.403257412464186560e+00 2.192691283209240449e-01 1.760869685428047893e+00 6.607322685697742948e-01 -3.973690802517156340e-01 3.384061235182232036e-03 -4.535915712858083482e-01 -1.624193352180070687e-02 3.152409621071761148e-01 9.938407802752555753e-01 -1.423205252323960890e+00 5.524770250196565646e-01 -7.814063240049252679e-01 -1.294132229465218442e+00 1.697596861211265296e+00 1.453109015791717473e+00 -9.766614367380890283e-01 3.349059219063616477e-01 -4.552594724624912936e-02 7.326317290976552821e-01 -2.464102791487975397e-01 -1.138017521148962707e+00 -1.333125317313523572e+00 8.166792713538365556e-01 8.740104469720690883e-01 -6.490073487782895834e-01 -6.372626473154591187e-01 1.728456413786783746e-02 4.308916160084321212e-01 1.642952830990695112e+00 -1.675525791817346510e+00 -2.664857368596599274e-01 7.572282320038993542e-02 -4.899631385384941584e-01 -1.229394571348570331e+00 1.417480377216335574e+00 1.999902841470286852e-01 -4.892481913224069334e-01 -4.830824008568932459e-01 -5.814793753999498299e-02 1.007961417699035245e+00 -6.441719681464849190e-01 6.937724147387882567e-01 -4.835406273457085735e-01 2.180118815318822234e-01 5.585693095066999181e-01 -1.388499378032800990e+00 -9.838901313210037802e-01 -6.944153441302777230e-01 1.998839187259778827e+00 2.632595208657564356e+00 -1.369230709468809204e+00 2.187152154751660915e-01 1.311614574255351995e+00 -6.599604626371434746e-01 3.823404268733954781e-01 -1.084273511684554103e+00 5.019810234068926291e-02 2.100187813623925481e-01 1.199763179811895286e+00 -4.645230153715433907e-01 -1.026773127684380338e+00 1.726448828104358402e+00 8.937231720059206630e-01 8.658406743126498828e-01 -1.107026816557509230e+00 -2.757311344775025042e+00 -8.491269470353701720e-01 3.519406247362603657e-01 4.499709375065344963e-01 2.084812120578314332e-01 -3.934724585702148447e-01 -1.781447820312634489e+00 5.330925330602780399e-01 4.698706125780740539e-01 1.068400944773842065e+00 -1.307344880504533347e+00 -9.185143764535312894e-01 -5.787110799848264042e-01 4.950747747940052040e-03 8.378073197573030484e-01 2.459102158467197929e-01 -1.971396819670752976e+00 -1.796853168706352699e-01 2.640074962501974376e+00 1.812989057311618524e+00 -6.574508435687413943e-01 -2.184401684511077413e+00 1.987666640400147067e+00 -1.666766695914017049e+00 2.030120715026077605e+00 -9.507781731300057881e-01 -1.450087592575622475e+00 -2.540353559793081528e-01 6.882511596660265130e-02 1.314375130169301853e+00 -1.234265600152262943e+00 3.955799343735066920e-01 1.438685789935890247e+00 -2.493461103496266595e+00 1.741488312747923706e+00 -1.480755015950191211e+00 -1.873569910558345875e-01 -1.148081993595132522e+00 3.680418457212308175e-02 9.712800464908288856e-01 -3.772400619745212014e-01 -3.549261951086043476e-01 1.181806002957336510e+00 4.103469269001580599e-01 -1.401854888272640709e+00 2.344556810364285815e-02 2.876898813758069773e-01 1.126430830915832848e+00 7.430884760787265231e-01 2.383119132961760922e+00 -3.740405366173457313e+00 -1.306869762683038338e+00 -2.134680392267603311e-01 3.202384991883178600e+00 -1.126813825484583587e-01 -1.266353803754587393e+00 -5.088281920580276507e-01 -8.705418024822492162e-01 -2.102494834213881891e-02 1.026697657538620856e+00 5.556262693047529094e-02 -9.264905172812532008e-01 -1.498284034644904894e+00 2.029613253270207363e+00 2.031766589788976396e-01 -2.471871814472677564e-01 6.302207867379907569e-01 -4.295407554270131989e-01 9.409788837184367427e-01 -1.349459360705835831e+00 -1.081211905252259964e+00 8.485216149351358927e-01 -2.539819579623426860e-01 2.838135299290336366e+00 -1.648425883357198307e+00 -3.078103811251692523e+00 -1.507275049189233496e+00 1.856008364789323295e-01 1.076472606382975483e+00 -1.254561309162820715e+00 8.476194462478159330e-01 1.362566603060255455e+00 1.628933034281079051e+00 7.911937239336271077e-02 -2.003749840433715956e+00 -8.279680127871562600e-01 5.211196044957348006e-01 3.440355949741088493e-01 7.384417899594483137e-01 1.165823894408066774e+00 -1.751156654922915168e+00 -2.729160310299004966e+00 5.731935895940584169e-01 2.714654608488939580e+00 -6.514148312700900334e-01 2.364989300925570553e-03
-5.268295449209768888e-01 -4.574558546992891772e-01 -1.390032542802412507e+00 -9.052427100546983629e-02 2.324344891599562590e+00 -4.637111681561639220e-01 -5.115719352592801306e-01 7.369265182684898718e-01 2.220090060240304530e-01 -6.780000356177189325e-01 -3.114242853087494378e-01 8.063797539298825923e-01 -1.838464972364346472e+00 2.132714104934524180e+00 -4.256982874023398367e-01 -6.308735593717855750e-01 -1.785153268547138072e+00 1.490881455363525232e+00 -3.074742170362244620e-01 5.485940400137929718e-01 1.268448775645641957e+00 -2.614138749644026483e+00 2.333162740564130644e+00 -5.727611461708763674e-01 -7.532554403834774981e-02 -1.055224328285240931e+00 1.498951859013733401e+00 1.022534112039299226e+00 -1.586061681146368363e+00 -8.528520316250953748e-01 1.293140767376134592e+00 7.329230745518691137e-01 -3.108829193287429682e+00 -2.446904103349928583e+00 1.030442446508306409e+00 -1.322006934294255753e+00 5.850754144361167697e-01 -1.238250048370287543e-01 -7.296030876911981933e-01 8.702876560392742711e-01 1.981036247395425276e+00 -1.028571272319895646e+00 2.385812536072009049e+00 2.617309976052523690e-01 -4.539018586828988955e-01 -1.523292112031889300e-01 1.518626125730969667e-01 1.110526437786822473e+00 -1.640729979080479461e+00 -4.810413968211350033e-01 -8.529479912612236703e-01 -2.091409351748083179e+00 2.075710034023746875e+00 1.448856622851543374e+00 -1.215752422550245848e+00 -1.431109406537975692e+00 1.376212817484110174e+00 -2.506656243465770650e+00 2.274415917857559588e+00 1.093639258376256862e+00 -1.559120435128581006e+00 -2.806983427162131228e+00 5.906585419987938623e-01 5.163420694897169483e-01 2.072900224274407233e+00 -1.108513812816832589e+00 -9.689209010116144327e-01 6.777465721484618455e-02 -1.302166758164012395e+00 2.667235969953216657e+00 2.815303662575885935e-01 -1.489668890255470002e-01 -1.444813452939778031e+00 1.039308398770979469e+00 1.498332553689156743e+00 1.196408624499036982e-01 7.907006520697997809e-01 -1.078101530702741673e-01 7.218144250737067447e-01 -6.936031786827721035e-01 6.303753871596665670e-01 -1.182025886134987935e+00 1.019956924354600503e+00 2.944292092219746304e-01 -9.515830712850228412e-01 -8.369282014518995005e-01 9.883655455999034167e-01 -2.681537377936432098e-01 -7.326456496624436099e-01 -3.143740058046817776e-02 1.735971413375747563e-01 1.331663428170648089e+00 -7.502395217165060970e-01 2.316685317814291128e-03 -7.657586249440869741e-01 1.518341410343449827e+00 -8.802960372624766272e-01 1.206591802755053289e+00 -5.077077165132520831e-01 8.143977016444761130e-01 -3.187217140634733825e-01 9.994139737418781255e-01 -1.243183830930432165e+00 -2.252846968426541974e+00 1.296035470010194146e+00 5.648486380310410171e-01 -2.977581100576823792e-01 7.582083416194114467e-02 -6.782259420378042303e-02 -7.325383052030576270e-01 4.542897241086678584e-01 -1.166393233901035359e-01 8.580664055213496066e-01 -1.916149486092035614e+00 4.144899113557686671e-02 1.512933807489236782e-01 1.166083497109860617e-01 -1.941684044848790647e+00 -3.360821451271535087e-01 1.399779337391278133e+00 5.790313321943308944e-01 -3.500272781731328942e-01 4.955154311545738599e-01 -7.821498676419877949e-01 -3.787187057155237957e-01 -7.317224193451153935e-01 1.078317061856153947e+00 1.174113457380439735e-01 1.965887179003572016e-01 -1.034276422424112329e+00 1.268161576203071350e+00 -1.084929079799424434e+00 6.522825468949353667e-01 -5.253679294603588179e-01 -1.203970710440657843e+00 1.801907438044047516e-01 -2.179572166658512722e-01 5.992012771010233330e-01 5.162618295588766726e-01 3.359583020003961695e-01 -1.206947970414025795e+00 -2.608790893272173728e-01 7.843883804196754017e-01 -3.638446147949203624e-01 1.653230917688260915e+00 5.212957837845148823e-02 -1.499153654302381566e+00 -9.471535636202392805e-01 1.997178034283360715e+00 -9.789786846265281506e-01 -7.828477525851523788e-01 3.803746322246277511e-01 -4.080880135440566048e-01 -6.117748225931564088e-01 2.091702862802722329e+00 -9.465690126246275593e-01 9.259014171210663280e-01 6.948425521461291110e-01 9.263759864440667124e-01 3.043677001507619218e-02 -9.811382548175865415e-01 1.076353799907098674e+00 -5.117785819127559366e-01 1.070285890891694604e-02 -1.139523792401212265e+00 4.082314792796608999e-02 -1.220665220064125922e+00 -1.104211567480105405e+00 1.619947719998269697e+00 8.650295034654502668e-01 1.989088733920665875e-01 3.626036122462854561e-01 -8.617351649136311131e-01 -1.696256688317845596e+00 1.341498646477904177e+00
-1.274953213946775632e+00 7.390094026614516531e-01 3.437064349181251921e-01 -2.249587680392884925e-01 -9.859691125354734798e-01 -7.471776731160160168e-01 -9.052481061362075421e-01 3.392000105782960739e-01 1.443689015696173472e-01 -7.782011185352090410e-02 -5.396244242096953636e-01 3.972277894137519194e-01 -1.244737620011545420e+00 -1.913481907533630455e+00 2.265890861576453030e+00 -3.016801109978879958e-01 3.484333808200408278e-01 -7.784557490466399721e-02 -1.354436220686230818e+00 6.550992634713693752e-01 1.925848020475127709e-01 6.564949420723146245e-01 -9.943509675884898424e-01 1.818465475055748570e-02 -1.186304307886516085e+00 -7.824956555310627060e-01 2.267477905361552359e-01 -7.842420689514709720e-01 2.423699010509473784e+00 -1.289520966215468523e+00 6.678576564132869819e-01 5.490084619957256162e-01 -2.219818336836650641e+00 2.568262550586755677e-01 -4.212647682937087357e-01 -4.611321987724357196e-01 -5.849167189056472260e-01 1.145171018912953809e+00 -8.167251278093897726e-01 -1.497975212225691966e+00 2.462537134704953612e+00 -5.614355346251544976e-01 -4.791404289140923645e-01 -3.793828660961168220e-01 -1.642241775594515119e+00 -1.583554221369812831e+00 -1.192028363351340658e+00 1.435965509005171503e+00 -8.135192708484193513e-01 1.368475570309439227e-01 -1.681219480834654112e+00 1.538308755930434035e+00 -1.343562115387844647e-01 1.284855039703916235e+00 -2.096715538657984990e+00 -2.463158601108374590e+00 -1.956307072342657882e-01 2.566325073768791043e+00 -4.436841166850513662e-01 -3.181331317784908963e-01 -1.796076421967979231e+00 7.722750021220127492e-02 -3.768488303524546862e-02 -1.043957524791079734e-02 1.513373066079608087e+00 -1.182207340784990901e+00 -9.925071873239852405e-01 -2.044111435343254790e+00 3.874487762619653330e-01 2.104902396150461374e+00 -1.902201881813300632e+00 9.760979448015405513e-01 -4.082097594495359694e-01 9.759055400570402217e-01 -2.743703669103627618e-01 -9.178218006191577460e-01 -4.162418792448568938e-01 1.934596730942614640e+00 -1.949375464714181660e+00 3.322597413672127020e-01 -5.339752571231883710e-02 -3.228542188126526380e-01 -7.895096452063278258e-01 -4.998726266097968107e-01 5.831781201818226901e-01 5.253511343317105453e-01 -8.104206324609023460e-01 -1.937536520278816399e+00 -3.500676547184978782e-01 2.252305206941348725e+00 2.960280177970913140e-01 -1.247352856016233913e+00 -4.880461197744008217e-01 -8.626606242839853778e-01 9.238624726087142358e-01 -1.460266409993184356e+00 -9.228700052771453555e-01 -1.163914478133015296e+00 2.445141318208105208e+00 -1.758710456069954575e-01 2.501470356259178907e-01 2.355235245942535194e-01 5.563280840613619160e-01 -1.384610333478874189e+00 -6.027471580941899942e-01 -1.649176339053312290e+00 1.554363485153162916e-01 1.261636822295367999e+00 -4.411251694221868247e-01 -6.474415090762638547e-01 -2.513492747648266246e+00 2.006943822181786796e+00 6.012500786156528276e-01 7.709927682606061705e-02 -1.732637064421956197e+00 -2.855505042698356366e+00 1.512210969881264688e+00 -6.210494492535401090e-01 2.166764444940302070e+00 -1.463365585128628688e+00 -1.709452509953380162e+00 7.505181358243718792e-01 7.633997261855801630e-01 1.651236942185742240e+00 4.639608781703864759e-04 -8.183058226089330589e-02 3.115053120864310632e-01 -1.025574115077889203e+00 -2.437949642400712991e-01 -6.846166822868313684e-01 1.269804932551148013e+00 1.932105393990836695e-01 -1.810261028454999144e+00 1.383201493317897768e+00 -6.579697943178057784e-01 1.832126606764163057e+00 -7.785695699429816541e-01 -3.415419575339997960e-01 1.495566937597646584e+00 -7.557961595947351174e-01 2.528895299736375168e+00 1.127246692891587188e+00 -3.109020345581967049e-01 -1.129445041563503560e+00 -1.112918745908528795e+00 1.370638219204782793e+00 -1.269809624850475327e-01 8.680720598934315024e-01 -4.018811946334729379e-01 -5.836377308063777081e-01 9.670575580357345657e-01 1.507175468804084373e+00 -2.197986563735448318e+00 1.488156774847797514e+00 -1.274835672056177982e+00 -1.299653043856645596e+00 2.874851146259608470e+00 -3.702518329260433561e-01 -5.556095409051579198e-02 -1.498232388891957978e+00 -1.113666107811660977e+00 1.088726720859720443e+00 1.932344895065409185e+00 5.871166090407529126e-01 -1.285436764963426182e+00 1.218142181612129837e+00 1.018266732036015920e+00 -9.503570801788636668e-01 6.655235774359588574e-02 -8.831434981843678811e-01 1.073027179751913307e+00 5.078286210031411896e-01 -2.131506626612819311e+00 -4.103401132224847592e-01 -6.555479280339067127e-01
1.383718241882571531e+00 5.028631152146094685e-01 -4.615288409123097235e-01 -7.435834489773720524e-01 -9.017519256829297225e-01 8.478025199069669782e-01 -8.727018326704437667e-01 1.074963334772455648e+00 -1.671477545907160689e+00 4.160090564442371353e-01 -4.726519119026340587e-01 -1.260801627473334907e+00 4.872296187956933755e-01 -2.464420156770342762e-01 1.007691731858199935e+00 -1.545034249929394532e+00 -5.249812773972205304e-04 -8.797978660532540518e-01 1.432796598585555747e+00 -1.137260233018452027e+00 -1.493485673916998158e+00 1.811685878007670558e-01 -6.458487384277232513e-02 -1.626355575099662554e+00 -1.178672378537637538e-01 6.134532264127797729e-01 -1.028861574432675008e+00 -6.547313135804276873e-01 -1.903662337334166565e-01 -9.290384260902156965e-02 4.808470908461877080e-01 1.055164773576378945e+00 4.219054592030568873e-01 -9.380192315404726200e-01 -1.337731394132059215e+00 2.181666762893792910e+00 1.727263199396636417e-01 -6.572636860935791026e-01 1.181109736128563403e+00 -3.670644588592140156e+00 -7.536239721979611783e-01 -3.469431453185764513e-01 1.055704369301965206e+00 1.114706228105590613e+00 -2.362761269944383624e+00 -1.929149164280857587e+00 8.256090017829427474e-02 -1.375450111337047421e+00 1.347041183563952194e+00 -1.271855266656457539e+00 1.054887856162465276e+00 9.402369906673584410e-01 -8.121465793495296071e-01 -7.531933950959708302e-01 -3.451638080607456055e-02 3.101641349893314303e-01 1.425563648047663889e+00 2.077807826557885318e-01 -2.182247576482681861e+00 -6.216847996991650138e-01 1.856749060058745515e+00 -6.204397734075143417e-02 2.886144486767168726e-01 -2.165568398730064459e+00 8.677948450801293845e-01 2.288000731801258070e+00 -2.167965517918232443e+00 -2.926346773874196616e-01 -1.364945706360838784e+00 1.702041105646872277e+00 2.731326358030631951e+00 -3.347859285085871828e-01 -5.871478773366659576e-01 -5.463519191718579221e-02 -3.213178570164973546e+00 -2.033087432156076790e+00 2.958068797277434658e+00 -5.670094923055908342e-01 -7.119656385128800280e-02 -1.501063570958336868e+00 9.340605832012189857e-01 8.861011667693057259e-01 -1.528771864652424206e+00 -1.117176612484789722e+00 7.598039049925972011e-01 8.844381031659522829e-01 6.878274544234619370e-01 -5.806430117491271359e-01 -9.865233271164079998e-01 -2.210710492598606802e-02 -1.439823779512171997e+00 -1.941309943570210583e+00 1.326195082412783277e+00 4.533744646494488606e-01 -1.426142069221213671e+00 -1.056228563999533465e+00 2.404879205027312672e+00 -2.122890817238291206e+00 3.990581542299781459e-02 6.287136754997738608e-01 1.240575834954295464e+00 1.604527027536186035e+00 -1.716976912136033984e-01 -5.024254788695453611e-01 -1.823194491611574097e+00 4.219520277900108418e-01 -1.301919875336041921e+00 -1.096480402367404183e+00 2.900690780852348549e+00 -6.886197669432729818e-01 -2.048885039785453888e+00 -9.170572365767277745e-01 -2.521788987484296363e-01 7.032344280260275360e-01 8.177140929039627970e-01 -6.779140218341573876e-01 4.004106315572686925e-01 1.912850588045623912e+00 -2.136483809635584930e+00 -7.627219888531600045e-01 1.746219122448505190e-01 3.618703711596332750e-01 3.852371155794892532e-02 -4.044511578772839733e-01 1.592432514990712811e+00 -1.514568591547898357e+00 1.537463416458061616e+00 5.296785576335132778e-02 -2.055498979823576211e-01 -1.224219477952117642e-02 8.308413615314236278e-01 -7.443949098337047099e-01 -2.128926742451597853e+00 1.047017868214673797e+00 -6.453459481138869025e-01 -9.677889764313503118e-01 -1.682723682754985850e+00 -2.251279945377898106e-01 1.445354120051478564e+00 1.245077968239529792e-01 -1.003045112909139558e+00 1.187019751610455476e+00 -5.451589717125980838e-01 1.925046202078372737e+00 8.925232208451377991e-02 3.416631983712289378e-01 -7.468893645887172972e-02 -5.751640257646026821e-01 -1.286191879763412205e+00 1.070403765993993561e+00 -1.932317267143561113e+00 -1.340011992931181117e+00 1.554444120833349707e+00 7.208372019321009905e-01 3.368835515152629467e-01 -8.684618151987902879e-01 -1.397489863911864250e+00 1.964151569129980679e+00 -1.363854353460992597e+00 2.802895092017969603e-01 -3.059357929258383901e-01 -8.355892898628376753e-02 1.006455400579451931e+00 1.321715056767748253e+00 -2.343057470801336972e+00 7.975868447719980381e-01 6.595752752597109358e-01 8.698471785970853798e-01 -6.969567628350513688e-01 -7.544352426021101454e-01 1.616173160894273764e+00 -1.736753739143329200e+00 -1.724283548223560780e+00 1.479696910747352323e-01 -1.884619860618569342e-01
4.068571470583524086e-01 2.032242671084635965e+00 -1.672581478511168340e+00 -1.669216040300203652e+00 2.639793562386576475e-01 1.435395752534137648e+00 -2.596934572813987430e+00 -2.585607893796799672e-01 1.271470308617491440e+00 -4.081832682639727761e-01 -5.040862193444842765e-01 -1.304136725860739476e+00 -5.266192233914960275e-01 1.529614084886662617e+00 -1.518007593294108393e+00 -3.253020667527877219e-01 -4.743591000636888655e-01 1.291386813850988746e-01 -7.931559535723553545e-01 1.067423672130420886e+00 -4.677197793982489082e-02 -1.339254076616203104e+00 -6.341974958684400976e-01 -1.078787315027063043e+00 2.626604469005137776e+00 1.313479700736116307e+00 -1.643019236565368413e+00 9.460648378863367736e-01 -1.233770237416958127e+00 5.995837270001569408e-01 -7.047884501615816477e-01 -1.152824873514747051e+00 -1.315416380923505102e+00 2.134781907421272162e+00 3.474161482976002163e-02 3.611599725041709785e-01 -3.314969105191601512e-02 -3.189031902984806877e-02 -2.019502870311238762e+00 5.673777859538113935e-03 2.880614434982747274e-01 6.525523403418674873e-01 -1.134636643529158551e-01 4.268830972049250105e-01 5.821611901076232387e-01 5.881347477857904599e-02 -2.329939423599589610e+00 -7.659522330665109735e-02 -1.135220575447954294e+00 2.558617736551101363e+00 -2.155986701535512334e-02 -6.414176850889713455e-01 -1.891732521887884433e-01 -1.826251992666630963e+00 1.696037986006076803e+00 -2.460850761556357957e-01 -1.141548391401858042e+00 -6.300254124292291591e-01 -1.223831761578556332e+00 2.278725519727926585e+00 -6.381113712966031137e-01 -6.705968339951472457e-01 -1.530457008283718556e+00 -3.002596891729396589e-01 2.044083509517507391e+00 -1.262572139969640045e-03 -1.459758326486096491e+00 8.625874373712788534e-01 -3.208537413287384510e-01 -2.289409000146229167e-01 -2.208373623339441871e-01 3.213792926766434466e+00 1.079680356384485007e+00 -2.132948560243622893e+00 -1.489701436133630930e+00 -4.893072370551505568e-01 -2.088180146448778696e-01 3.850237977136771739e-01 -1.732335129370691673e+00 1.178176167865651491e+00 -1.105912331318965602e+00 -1.851782230192959289e-01 1.547909426850009540e+00 -2.347549057579001008e+00 1.296032838218102112e+00 9.532930238464891737e-01 -1.783774513778564774e+00 -5.803182002344023926e-01 -1.173244923116849719e-01 8.602270507719436132e-01 8.979285436217487870e-02 -2.232255741823364614e-01 7.730270817801423444e-01 3.527090318279152981e-01 -1.652901741286471937e+00 -1.157031415486893700e+00 1.126294592201146028e+00 -6.062438535934667749e-01 2.382643984292914796e-01 -1.797187064925198086e-01 -6.377444472432149958e-01 -1.537611246745085980e+00 2.209283056777965604e-01 -4.824740075346564128e-01 1.662367511282490051e+00 -7.229227041065473536e-01 -7.224292208395002302e-01 -9.342522649038201843e-01 8.598322067535584257e-01 1.698319377490941973e+00 6.477810112465185455e-01 -1.549467898350463946e-01 -1.018960132002091790e+00 3.093794478964237982e-01 3.942089935887024277e-01 -5.689100429030091721e-01 -1.140126458724805447e+00 -3.632262074517469963e-01 1.683032106998078037e+00 1.003806192614500187e-03 1.473091038037126266e+00 -1.175011780280356355e+00 -1.689134970825377557e+00 2.142987207007210904e-01 1.485546705330022199e+00 -1.400712024889860130e+00 -5.160824053895602948e-01 -1.228659544831309125e+00 2.630139390854073778e-01 2.391985553264226017e+00 -7.918198523631375663e-01 2.550797779334284532e-01 -1.171618102654349292e+00 8.496681705613091662e-01 -2.504776640089349526e-01 -4.420259287949720450e-01 6.078688620206091908e-01 8.977604595960257949e-01 -3.782413678990761974e-01 7.869726825107994372e-01 -1.119657423579354605e+00 -5.402470004270698567e-01 3.119117827311644664e+00 1.402764847074104981e+00 -2.094886122177653576e+00 -3.405789259398523505e+00 4.070059870484893927e-01 -2.111820824352668158e-01 4.575419618464724447e-01 2.655821308190308372e+00 9.317540619373068100e-01 -1.562883683960414105e+00 -4.413310852721867850e-01 1.736809402352478271e-01 6.176330154702776021e-01 -3.817417380950275940e-01 -9.426768697083296455e-01 3.675924687303010474e-01 9.983570555949030645e-01 9.218606516750430524e-01 -5.512554049223067354e-01 -5.669684792260667461e-01 1.603487574963884943e-01 -1.403922519381908041e+00 1.764036816604815705e+00 1.037830183419126001e-01 -3.258400799613892646e-02 5.812929641062352104e-01 8.089868331568956794e-01 -1.699235057225601642e+00 2.187092313269339838e-01 -1.472492428379362117e+00 -2.465591526474992357e+00 3.146652422782605374e-01 2.007756152817440576e+00
-4.865783467809259299e-01 -2.680350302678084162e+00 -1.387735986953539502e+00 1.028013461591544830e+00 1.235876516414765813e+00 1.571250295751303733e-02 -3.718388230767184499e-01 9.103473491859308542e-01 -1.006853870208987756e+00 1.254939491370760996e+00 -3.639548002658187786e-01 2.122111413017633008e-01 -2.890416600147832638e-01 -1.495022941523010296e+00 2.929455612953312915e+00 -1.684375900158108230e+00 -4.938542108257433227e-01 1.702333744601429943e+00 -8.177803435316166603e-01 -2.018368691157558792e-01 -5.772978467777800660e-01 -1.270322360949176943e+00 6.426658092022241586e-01 8.238395312537720727e-01 1.195450810755089410e+00 -7.402835893718759386e-02 6.241967562269795655e-01 4.577885710155678300e-02 -2.290373167174918345e-01 1.293161660669951196e+00 -3.442049494612965388e-01 -7.281249318119907832e-01 5.331466485527005528e-01 6.293481585310972681e-01 -3.152937775659427899e-01 -7.530713964645256997e-01 -5.577718211220601408e-01 6.615493040617040910e-01 5.687885309825336799e-01 -8.971450042896217392e-01 -2.273114273321473089e+00 -1.389767227416490725e+00 1.341655161031149457e-01 2.304881852147288690e+00 7.592682407421673663e-01 -2.270989852173407320e-01 -2.178330718220913287e+00 -3.192925743761396706e-01 -4.392805267610754294e-01 1.828396126004246502e+00 1.345052651763842366e+00 -4.681244416470260461e-01 -1.090881915450155448e+00 1.250505290412230908e+00 -9.934650288326074552e-01 -4.455733370048916564e-01 8.341121216968484797e-04 7.379478313330570249e-02 1.345653688335611387e+00 -5.068984357607962954e-01 1.245753484115075693e+00 2.430438985434330235e+00 5.037001481872330766e-01 1.050996486005498554e+00 -2.678685432538908007e+00 -1.767185229197182572e+00 2.067982159456221436e-01 9.578770916583547734e-01 7.631403940728538338e-01 -1.297584224127895647e+00 -1.399865607673784762e-01 -1.070832061972178950e+00 5.775873258829501422e-01 1.757213691867925420e-01 -5.447686067676054122e-01 7.499991100685411416e-01 -8.630703053543870018e-02 -9.464014630535213524e-01 1.173475164083657152e+00 -1.039691732312397976e+00 -8.599761930353774231e-01 -1.812718009615851500e+00 2.046922223520982187e-01 6.437808563889283464e-01 1.004956576428690740e+00 -1.445413646473550973e+00 -1.209868842365502628e+00 8.735341495489036268e-01 -5.366360180578956252e-01 1.203827654528930813e+00 -1.015755126482390303e+00 -2.049758773074148582e-03 -2.757153500198509466e+00 1.760318158382375930e+00 8.140459757729451296e-01 -1.958751346194711473e-01 -2.376960411479753343e+00 -1.037732367308574072e-01 1.134678255818778903e+00 1.255397517803193530e+00 -8.783359044189626985e-01 -1.660037536718769191e+00 -4.986494813494688483e-01 1.145431829519366340e-01 8.120751595028459224e-01 -1.195930601985270458e+00 -1.945432809001944818e+00 1.909479725247358317e+00 6.229396931309830743e-01 9.307544397485718601e-01 -1.385956003357053934e+00 -3.108677943123105969e-01 4.908045875404418723e-01 -1.122539947945215832e+00 7.076824332799954709e-01 2.835314103396014973e-01 -2.303127602520698591e+00 1.436288932705025001e+00 -6.787550335730018203e-01 1.000542910477671965e+00 8.888480392847822875e-01 -3.506741500437310921e-01 -2.336229222063485711e+00 4.625846345234729817e-01 5.072917151944599246e-01 2.495941925179738785e-01 -1.306145550071390549e+00 2.699748301063495393e-01 -9.363335949923217161e-01 7.063260867080518590e-01 -1.799760463813167677e+00 -5.185583689801981366e-01 5.961825991484080989e-01 4.332628386821728572e-01 5.622278908127185115e-01 -1.355449568901327728e+00 -7.678662321984482952e-01 -2.100249585802039132e+00 -5.805050264226844225e-01 2.820932648882986005e+00 1.376797621993243625e+00 1.568645966144488479e+00 -7.179461267597733176e-01 -3.530982258750256508e-01 -1.645836081522260574e-01 1.413053272500346402e+00 -1.633337539796759996e+00 2.809003316182318577e-01 1.501327401886654034e+00 -1.369404462742810580e+00 4.777049320062574933e-02 -1.064368504709058527e+00 -2.416185170061918575e-01 6.079220493005617065e-01 6.240107058974471155e-01 7.729523107429129292e-01 -2.280709767318537806e-01 -1.878128019521639047e-01 -8.884046352206018682e-01 2.948330387227833249e-01 1.920388219322050505e+00 7.819314685824864386e-02 -1.431345942682523020e+00 8.572888286318119944e-01 -1.941076601514192923e+00 3.904609035891267732e-01 -1.542773722739299913e+00 2.932180543118771965e+00 9.179135804964957401e-01 -2.542370191179181393e+00 -1.236239294333302929e+00 3.327025406403952279e-01 -1.195304362248136743e+00 8.141437878628204894e-01 1.448205845432465999e+00
-2.780681244937474261e+00 -4.348797191903466253e-01 3.300229704160825062e+00 -4.277680901391214263e-01 -9.162831273337559423e-01 -5.889504943774249712e-01 1.965293995626585133e+00 -2.998561988560803360e-01 -1.226020944252344674e-01 -1.225804476352667205e+00 -5.910662270434072774e-01 2.057769960209588689e+00 -2.434081346359134201e+00 8.616611019990885190e-01 5.950822851391288776e-02 1.037223360199138744e+00 8.121417184876255080e-01 -2.519153175259463140e+00 3.015013912006112573e+00 -2.759493458270869226e+00 -1.730992151006211399e+00 3.104886740401671119e-01 -1.283704102695730320e+00 8.332765716123451405e-01 4.806514286949550296e-01 7.400862809328581648e-02 1.756621503422072239e-01 -5.346121133345854703e-01 8.526200032620911973e-01 -6.002887487558159485e-01 -5.199907322165709944e-01 -2.091935401296723729e+00 5.531744751602411109e-02 4.373175451285917781e-01 2.749789398826008591e-01 -7.262148491115607563e-01 -5.934580936903157689e-01 -3.162976904975869363e-01 8.354864966088887401e-01 6.497259889603369531e-01 6.661625750943391822e-01 -3.023897779272201047e-01 -2.124468276302771130e+00 1.188067576728599972e+00 6.654664941452669291e-01 -1.718962789320235718e+00 1.126703824934560227e+00 1.631523767483795018e+00 -1.737185586193099818e+00 -7.033746233445117291e-01 -8.634112862277589784e-01 5.138211408225628052e-01 -1.088461229668251429e+00 1.023178415449481626e+00 1.467262455941402699e-01 -5.815493492689839394e-01 -5.731824506216947057e-01 -3.868761905117145128e-01 1.160343081324917591e+00 -3.452997704874120055e-01 1.402022796230570023e+00 1.689664018372035170e-01 -2.266673325696374253e+00 1.292473652832722752e+00 3.091065146854576895e-01 2.191973806089343668e+00 7.519145603764977592e-02 1.007711097224309071e+00 -6.863470610818184214e-01 -1.394119332981163195e+00 4.759038479506327857e-01 2.258309804261437126e+00 -1.032884281416918126e+00 2.873519530645479714e-02 -8.254362138986999220e-01 -2.287008766767004264e+00 7.094137401020165212e-01 1.500001886378690141e+00 1.232463675686740867e+00 -1.003895435299032801e+00 -1.128019123868370388e-01 4.414849130420339662e-02 4.588322176267264352e-01 8.663350740171602560e-01 -9.645829039919773251e-01 8.334547809916026395e-01 9.428938270247302356e-01 -1.131362294561816473e+00 -8.375516643688862839e-01 -1.040458886278862627e+00 8.038664830438310149e-01 1.626161408079082271e+00 -2.638747625622931636e+00 -1.234129310897877918e+00 4.840946396561661702e-01 2.133536221090656326e+00 -1.773436552848366876e+00 -8.796270690253069624e-01 1.703444118447725586e+00 -4.838319073431364692e-01 -2.808926009760236653e+00 -6.532275292245202092e-01 -8.287748149212936788e-01 1.730555058050190054e+00 3.574648554638164555e-01 2.094074687190990991e-01 1.059787192658388388e+00 -1.652607641490769330e+00 2.128474221357001372e+00 -9.264029543476879347e-01 -1.471144010721374018e+00 1.302390297189855550e+00 -1.163041992009454573e+00 -3.049744454558025453e-01 -1.590037548144294655e-01 1.614832367622065501e+00 -7.541802908826445995e-01 -9.038292483615154582e-01 -6.723236072019880272e-01 -3.210366581424404786e-01 -1.164629738046748519e+00 1.505267656839375467e+00 3.125764189916316327e-01 -9.889716002551406093e-02 -1.378142125368135185e+00 -2.047214601200511463e+00 9.149406214278277272e-01 2.179997118259776823e+00 -1.224941431986706020e+00 1.291576269262763033e+00 1.363258386401215771e+00 2.427931131588419167e-02 5.813770921520023949e-01 3.481632020493814483e-01 -1.291135340023870093e+00 -1.224272447177129131e+00 1.906703978830800006e+00 6.737906866411249585e-01 6.484080936158777009e-01 -4.017563253104625698e-01 6.766556448901487331e-01 -1.311653376591689124e+00 1.753954886142452763e+00 -1.626309772169380885e+00 -3.565952498404504345e-01 6.620383580089302944e-01 -1.480297632321073253e+00 -7.805723894728474610e-01 1.273415382926733175e+00 7.220440639820112638e-01 1.340513505183238419e+00 -5.082457844610035469e-01 -1.888396232740964797e-01 -7.378730621151980973e-01 -1.772958317233710890e+00 -7.825273926289523230e-01 1.973920602345789477e-01 3.651778817820365841e-01 2.553307056766915828e-01 -2.417501793893213069e-01 8.009463060277641766e-01 -1.671390908635058903e+00 4.968963007205972060e-01 5.231851182728051164e-01 5.998235454968241509e-01 -9.845937964503844730e-01 -2.768407385337067428e+00 -6.271972417779857478e-01 2.913731479628908438e+00 1.053526859604836829e+00 -7.005999607835489140e-01 -2.166362922143620473e+00 2.493282313270639428e-01 2.006690619848856549e+00 -1.407084486446053440e+00
5.149662535693864118e-01 2.643040519014087097e-01 -2.269634625858496513e-01 -3.877832305302942872e-01 -2.969044824756070788e-01 1.915141685637275826e+00 1.918741164596536652e+00 -1.176025922103509681e-02 2.580472919185708425e-02 -2.273801169398603328e+00 -5.574602312046298414e-01 4.301816214865965549e-01 1.215995699727324686e+00 9.519267077945474664e-01 -7.262751327691451264e-01 1.356264279007249440e+00 2.199976317831066619e-01 -2.970945823564567601e+00 1.826174832274191084e-01 2.385645251774419773e+00 -2.289080668219007908e+00 8.963111206266787256e-01 -9.545047912015286462e-01 1.919608994557252757e+00 -1.254703911692298668e+00 2.167184541698029765e+00 -4.380074187232930183e-01 -5.945374034798390356e-02 -8.952628458251101762e-01 -9.429041681362925198e-01 2.185701187248007216e+00 -4.855743666795005534e-03 -1.759901050237046682e+00 -7.712069104154939403e-01 -4.896021656512383746e-01 -1.698128871197742473e+00 1.767209351937706341e+00 6.931079806735349624e-01 -2.221663915281181012e+00 6.848432771074866032e-01 8.598983523015824026e-01 5.466694569265811987e-01 -1.992112671161400672e-01 -4.311912220431997067e-01 -1.430221331689121245e+00 2.157359422465888521e+00 -5.642612383524492348e-01 8.282583475724177025e-02 -1.510287706820356846e-01 -1.065376325312671346e+00 6.722324469927506430e-01 4.718306919449190562e-01 -4.016310938500018413e-01 -1.285487384221127849e+00 4.640457176549863672e-01 1.868550390473999734e-01 -9.308158009651414933e-01 -3.184211505517582919e-01 1.187127935418963026e-01 -3.821225973029267475e-01 1.002819294177721865e+00 3.028864025912087143e+00 -1.640208722940362129e+00 -4.847088819294643192e-01 -9.285791110599326270e-01 9.122243007699268880e-01 8.567770697350280962e-01 1.560236581289856428e+00 -3.642189757224385538e-01 -2.351966798932970448e+00 8.603492925576855521e-01 -7.974421376692385488e-01 2.963207114753530380e+00 -2.009346150314341273e+00 -1.326930142952397418e+00 8.801126530348372112e-01 1.731039650852577383e+00 -2.972022278890503744e-01 4.266144998351434348e-02 6.662508924778112185e-01 -4.876524372339190450e-01 -4.649599218914285403e-01 1.120801272111505487e+00 8.741054513014312466e-01 -1.017131748976173977e+00 1.326008081654890258e+00 1.761293667870212687e+00 -3.781894429903588373e-01 7.476902123423462276e-01 -2.881131966933422106e+00 -1.368812973893457796e+00 1.065551695019181233e+00 7.625372267848352648e-01 1.532666552471786958e-01 -6.240977705737182912e-01 -2.100062790220073583e-01 9.648455519451175633e-01 1.947461465488765919e-02 6.454150089256990297e-01 1.310867236991818618e+00 1.668219729632073101e+00 -1.187107017571136458e+00 -1.580578790400592348e+00 -1.917498476679467823e+00 7.511139999944729251e-01 -1.145258472218371217e-02 -7.943571346111648612e-01 2.322740572861847208e-01 1.553738191637709321e+00 8.311007049568338578e-01 -3.602820343097595107e-02 -2.189729426632036180e+00 2.696552827862523927e+00 2.809508047386218843e-01 -2.611797556039513690e+00 -6.182010575196783542e-01 1.337874460412046274e-01 1.881692757741685318e-01 9.826840374871512740e-01 -8.807348159279314581e-01 3.419189165192612068e-01 7.317381923328983850e-01 -1.885939496878617616e+00 1.012625896066474240e+00 -1.531667718889355267e+00 9.074158869176370823e-01 8.119796113742787647e-01 8.908224139344556036e-01 -1.273436992553043101e-01 -1.655401808913262940e+00 6.465294538219327203e-01 1.365686048503051309e+00 -1.928276909909500514e+00 -1.306201871743028819e+00 6.229222493389809934e-01 -1.276443038662140039e-01 9.442970160629020615e-01 -9.378976815095521058e-01 7.765469383420582350e-01 -1.188903561364323958e+00 -1.561948980469526793e+00 4.998652054687438007e-01 -1.425570401133207321e+00 2.919958619063229399e+00 -9.421092555853312067e-01 7.503113587216867497e-01 3.170977468959535472e-01 -2.549425476806591040e-02 5.557570338047327363e-01 -1.064043173322685165e+00 -5.123596838215234150e-01 3.845085117021789234e-01 7.624824913860459574e-01 -1.967283520537855268e-01 -1.003882041143848936e+00 1.157195794214662010e+00 3.040338359873945295e-02 5.423117101029333309e-01 3.691312611444002578e-01 -9.888321416005769748e-01 1.171833771122760687e-01 8.713547597965161096e-01 6.632602773680749131e-01 5.672950241103518199e-01 -2.864946223179345441e+00 -2.224641046085935603e+00 7.655238579046860226e-01 -1.407909516074901113e+00 2.188712276739610996e+00 9.372770553748148714e-01 -1.065213995890217369e+00 6.347532467635724762e-01 8.036560767180529752e-02 2.885740332999695013e-01 2.338802996223109387e-01
-5.513259825038777789e-02 -1.455201503337633540e+00 -1.140115776860579910e-01 -3.106434775323497210e-01 -1.561057069093314542e-01 4.915431780793415584e-01 -9.765038051972698696e-01 -3.088962721867496430e-01 -1.037596289593565535e+00 2.826393125712670651e-01 -2.617626147093918831e-01 -3.351643638839618689e-01 5.171339942376506071e-01 2.678000365608722011e-01 -1.509403789235026050e+00 -2.425382948371539449e+00 1.270795489962029734e+00 8.164071541934032616e-01 1.037235562411885414e+00 -3.883844780191704205e-01 3.267713653521819306e-01 -4.561141713485151739e-01 -2.102110237625044231e+00 9.434428788449653602e-01 -4.813037215971631699e-01 1.090275112105422828e+00 -9.894074193662429906e-01 -1.677326055755722356e-01 1.227549262300254185e+00 -1.867984565011571174e+00 -6.475352723900578145e-01 1.987159722254085992e-01 1.950796112787601955e-01 -3.053398410877659064e-01 -2.966839750858113467e-02 -1.369231459677035856e+00 -1.877863518293126921e-01 1.399010687579673728e+00 8.074912833641317844e-01 -2.241240290208151631e+00 -1.854029749102482638e+00 2.341887813888883230e-01 1.404173719429272715e+00 1.977051779315851077e+00 -1.931172597490976806e+00 -6.698014191061338884e-01 -7.365938300469082600e-01 -1.057687595414869008e+00 1.409994641242998226e+00 9.142820317570793387e-02 -9.108417588417058175e-01 -3.778846089830308896e-01 -1.084881136130097845e+00 -2.225711910702545371e+00 1.361418159582441945e+00 -1.718274357736844671e+00 -3.092419720324407262e+00 -1.290211051634632566e+00 3.714887100091243788e+00 4.814900411484736020e-01 -9.209681754180576441e-01 -1.621385308632496969e+00 -5.977465218103089617e-01 1.280445997144880721e+00 7.144637866330837417e-01 -1.623309307666867873e+00 9.776393222902340918e-01 -7.691321614626480674e-01 -4.304742344284112621e-01 7.152697635770578488e-01 -1.725926362465107333e+00 -1.170370749122832343e+00 -4.851849740134732691e-01 -9.789155182424496005e-01 2.984795759591273079e+00 -1.017030582502397529e+00 1.665647058444111428e+00 1.057538272842216909e+00 -1.641441391966869778e+00 -6.873590356882373076e-01 -1.275974600979608464e+00 1.487958380289553295e+00 1.326457028514370418e+00 6.160437912551985917e-01 -3.225697321117668270e+00 1.137890610196508279e+00 -9.933513503819695334e-01 -8.525569118950866443e-01 -3.126348473818735957e-02 2.003382320924417259e-01 4.925702735256733966e-01 1.696989989385922826e+00 3.786164923390077791e-02 -3.291980647422068085e+00 3.676757706152423144e-01 -3.256336128199719404e-01 1.455899154624124225e+00 -3.411009790752010939e-01 -3.947179804156821792e-01 1.898202937685103397e-01 -1.531397534179725239e+00 -1.894973718882420943e+00 1.960811971329360137e+00 6.964492845739893578e-01 -2.669587674293406598e-01 -7.478699262774368695e-02 3.413356486231595294e-02 1.250332831536495215e+00 -1.500756560648812021e+00 -2.323344009225395634e+00 -4.137526206596477962e-01 -2.132483751934553418e+00 -6.121738953341440137e-01 1.752931216033604134e+00 -1.443390469336461868e-01 -6.423126035171160542e-01 7.014117974112881182e-01 -1.895480385160670522e+00 -1.610167201511159690e-02 1.169639411433997411e+00 -4.107833047230881607e-01 -9.480468417969043493e-01 8.238801242553329685e-01 4.816011292694406531e-01 -8.719433427274549953e-01 1.998502613989212029e-01 -7.635497843797817152e-01 -2.505853885049190932e+00 5.786299202809823683e-01 9.360278200042371211e-02 -1.902832009865873752e+00 -1.943189678377781116e+00 1.375064637899864772e+00 -1.331020540619829884e+00 1.226991203496895055e+00 -2.643643957315096049e+00 -3.048395619640962728e+00 1.322748395714627323e+00 6.298035779430275483e-01 6.959061356190331393e-01 3.086672410761974739e-01 1.022598499340544587e+00 -1.384070838444108942e+00 -9.336203927412676240e-01 1.197788554526761473e+00 -1.002408149151154726e+00 1.324113289673060079e-01 8.956016425402614223e-01 3.351614139341911325e-01 2.340690639706219378e-01 7.970721067784962699e-01 -6.793423913330374209e-01 -1.280610308385130569e-01 1.405453430503374124e+00 -3.853097773427220929e-01 -1.171532595900013574e+00 -1.139861520320681665e+00 1.404669217672130488e+00 -7.117395994993538921e-02 1.613923120710745618e+00 -2.990716931828443226e-01 -2.736206657992759972e+00 -4.638319469805304851e-01 9.509336560085323020e-01 5.333209362393291908e-01 -7.063126508727363140e-01 1.061790394430462525e+00 4.641348271780840196e-01 -1.574862698972984809e+00 8.826345174859780984e-01 -7.756211243278208212e-01 -7.108709093336326723e-02 -8.364941394855954782e-01 1.831042827323086541e+00 -6.141649794961430153e-01
-6.424200418812926472e-01 1.026953691558980981e-02 -7.190026947501454435e-01 2.198732815508278815e+00 -2.169620504998845512e+00 8.889216096456424854e-01 -2.553162705977420455e+00 -5.194066670779925454e-01 -7.156969603749296915e-01 2.303740041514871884e+00 -5.278554582181269605e-01 -6.755881922770768933e-01 2.724900139587732584e-02 -1.645131762332167957e+00 1.780101210419551494e+00 -2.345978593150424452e+00 -7.581824176305523855e-01 -1.884192189812456508e+00 2.360305898221277954e-02 3.765436331341676990e+00 9.395673410550010596e-01 -1.296911727993715013e+00 3.674110442651817299e-01 8.819500329588353393e-02 3.287159296788898510e-01 -1.087555319251502617e+00 8.583547788763923325e-01 -1.767767630177069504e+00 7.351034713808198839e-01 2.048816007059552469e+00 5.270510492548481363e-01 -1.979961981064636944e+00 -1.009217161170206545e+00 1.449743313627674057e+00 -1.261776849272004952e-01 -2.352159611785063831e+00 -4.803391993436801899e-01 -9.454457286567998775e-01 8.959682458090316715e-01 1.345082788575385102e+00 -6.204427483735740489e-01 4.520282587708780442e-01 1.587550008241545713e-02 -1.858344880941575461e+00 2.913059387321329297e+00 -9.332338440239172916e-01 3.573671679876094104e-02 -1.270795749382111151e+00 8.495159848328756036e-01 -1.322243956850767121e-01 6.660166053107208217e-01 -5.694716372493481282e-01 2.492588672015955797e+00 -1.237188724608093482e+00 -8.182546912913186699e-01 1.201989210276966480e+00 -3.742947317791154305e-01 -1.145146381996926754e+00 -5.969550200860884726e-01 6.339528623564336662e-01 -2.029657490961027100e-01 6.278400954190590522e-01 3.635547348973257042e-01 -1.965613289646304107e+00 4.286570332859345744e-01 -6.931550817581287882e-01 -6.814910022961665481e-01 -3.772608821271661306e-02 -4.598469478099629359e-01 8.900045814199769589e-02 1.241470946570982115e+00 -1.460978462102366260e+00 4.419438748910016201e-01 -7.712717616149831201e-01 1.424162456551006040e+00 -9.304927591988704227e-02 -2.893327076653910979e-01 -3.013328386462651443e-01 1.594939015213074907e+00 -1.306685184521881871e+00 -7.219732871000297258e-01 -9.241041888619871969e-01 -7.609666420847275292e-01 1.021745797033495995e+00 2.819595790277704683e-01 6.882691503991425486e-02 2.067386691333027438e-01 -7.213525338374545681e-01 -1.489764102072564489e+00 1.787640335838806438e+00 -7.786210569917102475e-01 -4.233911417805045208e-01 1.596970914425901222e+00 -1.101782105308058535e+00 1.185326748726089230e+00 -2.542367189484806556e-02 -3.998327120695413517e-01 7.442987098054114625e-01 4.594320349032566253e-01 -3.367516318628597793e-01 9.189720687880447228e-03 -5.173507221205712048e-01 1.445362771488126530e+00 -2.383527398284526200e+00 -6.123392251436114986e-01 -1.636800081222298475e+00 1.741514306329367434e+00 -1.568308259683107275e+00 9.475258011241438627e-02 1.245576536845370619e+00 2.065412851449563436e-01 4.913975627955926573e-01 6.035275185660863434e-02 -1.334242275425543411e+00 1.282566113106829997e-01 -1.070867835137560453e+00 -1.299187427985375898e+00 -3.256402192926777933e-02 7.082075319505286570e-01 2.127368160176081435e+00 9.927196504258910537e-01 -1.452739232801300906e+00 -2.918133821947472284e-01 7.135208137473227907e-01 2.964386861976548992e-01 5.610992266378591609e-01 -6.114270201165797891e-01 -2.375042843765678757e+00 5.650425562278388325e-01 1.422989549100233342e+00 -1.637492011538198344e+00 -1.537750439641367262e+00 1.111671921408371011e+00 -8.401350585824108874e-01 1.319906334082736166e+00 1.754415311609427652e+00 -2.998874439386123747e+00 1.862820328597472264e+00 2.081299831091927566e-02 -1.122471803543935387e+00 -3.064395026796272736e-01 3.816008872709863303e-02 3.356838096723643861e-01 -3.324156747475430773e-01 1.848299705252434005e-03 9.039116568624248060e-01 -6.701518743289927027e-01 8.857036927821072547e-01 -4.560742107019857272e-01 -5.442602126763670251e-02 2.079749896074990279e+00 2.531927083601502315e-01 -5.029947411797277557e-01 -9.232509242841355768e-01 -8.044411342616475391e-01 -2.742503186974529328e+00 7.339984552923589645e-01 -8.006589540142917683e-01 7.642692634000871621e-01 1.776980930262122671e+00 1.785446616728357583e+00 -8.972967016727017020e-01 -1.438786149080806265e+00 1.425748889605485736e+00 -2.106336176734163068e+00 -6.000616233252195064e-01 7.129271686838534183e-01 -3.389777536785144596e-01 4.066656772699640543e-01 7.473002908612356165e-01 4.718795287759280921e-01 -4.792566125593870074e-01 -1.197995931021682336e+00 1.897067133317470455e+00 -5.892483993536623554e-01
5.350258890146458723e-01 -2.080300043468892746e+00 7.065253930066277555e-01 -1.778990648842310618e+00 1.372309208907125599e+00 1.794402234678215691e-01 1.778100989059329562e+00 4.583228668449979004e-01 2.361706274546486739e-01 -1.969455378742951845e+00 -6.453973880172837463e-01 7.773992739889158676e-02 -2.672152796728859414e-01 1.113795983764530317e-01 -7.006778722990040231e-01 1.427892452452625527e+00 -1.863051716672623703e+00 -1.462920983634598215e+00 3.628969536871554658e-01 9.678217839013631973e-01 -5.592221176546328248e-02 1.442848203565915810e+00 2.758535793474520270e-02 -5.067638751570315847e-01 -1.585818179848256237e+00 1.870559933088184135e+00 1.301954274808985179e+00 -1.318918714092126798e+00 -1.262711936189437001e+00 3.399447446032587972e-01 2.266603002182465687e+00 -1.528972566801328536e+00 -3.407480684334634469e-01 9.407762347414558857e-01 -2.097340449862187928e+00 -5.012339472631360815e-01 1.475450567055953233e+00 4.561001064824203588e-02 -4.550887116857624815e-01 -1.437868525116096308e+00 -1.283380880018344383e+00 -1.919584472286264498e+00 1.117177195735217676e+00 9.208835706148705835e-01 7.090271946210824350e-01 -2.957917789364055694e-01 1.179958208287159444e-01 -2.095797003549303983e-01 -1.103806394793543033e+00 -4.457659004260630109e-01 1.382406497933703848e+00 9.343470528788441198e-01 -1.254684191625248246e+00 5.505208990244467998e-02 -1.131595162204030558e+00 9.174365358097616996e-01 -2.442076569847287937e-01 -4.552092907283546985e-01 -2.250654075347746197e+00 1.406212548604643731e+00 1.213502755126662391e+00 -8.424061631985155785e-01 7.510716820875128485e-01 5.213588949634500036e-01 -1.465896016182665074e+00 -2.634791438578816258e-01 -1.500168821456606683e-01 -2.693821757939773853e-02 1.047023845593887836e+00 -6.208991097420060168e-01 -4.185428017263435052e-01 -1.256392005560592606e+00 4.075133036072463577e-01 -4.703350936671145677e-01 9.155393183338805807e-01 -5.733080744824192720e-01 -1.742545823056269594e+00 1.636383437040675570e+00 1.033163000728500730e-01 -1.603709436409912481e+00 7.108763208734061867e-02 -5.346200673167437190e-01 -1.551113994785695338e+00 -1.846707484798409737e+00 1.776412161614307594e+00 -5.501299476926710952e-01 1.302026168207545166e-02 1.380090107328310056e-01 2.898981048239455127e-01 7.690793173117461967e-02 4.050557351524998739e-01 -1.359903184168826940e-01 -2.854886799585529822e-01 1.879882760287888699e-01 -5.305482095701252038e-02 1.847412106333732984e+00 -1.799966752894424094e-01 2.129018012743514321e-01 -1.200660047291529198e+00 2.052406156055780195e-01 -6.590745247370893845e-01 -2.323040500704881550e-01 2.550480712526288052e+00 -2.621189379795942465e+00 -5.460941846667826116e-01 7.404813402361196117e-02 2.143963873639347817e+00 -7.689969619262088107e-01 7.584110768732706953e-01 -1.181030085227275706e+00 1.763011398015463388e-02 -5.127847647494039318e-01 2.701414305709032848e-01 -7.879278222822425626e-01 1.103671513092523870e+00 2.674119233326893941e+00 4.610388118270833946e-01 -2.222360985325603777e-01 -1.140718395125926321e+00 -2.845748821125869465e+00 1.568066443052426262e+00 -4.229132666071027113e-01 -1.907406863566021155e-03 -1.232914153574158345e+00 -7.822323263932193793e-01 -1.111922530974339240e+00 -2.226594086452692078e+00 1.531842547762143208e-03 2.974924820525643998e+00 -4.751224756810731309e-01 -3.518933606486949195e-01 1.058984027746024292e+00 -1.770101299540409290e+00 -1.166565231457789453e+00 3.008350250233435830e-01 9.386840966745685355e-02 -5.799558374267673733e-01 -1.318744995065059822e+00 1.973752027972093537e-02 6.652867230005130583e-01 1.837926513562808006e+00 1.489356492321523839e-01 1.420522809540362141e-01 -3.186322707234723772e+00 -2.668761199444981136e-01 1.294976413380308555e+00 -4.834510235911871345e-01 1.934362256507907718e+00 5.106515852592895532e-01 -1.864148319990032610e+00 -1.929290757761312314e+00 -1.119753125216909062e+00 2.599738782411788574e+00 2.777543576216012777e-01 -1.045443445718828412e+00 1.860043014094989067e+00 -1.561141768104000516e+00 -4.390629898184001956e-01 1.018390309076168787e+00 -1.883394377929982488e-02 1.759495752993632589e+00 -1.159143811892106468e+00 1.001775495415738071e+00 -7.597793584251917309e-01 9.679475463482221098e-01 1.554423458421570481e-01 -4.243924295871538965e-01 -1.732085633644809830e+00 -6.528823638520537820e-01 2.867249016366165137e-01 9.582547934469963502e-02 6.684316323760437495e-01 -1.823396026095060185e-02 -6.949256294928105038e-02 -2.988974082262403797e+00
5.351643384847936114e-01 -8.075992140750513082e-01 -1.857249619508012595e+00 -8.062267470191931684e-01 1.955671045801107510e+00 1.284029697520498781e+00 -3.731481909912889861e-01 -2.086523368825624392e+00 2.171777360927516387e+00 -2.287372924650559192e-01 -5.757438278354821692e-01 -4.882136939281620513e-01 3.912042211076737219e-01 1.072956091253155941e+00 -8.408053400380083309e-01 -1.919029183057368582e-01 1.078544443412465526e-01 6.611989631602259720e-01 -7.666746231949337353e-01 2.280690417614278931e-01 -1.125123405927389575e+00 1.976383843833476428e+00 -2.820388554669885917e-01 3.938072434876321859e-02 5.647818946086072961e-02 7.317435077818913447e-01 -1.573131203908038067e+00 -8.608097504669347533e-01 1.650651180620888780e+00 1.279638661894147100e+00 -1.375374483543686743e+00 1.258325530664230474e-01 1.231986479918555144e+00 6.438006091276275711e-02 -4.905983862735702195e-01 5.319885215788971999e-01 -3.304050223492253746e+00 -6.203825311032261647e-01 -3.388793075868055671e-01 1.839821875743804958e+00 8.194430468947869750e-01 -1.860377522718206666e+00 -6.927350766734643450e-01 7.054451206882361713e-01 2.386523135356631187e+00 -1.086856324619845715e+00 -5.725356357015881636e-01 8.833125607257746870e-02 -1.206583560246424353e-01 8.700099275480071004e-01 9.853536642856919325e-01 1.586433257487392390e-01 -2.001871412976239384e+00 1.094867590946205504e-01 2.426705570122105193e-01 -9.394571348381206555e-01 1.048039425470329800e+00 5.652490438569343079e-01 -6.288192628189036293e-02 -8.050182445112799012e-01 1.299611173040529311e+00 1.471138216381282060e+00 5.818698173773855301e-03 -1.381900121338541787e+00 -1.441737124217753498e-02 -4.537359228298341873e-02 9.871359960993226768e-01 -9.964605494944516195e-01 -1.044348584301256322e+00 8.536621059264970501e-01 1.789477334698790001e+00 -1.008836455657644571e+00 -1.381695270727917313e-01 2.322099162902428460e-01 -3.061375592634861809e-01 3.539587156928853950e-01 -6.097363018244260635e-01 5.601833105334762530e-01 -1.562397244054316126e+00 1.033099128336021355e+00 -2.103323582246450218e+00 -1.311441598751744708e+00 -3.760289838099662330e+00 3.246905665841198996e+00 1.452345770543537196e+00 1.450092232606234210e+00 -6.379349270157028684e-01 5.040580377172674265e-01 -1.807900601258149553e+00 -6.552460390580797656e-01 1.345996467252163820e+00 -7.203615789369205435e-01 -6.663010324328617617e-01 1.085143598275166266e+00 -1.480677446405110675e+00 6.185641725485196973e-01 7.896597725446564964e-02 8.328429472698898328e-01 4.209143863485856896e-01 -1.849253337767964744e+00 1.088146710852305521e+00 -5.008678890859195043e-01 -1.419351599036160483e+00 1.338316304386813482e-01 -2.431481672541092043e-01 1.399215273165724804e+00 -8.529521838678478796e-01 -5.229622610771119673e-01 -1.499151559713639337e+00 1.705249460743736512e+00 -1.179364116688608632e+00 -6.638995126815391279e-01 -9.720141357818907757e-01 2.844007619299179002e+00 -1.290422544169955721e+00 -3.304715993264146778e-01 9.066949569396217656e-01 1.292267245240309004e+00 -2.946651521101763538e-01 -7.752254517357540786e-01 6.955958424761359282e-01 -2.164094154142114923e-01 -6.927733578729194930e-02 -1.317407065252683029e+00 -5.982992698026688982e-01 2.121102921197728919e-01 -5.846005475196722756e-01 -9.885597830585004520e-01 1.515501898131868197e+00 6.720435925142941302e-01 -1.816825191509470194e+00 -1.889982526786657901e+00 -5.319500020945929775e-01 6.655929098401357491e-01 1.746485703916415666e+00 -1.158335632446872987e+00 -1.118924309519170324e+00 2.362387834041229429e+00 -1.845790102539817124e-01 -6.728987380891052750e-01 2.316951347273733308e+00 1.779073229578254089e+00 -2.408180064117996011e+00 -3.675166058574499406e-01 8.912148346426018719e-01 1.969332092865672568e+00 1.014934777581822267e+00 5.081773060138598808e-02 -1.359332325880979520e+00 -2.585327951279097758e-01 4.202961097927188083e-01 8.170527655918873311e-01 -2.754135741154317141e-01 -2.851486017349208257e+00 8.788477315920077970e-01 2.012528906204820167e+00 1.136786439058557807e+00 3.791179346100812531e-01 -3.786828143520801326e+00 3.860928329913380086e-01 -3.199912771714195081e-01 1.889589462152108545e+00 -1.652345697168873473e+00 -7.804580812421484382e-01 6.737093467482597742e-01 -2.399134042650438170e-01 -1.790557527726804432e+00 2.905100356250807647e-01 -2.529560873050967773e-01 1.301267395073682387e+00 -9.588787399971592240e-01 -3.961593701797753164e-01 1.132757458884705803e+00 -8.094152006019270651e-01 -7.634780958576953269e-01
7.600329516548022246e-01 2.603596066166758982e-01 -2.950366743263700631e+00 1.876485475542900794e+00 -1.357283982256444643e+00 9.642480266056079052e-02 -5.914275582512282942e-02 -1.423199120772943971e+00 3.485869690933470211e-01 9.324441887790614336e-01 -3.365498422119784228e-01 2.062907036574746500e-01 4.738679105674293290e-01 9.893985366397228809e-01 -3.682362871756469924e-01 -1.840886572113629160e+00 1.311140770311547410e+00 2.352967229070412447e+00 -9.732638983336237004e-01 -5.276604154853512529e-01 -1.258903517294823526e+00 7.912247318095215753e-01 7.736252017825219207e-01 3.165642135446684186e-02 -7.673686302604034726e-01 -6.434709330041904485e-01 -1.771487618727219715e+00 -5.080430195222267534e-03 1.522549189131058966e+00 5.284139274087245042e-01 -3.600052040500746342e-01 1.099643896046945679e+00 -1.813154135196572758e+00 1.790961864162576855e+00 -2.164119647987340134e+00 7.319968627149553431e-02 -1.310890773160745537e+00 4.626042159556413846e-01 1.389839609022741396e+00 -1.826110362200467518e+00 -1.010028739999593445e-01 4.554155221569954337e-01 1.326198056993215468e+00 1.368428812338845502e+00 -2.097776248996694459e+00 -5.431612320325217569e-01 1.792235384180860036e+00 -1.555425948665840608e+00 -2.823587359006764164e+00 6.649499883138286771e-01 -6.711795397915341077e-01 5.453585715683940682e-01 9.291789316644022412e-01 -1.530958679972097336e+00 3.878176664072885416e-01 -3.354524858221393235e-01 1.942251244859557247e+00 -3.038150343889318289e-02 -1.327215910010204558e+00 -1.835656214682004350e+00 -5.585688634867593816e-01 -9.065815379719843747e-01 -6.151119328881609061e-01 5.927677635183619120e-01 1.397720587667710346e+00 3.344499310364036360e-01 5.170589498030638831e-01 4.420220111890447168e-01 1.568987552220414861e+00 -1.880236635045292815e+00 4.878935713769529947e-01 -8.823443892403484146e-01 -1.410164849297518286e+00 -7.733078064436112176e-02 1.088318205383942638e+00 4.125448228797651273e-01 -1.669661440188799917e+00 -2.010905898063894970e-01 4.545816437526406517e-01 6.363109035446420370e-01 1.817627376653999205e+00 -1.587525839812600870e+00 1.832987476836381413e+00 1.490649019840921907e+00 -1.649596007738448611e+00 -1.973012365191450401e+00 2.863724018926203652e-01 -1.174502060214193816e-01 1.577162731322609091e+00 -1.341959100385616832e+00 -5.343720705877849086e-01 -1.734405062050422996e+00 1.383141751927781105e+00 1.590580860273158592e+00 -9.232334447438256264e-01 -1.275913354282279144e+00 6.176415555761874954e-01 -8.612247763800058298e-01 1.350963016564602492e+00 -6.062226806196278212e-02 -1.862115894491971901e-01 -5.831338763234011902e-01 8.146693340768730585e-02 -4.537340307087101010e-01 -3.918296316692553294e-01 7.804091945602746883e-01 4.208725757065769346e-01 3.063020136482822453e-01 -1.334138082472431153e+00 -3.639499514137866099e-01 3.535716287154612170e-01 6.788450924462525737e-01 -5.257370515991678372e-01 -1.203962226761065235e+00 5.594335956124302234e-01 -4.842857430395273166e-01 1.398642481998163323e+00 -4.177213429496069996e-01 -9.059149554059647835e-02 -1.351516822917219196e+00 -8.088975313923054689e-01 -6.951119872457526272e-01 -2.719304306447506425e-01 4.718242228145285155e-01 1.686507258349918104e+00 3.400607843646945017e-01 -1.195863115854532310e+00 1.159880376138396230e+00 -4.107274151863259948e-01 9.184555326062523450e-01 -1.416824412457127758e-01 2.884322328294717797e-01 -4.642704524261428434e-01 1.114696781657113833e+00 -1.084402876452499109e+00 7.698410774546655955e-02 8.055045903453128542e-01 -1.116867580054326847e+00 6.098236686056607292e-01 1.096719449163438442e+00 1.597737656997051947e-01 -5.002243995185465808e-01 -4.874760283893970758e-01 -8.821306262815636900e-02 4.306656640199226227e-01 -7.470736050380429871e-01 2.306593276682634142e-01 -7.978987355348278188e-01 1.197698376156497879e+00 1.213259000301247115e+00 -2.566408524845588790e+00 -8.050388500855153451e-01 6.152163339617534588e-01 2.153313006289242271e+00 -1.061665739289617161e+00 3.988761847042092135e-01 3.427859375228741179e-01 5.013816062299923937e-01 -4.468817880056017433e-01 -6.218539537479151891e-01 -1.940114698667245507e+00 7.996865897669671597e-01 1.104218987551106146e+00 -6.149591173277334510e-01 4.686034530829584765e-01 4.109468402750259680e-02 1.615361358158722282e+00 -4.138646291510203135e+00 6.688501331258950300e-01 1.289078592442788995e+00 4.485008650332015789e-01 -1.567986204982276366e+00 4.625776408382316074e-01 -2.221624737136056904e+00 2.013312438659437653e+00
-8.928547222660070393e-01 -6.410781741801419020e-01 6.693621436010589454e-01 -1.538921401715831472e-01 -9.300697589744868488e-01 -3.525705068782376994e+00 6.709143694932704349e-01 6.796534879382505334e-01 4.296256635965745030e-01 4.626761248341672017e-01 -4.070842780944643469e-01 6.574243058790631977e-01 2.066947126760122766e-04 -1.022272266873240465e+00 -1.155343869485982999e+00 -8.810071256994095323e-02 -9.340625694692621384e-01 -3.974094369245507741e-01 -6.515739895405711635e-02 1.407993217082045313e-02 5.664712543790857424e-01 -1.598741263758594267e+00 -1.529566686018828614e+00 1.518258925633537038e+00 4.809881457026542184e-02 6.769155188551616575e-01 -6.002544337937789631e-01 7.872582921673014766e-01 -2.331058640840663276e+00 3.255247159518923072e-01 -2.723553599519671353e-01 5.708735587363096275e-01 -5.878569799200393797e-01 -1.833901527246640351e+00 9.708947945407352120e-02 -1.418223689164611612e-01 -2.961786757117232938e-01 -5.742520055580931926e-01 6.664031351276047399e-01 -9.590910663255106661e-01 -1.887084941585054354e+00 -1.542282656788032114e-01 -1.104472737732450138e+00 2.312107288251479265e+00 1.974344755295647902e+00 -2.430895105866871742e+00 2.081929916468550967e+00 1.099388813361958268e-02 5.543177375552577058e-01 -1.249527446787195961e+00 -8.630576518665284969e-01 -1.699427812578879760e+00 -2.715963645396731962e+00 5.016581502083289346e-01 2.635759761182508765e+00 -1.705100228578137589e+00 8.643813940012947672e-01 1.126300595191835674e+00 -2.326574405910954546e+00 1.187124169274446528e+00 -7.278700636357092746e-01 6.367178644184733061e-02 1.814136343353308423e+00 -8.172085930967105949e-02 -4.588583008837610611e-01 -2.813331291495035025e+00 -1.123830118792894073e+00 7.621798355273500247e-01 1.855722687618416078e+00 8.325915681848444772e-01 -1.322973844426457379e+00 7.926701633810873115e-01 -1.527732163692655076e+00 3.787981979617394579e+00 -2.230310771181235108e+00 -4.856524379421719440e-01 3.375310940967052309e-01 -3.455507642892199360e-01 5.785007074951311612e-01 -3.321300402925348588e-02 1.818153420367795814e+00 -1.810388570048709234e+00 -9.105886585979663383e-01 1.048293725484242683e-01 -2.115301290880905460e-01 -5.712280269692151524e-01 -1.381801245733485173e+00 1.051495984148240970e+00 -9.424653089967700570e-01 5.395902022883298788e-01 -1.806771526734082922e+00 5.763299342944618875e-01 3.372140484276847094e-01 9.560436775470266824e-01 -6.991873456921783303e-01 -1.923285350392164306e+00 -2.980982060490369179e-01 1.240102610561144347e+00 -5.113969806107738769e-01 3.010252277898048945e-01 -1.181626247493205550e+00 2.060703535062792024e+00 -1.073915643328652969e+00 1.626068360290562897e-01 -6.115128781538599068e-01 -1.168883511627477834e+00 1.278336922426227540e-01 3.533565064022422542e-01 -5.024630571701930171e-01 -1.346065776573433403e+00 -1.138850378075874303e+00 -1.283191131425043041e+00 2.262361447083209853e+00 -1.151789080142590294e+00 5.434059676521127979e-01 -2.196555937921558233e+00 -1.784163919727373315e+00 1.268472159785982933e+00 2.451215767354693043e+00 7.015776805631717197e-03 -1.707500481077002474e+00 -6.557563060879282313e-01 1.218279335083511494e+00 1.665580664814909628e-01 4.848347672630034522e-01 -1.327132812999838096e+00 -7.070089397470865622e-01 7.794628777703930256e-01 -2.634499552906434672e-01 1.409737985356285472e+00 -9.036696973121025600e-01 -1.948878233159238027e+00 8.238821278178135588e-01 1.569511988149150383e-01 8.629136068933338510e-01 -9.074728308306245772e-01 1.896164959376506864e+00 -3.153178360935736446e+00 2.774609289821652336e+00 2.792374207573446454e-01 -1.265873892807025704e-02 -1.633133345372887346e+00 1.029646718437288611e+00 2.048362656506308443e+00 -6.588121761479643901e-01 -1.809892736301386806e+00 -7.578668732813105546e-02 1.071115896665191025e+00 -2.175037944856031746e+00 1.953567211686078720e+00 -1.287601662921112666e+00 -1.852077508999760980e-01 -5.078094018882066685e-01 2.055111357296091512e+00 -2.277042681679730118e-01 -1.629127496378634410e+00 -1.682112376704437029e+00 3.085529820439016913e-01 1.725937544582109240e+00 -1.368798583099463673e-01 -1.345805767397565189e+00 -1.581223019882367353e+00 -2.309672762209050934e+00 6.991320253668795726e-01 2.908712548222182726e+00 -3.368955065978965102e+00 -6.316843066475055224e-01 2.052472031210501591e+00 1.134486267630325562e+00 1.267176154866158866e+00 -2.107603692090229242e+00 -1.754951010203706252e+00 7.083751995026900117e-01 1.515979520071992548e+00 -3.009876049285767907e-01
-9.352896385785733901e-01 -2.302840105906323043e-01 -1.292538258492909709e+00 -2.316721855244125994e-01 1.433884074897732841e+00 -1.602284420908399176e-01 -7.379903378436383221e-01 -2.727026107629952900e-01 -8.583560616786716224e-01 8.972681501847190599e-01 -7.746978100316610494e-01 1.844031329980200251e-01 -2.249395233880343570e-01 6.057799852429950060e-02 -2.831544475349663248e-01 2.488931465960299239e+00 -6.808655566197376885e-01 -1.426651545293383450e+00 1.529928638887468884e+00 -1.440733696991754131e+00 -1.927179947022146012e+00 1.389422848080466011e-01 1.753078393866705609e+00 1.037532092972559772e+00 1.772056065212741505e-01 -6.475357257958384016e-01 2.762932663814343104e-01 -7.368948744196957001e-01 1.461798138997886243e+00 -1.077614705834223641e-01 -3.389133223685977025e+00 2.651052615178001171e-01 -2.012410931755955756e-01 1.978991626780187918e+00 1.100748286762414763e+00 2.059841292394262169e-01 5.884742320321574294e-01 4.645627543449728503e-01 -2.522311100716310595e+00 1.586412434847060959e-01 4.295409289409174991e-01 2.243610943364500177e+00 1.030937398250479475e+00 1.274777723320774658e-01 -1.189148102820700714e+00 1.973966518524679359e-02 -3.352305505793015117e-01 1.329505652220180245e+00 -1.971636195306114003e-01 -6.264059155085155428e-01 -2.613736681636609771e-01 3.110447134095503108e-01 -8.942847186560284878e-02 1.789171597916966672e+00 -8.078595778892467827e-01 1.864677120320882286e+00 2.646232964716649927e-01 1.231203020769138901e+00 -4.929356553759134396e-01 -1.253530966974488070e+00 1.369365032703955265e+00 -1.724487465700357713e+00 2.715822352234587012e+00 -7.916826441453221896e-01 -5.885683585279904984e-01 1.651346673936197051e-01 -9.362447874279683502e-02 -1.977362284441536611e+00 -1.505237142193055044e+00 1.589695422945729630e+00 3.066044128355416981e-02 1.496417401975693728e+00 -5.087591633763350885e-01 3.830043644699283045e-01 -6.962431281710241837e-01 6.327602169244681551e-01 -3.476000612017382529e+00 3.747950655648811802e-01 2.555614692758884088e-02 2.141068570143170646e+00 8.090096866422482602e-01 -1.954144874167971446e+00 -1.256118607044538704e+00 7.209237864363253756e-01 6.263060539213615163e-01 -9.222041980955026919e-01 -2.335924109959624850e+00 4.557050457874169958e-01 5.912846598965411093e-01 1.357364950338568521e+00 -1.082946919656937734e-01 -3.245089598296870825e+00 7.653310723848085750e-01 -5.295413569768654405e-01 2.372208958920498212e+00 -6.819188984292583466e-01 2.026001241874436420e+00 3.870189994080766027e-01 -1.248716035382875678e+00 2.337026456209369552e-01 -6.929619615256928933e-01 -1.389258463655510978e+00 -1.268000793916326474e+00 2.179733341349426645e+00 4.807430133227801328e-01 -4.427559757418259023e-01 -5.482064973009199704e-01 8.601557486556904442e-02 7.442849345572998265e-01 -4.536579975383975283e-01 7.342423445282721950e-01 -4.879128015763604109e-01 2.960997329292998637e-01 3.309988128791454542e-01 -9.606441231209454645e-02 -1.138168505581685919e+00 1.182441529078650078e+00 -6.882033330842770580e-01 -2.151037020651181741e+00 1.273750786725259321e+00 -3.438345909527532607e-01 -1.341393582123364459e+00 -6.676759258993811286e-02 5.228325139734913973e-01 4.117891166929435465e-01 1.112269443986312611e-01 1.768909426847370403e+00 8.126443717760325480e-01 -5.925188644661603110e-01 -1.569476649922597611e+00 1.785594719544848052e+00 -6.916386935578935358e-01 8.738540768987645979e-01 -3.690680595136536457e+00 9.375954794433627448e-01 1.365893370568421972e+00 8.925353444049203278e-01 -8.728082786030568752e-01 -1.966718660274657138e+00 9.630442984679692398e-01 -9.850491352759558339e-01 7.850149912782661277e-01 2.386394572654723101e-01 1.079211598902674041e+00 -1.659682980230935190e+00 -3.027348606896060446e+00 3.455944547560300339e+00 -3.906047159800116186e-01 1.017446177691348597e+00 -1.963826538599810601e+00 -1.373019332119279845e+00 4.150010589673969186e-01 9.279776573242570770e-02 8.718231081021581286e-01 -9.117993671989784721e-01 1.558039525277171933e+00 -2.095988973924505228e+00 6.082959985041387352e-01 1.080664034953068064e+00 -4.243660957565376091e-01 4.991085838371682182e-01 9.355631222676662473e-01 6.525179517862846890e-01 -1.638727506908859821e+00 2.334001941997876917e-01 -4.816975003371594677e-01 1.009799115223577459e+00 -8.608822803719344829e-01 -7.740022570028576299e-01 4.575259587919134896e-01 -4.994011164819961435e-01 -1.712355574972383776e+00 1.319706325076247522e+00 4.116975928424990161e-01 4.032367554690749478e-01
-2.788531849063569545e+00 3.860818911851401913e-01 2.332490837183320398e+00 -1.633913155093930536e+00 -4.781702030279365578e-01 4.064622177382686274e-01 -4.571179696583349550e-01 5.916905904455566079e-01 -7.228306708310662243e-01 -2.702334717156920640e-01 -2.452043822096482417e-01 6.296610689474477773e-01 8.603197758539553597e-01 -8.449861478326550213e-01 -7.843298367367013135e-01 -1.308361221234240812e+00 2.444350853480698138e+00 -6.684296690228008764e-01 -1.055535864355283904e+00 -1.153101121477180468e+00 1.012472420437070530e+00 -6.593474801289128662e-01 -4.604020618488575689e-01 -1.219211791425473868e+00 7.155824122358079853e-01 -1.331093630749241585e+00 -1.393399548880602135e+00 1.553110587161034228e+00 3.569223249701407030e-01 6.147779911725658186e-01 -2.222813153672964948e+00 1.119266264836820124e+00 2.683447544743446933e-01 -1.560374335335210860e+00 1.332996756095620849e+00 -2.907774337237346352e+00 1.733527716714847511e+00 -1.562985134461295278e+00 1.040970826800899918e+00 -2.751501761414593128e-02 -1.171929308060174618e-01 1.385681370674652246e+00 -1.180619867877029661e+00 -1.094918629071730820e-01 7.447082219924949786e-01 2.242503483561276489e+00 -1.783712364629275182e+00 -6.754849592497226274e-01 -5.809335547065773708e-01 -1.102707136412608868e+00 -2.099135318344298895e+00 -8.656395593476962080e-02 1.690239304774027618e+00 4.825201819968871764e-01 -6.205328065435644636e-01 -1.281354442821381889e+00 8.990056496751859250e-01 -5.548828611430871582e-01 1.188702383447128447e-01 4.267262394669729675e-02 -1.290062607094175640e+00 8.031316701903058464e-01 -1.910487188302406159e+00 8.712310311536444196e-01 5.587534031053774664e-01 -1.150246548550636350e+00 -2.623796267798582105e-01 -1.280897633180015704e+00 -4.540965150160360952e-01 4.033970608832258553e-01 8.032428952239847320e-01 -5.736167920664210218e-01 -1.673465415057472150e+00 4.847418862866762490e-01 1.237088952189516977e+00 -1.810748897159814241e+00 -1.335976541151997710e+00 -1.410940655649800535e+00 4.373045696365598367e-01 2.824934032367845571e+00 -6.743558283889097282e-01 -5.735960005975424686e-02 5.602675646113873809e-01 -2.246680680443423395e+00 7.580432131130674378e-01 6.697812014275924541e-01 8.065880520271522247e-01 5.905320622984167045e-01 -3.659661436795586531e-01 -2.294942295388712417e+00 -1.047072653642262097e+00 8.774981987272667538e-01 -1.102283528548116065e+00 -5.095527388193027418e-01 1.032159590518501924e+00 -7.836750464013505502e-01 -4.731070330021446280e-01 1.814403983321225322e+00 -4.223583205985399491e-01 -5.553858759794578770e-01 -8.683507702564464692e-01 -7.316899353217473090e-01 -2.535160584273506768e+00 1.743969700413688484e+00 1.990161384627991970e-01 -1.485729929369667301e+00 -2.266211214067069823e-01 -1.254021068883629964e+00 7.791592288914354070e-01 8.068520170624760013e-01 -1.616519240578468741e+00 4.003743619304478418e-01 -4.232116518683824991e-01 -3.476939540673781304e-01 1.599723895526730777e+00 3.716671847636855985e-01 2.106861058721614111e+00 1.525691935230721441e+00 -2.935157788035634430e-01 -2.876983118095964187e+00 -1.063961833342192964e-01 5.283870574010639531e-01 1.897753559143328661e-01 2.142692444121251094e-01 -2.801787464141627937e-01 -1.153220146163204257e-01 -8.240330793405630239e-01 -2.159737883519193158e+00 1.789616502739908466e+00 5.375555186868807844e-01 -6.248319661928479762e-01 2.311717700190841218e-01 -1.693464077177572857e+00 -1.180645340024135459e+00 2.320983502426855249e+00 7.325040319175785131e-01 -9.402638348023543147e-01 -2.297434930304201317e-01 5.125748770147876554e-01 7.344173928434042375e-01 -3.875768230917019941e-01 -2.640667567625365475e-01 -1.158720899800230075e+00 -1.980115076552788178e+00 3.510649216648345394e+00 -2.086062154329097140e+00 -9.913510745610618624e-01 1.963115917284984135e+00 -1.037518904375318796e+00 1.120535631056133630e+00 -7.274492541338631879e-01 4.875716436508289453e-01 1.652905262952009818e-02 -9.660330882696102073e-01 4.536794894143376666e-01 8.046639433134612496e-01 1.743204796067737150e-01 -1.490813634364960283e+00 3.467682172705466859e-01 1.749355208565745445e-01 -1.212346832940943697e+00 -1.629709120360930408e+00 1.619575630202005900e+00 -1.916165265175419963e+00 2.077767215639252374e+00 -3.622029967320422594e-01 -1.204084665200185755e+00 -1.606355950188269377e+00 3.811916139791089453e-01 1.054482917589503632e+00 1.540024675809240629e+00 1.049619504056912511e+00 1.576643876504725261e-01 -3.406807469217483675e+00 -8.882142603008020831e-01
8.917378794701267264e-01 -1.405692459214403112e+00 1.348033067704316856e+00 -2.880995542735398374e-01 -1.075630638930453298e+00 1.286606108742807120e+00 -1.112484954615791777e+00 -2.230205339755838567e-01 1.016092982018261370e+00 -1.582826578160079906e-02 -3.663463444072752595e-01 -2.222598944390823839e+00 7.819344640475337505e-01 -1.145019515674715604e+00 2.078081163683981991e+00 -5.030120088263762002e-01 -1.210964051674759734e+00 9.973117828271929053e-01 3.881911994100619157e-01 -1.366231703049961554e-01 1.459184333349526685e+00 -1.102512152221908570e+00 -1.792145275918570979e+00 -1.660235315579281945e+00 1.852804820561439580e+00 -1.656701009334878849e+00 4.033241483338984024e-02 2.051115909436205698e+00 -2.237999804781935609e+00 -6.140109183297819406e-01 -7.437509509467183921e-01 8.423394536825792311e-01 -8.137179361628228691e-02 -1.443195982002516864e+00 -1.387843588802668560e-01 2.388383349200482009e+00 -1.716348894402021541e+00 -1.806913698915510458e-01 1.315137990489031683e+00 -2.586885204472447519e+00 -4.935796248939957609e-01 1.564573953940040951e+00 2.030316678747045689e+00 -1.333148650723403605e+00 -1.477723882793752663e+00 -8.550953990764710300e-01 -3.418209134914971692e+00 2.557804644516162851e-01 2.087807241663712343e+00 -1.759133849463652144e+00 -1.050625469858075256e+00 7.755042152271910405e-01 -1.235639694278628742e+00 1.661145881723963491e+00 -1.123932189903952050e+00 -3.243470402980714873e-01 -1.755757896463390755e-01 -2.828161306003719178e-01 -5.783619122212905195e-01 5.756035797271882304e-01 -2.920334498510137045e-01 -1.880736814687518521e+00 1.576774119022111842e+00 -3.913683188905651145e-01 5.875559609033543795e-01 -1.949734801363994241e-01 -2.173228324056185823e+00 5.426335755302500452e-01 8.963226655364651130e-01 -2.334493001011236912e-01 5.097187886127239054e-01 -9.423201555318965195e-01 4.737415780051567049e-01 1.547622755257456184e-01 -2.236239755171968158e-01 3.288955929828598079e-01 -2.828572151334575402e+00 2.596655202499580373e-01 1.675570993451609425e+00 -7.915230894044440468e-01 -7.151477935736236802e-01 1.879295511866676760e+00 1.478945814130691927e+00 -6.092120245780030530e-01 -9.908123890129456601e-01 1.091814381616236680e-02 5.267979884036493726e-02 -1.265715031948072111e+00 -9.648558165030680644e-01 2.358924599638690944e-01 1.626501692291993040e+00 -4.664890451358826295e-01 1.136972370824304857e-01 -2.834886513010491105e-01 -1.647380306936480743e+00 2.814719187124104516e-01 1.473248725713270035e+00 -5.899372122690612619e-01 -1.655088283348088884e+00 5.778649199204300979e-01 -1.473852686819153268e+00 1.785299877841413363e-02 -3.805097979218404758e-01 -2.196741249038320909e+00 2.561335925225848076e+00 -1.048907977739481856e+00 -6.999027875219439032e-01 5.925285324924511876e-01 -4.084691153305264333e-01 8.782195629786895275e-01 -1.037494148389690896e+00 -1.042635519469770067e+00 -5.584491546432770459e-01 9.277778031960072225e-01 7.466901119895931194e-01 6.866052164361042820e-01 -1.405926763425725756e+00 3.121890395398657092e-01 1.022534091655539212e+00 -1.651036540847537593e+00 1.441220840105520651e+00 -7.758241855486525118e-01 6.999745764260590919e-01 1.039800420682614579e+00 -1.470047826259373469e+00 2.589481417734105673e+00 -9.487427819036926557e-01 6.551661548098024479e-01 -2.788418448172723663e-01 -1.177661830196044118e-01 3.982521683413751679e-01 1.156630423399749752e+00 -1.533191420349258927e+00 -1.201648075654579539e+00 6.840802842658844085e-01 1.438950112261785153e+00 8.085856931783959312e-02 1.267624555357880212e+00 -1.553470608630047600e+00 -7.504724841733193541e-01 1.136752339169069259e+00 -1.694947607819581314e+00 -1.086956261232092436e+00 2.951670361798966358e+00 -1.456677895696488978e+00 -2.055499209837287067e-01 -1.807982392102810865e+00 -1.296021793436890501e+00 5.349289217384465278e-01 1.290254883302149436e+00 2.260453163401578425e-01 1.929477949146636506e+00 3.016547179734427320e-01 -1.894863226189024807e+00 -8.184084734375381143e-02 1.259635869136614295e+00 8.716069356354690933e-01 3.332344559503576664e-01 -8.465127782536656653e-01 -1.444447932628247555e+00 -8.121328482788656711e-01 -1.234110814532393352e+00 -8.963822923397817277e-01 1.939336766214030838e+00 2.016728610684420664e-01 1.726464035158322474e+00 -2.259158633082683387e+00 -4.298518741340249250e-01 -2.080872305007205547e+00 2.555338923478866597e+00 4.068066599655894011e-01 -1.567585719850706827e+00 9.229541713498211619e-01 -1.088049146553241586e+00 -5.868749431844599851e-01
-1.558606955533654359e+00 -1.963087807967178744e-01 -6.180101446479092653e-01 1.474386030929409674e+00 -1.183224735740435962e+00 -5.284240147674381660e-01 -1.393987824727772606e+00 1.513966377499508464e+00 -2.273314404148951140e-01 1.366197917352717783e-01 -4.480476049090913460e-01 -2.088864810528205385e-01 1.609595701151406599e+00 -1.139422893063854136e+00 -1.535628999859315336e+00 4.937653685140603876e-01 1.274271387539126499e-01 1.575070786362687825e+00 1.002902720035768608e-01 -3.712385720169279590e+00 6.043213006025951461e-01 -3.246220672738401314e-01 1.710496060287657882e-01 4.048934219870630735e-01 -6.381804211029566964e-01 -8.869836929424963490e-01 7.102459114903755255e-01 7.589019817821766045e-01 -1.972921725032344753e+00 3.915714430329813450e-02 4.312203510224981162e-01 8.922132450996773656e-01 2.341440387380412380e-01 -6.334863188815268442e-01 -2.465683418098474800e+00 -1.363050800310250610e+00 1.330889286049750320e+00 -1.295204834414060424e-01 -2.125823750304255189e+00 8.573164356464030300e-01 5.066428180661877168e-01 -6.088446289514241189e-02 -9.534753736609560271e-01 6.168281794020504805e-01 6.667828386264113005e-01 -1.253788430735841786e+00 -3.965037945150783755e-02 2.022954677664156709e+00 -4.505821120188105433e-01 -2.272714010230780790e+00 8.224220563297621744e-01 -1.171038762775694408e+00 1.742329492917224387e+00 -1.214984782577273714e+00 8.128418162550467008e-01 -1.699975811614871379e-01 -1.336221314705072993e+00 -1.861804482665714855e-01 -1.162939014136645799e+00 6.285434202996061925e-01 -9.120840073141445181e-01 2.684461553152961422e-02 -1.717228577560142133e+00 2.267790609451374007e+00 2.233854049921107920e-01 -7.921798320505675506e-02 -1.843223138356085977e-01 -1.107027680665826797e+00 1.012670493226656143e+00 -1.342688438797897121e-01 2.131031351113202188e+00 -2.143902284683825155e-01 1.622196339181342539e+00 -7.532672582298236552e-01 -2.027203901039759781e+00 4.665955445497212972e-01 1.545817535080008520e+00 -6.592286162975274921e-01 1.102780068417882342e+00 -3.326315070110780425e+00 -9.061431230633236744e-01 1.034797139576897118e+00 -1.686722709151514676e+00 -7.242503405038881459e-01 1.422366447413708324e+00 -2.409245403859190671e-02 3.101673547104738526e-01 -1.474142796518218002e-01 -8.783435540742476899e-01 -5.459385699496551725e-01 -1.974831225065410423e-01 3.729955704434737562e-01 2.357994454194868306e-01 -2.213670328673746912e+00 7.384395901795256512e-01 -2.057672218265931274e-01 1.253530625086660910e+00 -5.343254492419891033e-01 3.717122118529131991e-01 -9.483854687659439842e-01 -7.484801425946937536e-01 -1.424925511893855967e+00 1.338868385193574539e+00 1.050376344521449790e+00 -1.231396829516701485e+00 1.676485206677585715e+00 -1.309449941350846025e+00 1.457663076658984203e+00 -1.867049484641873702e+00 1.306804270387841971e+00 4.744532943909506029e-02 3.990993145495762562e-01 7.878380758501798420e-01 -1.282597296825742195e+00 8.646551983518531159e-01 -1.462131185435505465e+00 3.770193028136172297e-01 1.701972764518813186e-01 1.146041989681172435e+00 2.519166483444598148e-01 -6.212932167109165293e-01 -1.282384557518447155e+00 2.933352711176249739e-01 1.253766427584473764e+00 -1.583983602948909164e+00 -5.645539904238482398e-01 3.394305017655346313e-01 -1.360662541456383767e+00 8.192663630622825099e-01 -8.105337470697258073e-01 9.233940693947935152e-01 -2.967303617003732796e+00 -7.954389262938302840e-01 2.012115922101112009e+00 -4.387800798364526189e-01 3.893471219506518533e-01 -8.828851800959480745e-01 1.447275223898098151e+00 -1.869359380966455486e+00 8.875722005422618244e-01 2.811114034303591747e-01 9.078929626274552245e-01 -2.700190562336020061e-01 -6.541842450783650342e-01 -2.074132778351576167e+00 2.134072702236942565e+00 2.322907786537602437e+00 -1.121002281182161608e+00 4.239183213003771405e-02 -2.766681508620749685e+00 -1.832028647992494319e+00 -2.292961394113163243e-01 -2.727266568975540428e-01 -2.784305726513667256e-01 1.534461413539373043e-01 -5.961221248671075834e-01 -6.632678464634688131e-01 3.412051247935586340e-01 -2.865105662886371363e-01 7.644013959288549487e-02 -2.062238098952311471e-01 1.568877544568245241e+00 5.226819669666216139e-01 -1.846197475769467133e-01 2.919363343542091815e-02 1.947498612598042467e+00 1.411288045627417387e-01 -6.464353106017964867e-01 -4.017100496843122315e+00 1.932852883864766946e+00 1.396014525625143721e+00 2.172348067040442976e-02 -1.595192350082003996e+00 -1.635546911451879248e+00 -1.394732520749264459e-01
3.383272094424160104e-01 -9.981528047937378023e-01 -4.899239387681083580e-01 1.568616640740715384e+00 -8.670897829476216234e-01 -8.857414877072392612e-01 5.731249036406801389e-01 1.378256331610608676e+00 5.844565278051229162e-01 -1.659218793325242469e+00 -3.286811046152557925e-01 1.017288620176834274e-01 9.959698174877601451e-01 -1.488406041945327662e-01 -3.033632432695331227e-01 -2.112425702123998050e+00 1.837069571587809369e-01 7.259804748716915945e-01 -1.736941000134736290e-01 9.612597273073698600e-01 -1.799874003650613341e+00 9.010494434503849570e-01 -9.916639858155082976e-01 5.586996015839338359e-01 3.999863508573617832e-01 -1.367937937348443045e+00 2.416840927661913607e+00 1.248573041822606644e+00 -8.150214280255851929e-01 -4.620571930440626751e-01 -5.554348747728846680e-01 -9.558681563371475010e-01 5.383851936942384286e-01 -8.205751732443320456e-01 -6.022292224038264807e-01 -2.660674953788658703e-01 -1.172792145798517316e+00 -9.110717221856476922e-01 -9.106587652269368949e-01 2.490987866319955835e+00 -1.279983291955273605e+00 1.390144480303643348e+00 2.654849787593364652e-01 -2.926850993747566743e-01 1.122232376947551291e+00 -6.964680045975566447e-01 1.495127160792621313e+00 -1.357222148836102260e+00 5.795136335970917374e-01 -1.123442233100162835e-01 -2.198536114151024012e+00 -8.233057991244537854e-01 -2.123958693475938020e+00 7.571092656315627778e-01 3.767936034708260440e+00 -4.332854634878430256e-02 -3.749018185891004329e-01 5.217502927692972969e-01 -1.313446831339960097e+00 2.033583031489951537e-03 -2.243183082404625495e+00 1.137217780089422314e+00 3.426593971661857640e-01 -9.560249589101148249e-02 1.061559403097408927e+00 -1.636159869500335873e+00 -8.318768276131129902e-01 -7.118920774485149039e-01 -4.070207349771703953e-01 1.915379830376035875e+00 -2.607064000142859328e+00 -7.522622582304325789e-01 1.637146431839734850e+00 2.327011661126078268e-01 1.524936297909341709e+00 -1.486814545862399806e+00 2.637260645920048163e-01 1.955107281178137257e-01 7.826560778307833921e-01 -1.142654237373253778e+00 -1.639667080742735372e+00 1.266574229291188569e-01 -1.247129948343253192e+00 1.549332053426808464e-01 2.037198886217461702e+00 1.252590547751168515e+00 -5.277498631398332973e-01 -1.175172131069432524e+00 7.824213708230400854e-01 -1.008429847515400768e+00 1.394654226290736654e+00 -3.907592168613215344e-01 1.704349543840718295e-01 -1.297172015150321434e+00 -3.640366175153189054e-01 1.069901013953896030e+00 -1.754963539725820643e-01 6.175055494457221128e-01 -5.405770953685726798e-01 -1.301646497051861751e+00 2.149289159679297345e+00 -1.383025369406792660e+00 -6.645846383811743197e-01 3.456531758026800683e-01 -4.022376701800808307e-01 -3.698756603017592237e-01 2.376478057865117233e+00 2.503383696896003041e+00 -1.925642152791138040e+00 -2.068845506415603275e+00 2.764255996748214428e-01 -2.717743064319855684e+00 -1.580318156199792101e+00 1.586695455026368773e+00 1.085682353237637843e+00 7.784039043336937747e-01 6.803444565652037035e-01 -3.830150437957862142e-01 -2.012832938142647521e+00 1.226967109242192100e+00 -8.481643011104862406e-01 -2.973964609263816117e-01 7.777249561472976414e-01 6.309894967655325926e-02 -1.137988023776262958e+00 3.336385362542842459e-01 1.562696738184450762e+00 5.550452658921978255e-01 -1.526171558088127211e+00 -1.287919464625806309e+00 -2.565682846574933951e+00 2.703557723483295483e+00 -1.333474261738579747e+00 1.095156947846676054e+00 -8.845673290562428015e-01 1.256479166930356328e+00 8.793040578017421449e-01 -2.640333991566116145e-01 -7.052595000674807268e-01 -1.380628766495990423e+00 -9.924065189035100598e-01 -1.242026041594372687e+00 1.786298073379328777e+00 -4.871734307318098534e-01 1.779933302756581570e+00 -9.514149081257334828e-01 1.224761180601652288e+00 -8.813470468204519515e-01 -9.149784312396608277e-02 6.683712045029838178e-01 -1.596950324795356480e-01 -3.947794662701520907e-01 7.754917275666562970e-01 6.095551182715345240e-01 -2.321091760735861875e+00 7.666391850174829672e-03 8.055674664650516181e-01 -4.890845252707799462e-01 -5.530681328730481239e-01 -4.642764481570794688e-01 -2.507698338379882763e+00 -1.087907442074065534e+00 1.897664616915398339e+00 1.679974638816946753e+00 2.397304140809207451e-02 -5.287620549900475808e-01 1.602278550344420349e+00 -4.300276498572805917e-01 -9.333267918737309099e-02 -8.180842993841048738e-01 -2.142703079699392887e-01 1.858000240518835167e+00 -1.254050581074318327e+00 3.849257817233907031e-01 -1.615727447340947309e+00
-1.977409704818744673e+00 -9.641718414228230838e-01 1.349570920016519793e+00 -2.113847621009339317e+00 1.899657462987867751e+00 -1.103933491505106890e+00 -2.280604972837182998e-01 -9.200488160924911174e-01 -1.399153610878985043e+00 2.845675591649256209e+00 -5.617334756568953535e-01 -1.976858452292288959e+00 -6.734356240827785722e-01 1.238054793344556703e+00 1.163948274377298198e+00 4.803721763220388796e-01 1.358872065747392388e-01 -1.268560944271859281e+00 -2.237607800550885928e-01 -1.972235077875387765e-01 4.745492111051925477e-01 9.882928202135848883e-01 1.087916547007546954e-02 6.574408732402194921e-01 -1.152699807717154412e+00 -8.861069171730486804e-01 3.781904700179204992e-01 2.367954376531377081e-01 1.465946678401708558e+00 -1.491962973342762178e+00 -9.845638081776073580e-01 -5.433076103887634484e-02 6.645319321740191798e-01 -2.928436593233177399e-01 2.961651111713151097e-01 -1.762497964697204988e-01 -2.039443859994695796e+00 -1.054660970509387452e+00 1.033500973201873618e+00 7.339924538470932180e-01 -1.542109680622189893e+00 1.967631522681599687e+00 -7.528826717450968209e-01 -5.615704398810599240e-01 1.659276399501268706e+00 1.070203266487105509e+00 3.240181994182090436e-02 -1.852974386767224590e+00 8.845342882159088482e-01 -4.745981928773655711e-02 6.179100020285046568e-01 -8.399423347061433232e-01 -3.968770224830974608e-02 -1.505020515142391213e+00 1.122198082717883016e+00 -1.852665998170907047e-01 -8.789915138194336341e-01 4.713686773059627688e-01 1.250914282428871482e+00 -6.275856296485142760e-01 3.811546461169098565e-01 7.116789454788474689e-01 -1.018690559502042348e+00 -9.102068758342904964e-01 -7.512849963366514949e-02 6.533369985834638349e-01 -1.997015972647426585e+00 9.016498439714430990e-01 6.594887487877714172e-01 -1.091121735765199885e+00 -1.437421146383586423e+00 -2.389801565606006761e+00 1.027503857311317520e-01 -2.674300657672920023e-01 2.812046019550084708e+00 -4.485607318257620602e-01 -6.940576079843178148e-01 1.116646678075603194e-01 -1.013219938275454757e+00 1.395959898751150563e+00 -4.568053934247893189e-01 1.030242129060780387e+00 -2.764545185472564448e-01 -2.025809982922570196e+00 1.608973865077927501e+00 -1.003038297861796213e+00 -9.140076891852352281e-01 -8.222929735162378684e-01 2.850130916066686559e+00 -1.615301189354260147e-01 -8.894121185846995958e-01 -3.818640513586158969e-01 1.958333433097935172e-01 1.424777352964831101e+00 3.164003513066905304e-01 1.470819145607679124e-01 1.499136672103337675e+00 1.060121018131990889e+00 -2.255931148518981022e+00 -3.089090906667623093e-01 -7.352546991703883261e-01 1.627491095510481101e+00 6.241653117213911139e-01 -1.804658341266709876e+00 -5.438016620827059722e-01 9.353576817325021109e-01 -3.625671013557960065e-01 -3.971905397494732703e-01 6.835403791445159305e-01 5.885558347755599495e-01 2.066275438082422422e+00 -1.254449232745620701e+00 1.713340234822832819e+00 -1.575142516484122401e+00 -1.747691776068688974e+00 1.235349216757772428e+00 -1.804998572779864308e+00 -9.720352414298192301e-01 1.149039884846517534e+00 1.166592203924482624e-01 -7.448656934456866496e-01 -9.091303152240248764e-01 -5.659666587023725048e-01 9.560346423134609140e-01 -1.816051682352449737e-01 -8.149301989044500649e-01 -7.766561492659007637e-01 2.068793854537825272e+00 3.490631729648788761e-01 -2.200082571581811308e+00 -4.236275442143330183e-01 -3.701902932132225543e-01 2.488224860807001781e-01 9.716831051634018390e-01 -1.081958977120167198e+00 -2.509262745446142251e+00 9.114991499664962804e-01 5.660097735226192750e-01 -3.906936780970036716e-01 7.890757754838256810e-01 -6.573484549912618213e-01 2.500026756724790800e-01 -1.260070165816605803e-01 4.072578521803672524e-01 -4.881557005844023855e-01 -8.668774163063821536e-01 1.182374915896354933e-01 6.598438844656377977e-01 6.104323344810792529e-01 -1.372549205919794568e+00 -2.755524073017342257e+00 6.622626442123060730e-01 -1.704455574908826820e+00 1.193339487805046284e+00 2.998154835634718740e+00 7.341542274469000651e-01 1.033729290020713787e+00 -1.441297477817328199e-01 6.644330327118439516e-01 -1.928064769008569712e+00 -1.531790265793109063e+00 -1.178091194881566883e+00 -2.225413824104215399e-01 -3.314155950774171355e-01 1.323405491103165188e+00 1.638587145820576074e+00 -1.146059056277779264e+00 1.349554963724201029e+00 -1.844246249536563020e+00 -1.363935546208581151e-01 4.175155105551281443e-02 1.093287427409174395e+00 1.115640625023571308e+00 -1.354678976119614964e+00 -1.502223926061902803e+00
