-2.021104576913666850e+00 -2.081853617110469123e+00 -1.973388017731078081e+00 -1.743566906857132892e+00 -1.686230661245582407e+00 -1.669828121307618263e+00 -1.736886255834969361e+00 -1.748590454892979595e+00 -1.744304773700035671e+00 -1.713389977415353371e+00 -1.895668056486965680e+00 -1.690151735330257310e+00 -1.642128960292419393e+00 -1.677394183371514469e+00 -1.882970142619496912e+00 -2.211815467966364412e+00 -2.776181032031838747e+00 -2.752752837754028015e+00 -3.025083288302576001e+00 -3.011875035235993980e+00 -3.176336966923464455e+00 -3.200859668558610593e+00 -3.058900269332733401e+00 -2.464718002777904982e+00 -2.307679357392936836e+00 -3.093079052555120168e+00 -2.983454592461667332e+00 -2.681294704393122341e+00 -2.176966893843130357e+00 -2.063016060245565164e+00 -2.124710944620280983e+00 -1.797259296347679225e+00 -1.784540638522752243e+00 -1.773130693302284566e+00 -1.742061613199436199e+00 -1.835751878909684054e+00 -1.701303978158928754e+00 -1.726929962668083185e+00 -1.667347372208264344e+00 -1.684830899543851679e+00 -1.790764698451990045e+00 -1.723016576827357760e+00 -1.738838019312565653e+00 -1.729338721991318550e+00 -1.617507735977868011e+00 -1.824983276117285058e+00 -2.582174627078442253e+00 -2.731723423507457671e+00 -2.515605550666807577e+00 -2.715304145704402039e+00 -2.906319310702166536e+00 -3.273387710263552908e+00 -3.153215033901302977e+00 -2.321972025395745209e+00 -2.472885046841625911e+00 -2.242943031755363581e+00 -3.271084941870905372e+00 -3.407442728903482543e+00 -3.044501339501591630e+00 -2.443604464128312781e+00 -2.276987956067262786e+00 -1.902752570825952505e+00 -1.717381934124893261e+00 -1.902686810218989999e+00 -1.726858813659576164e+00 -1.710431213693566432e+00 -1.633861434059230788e+00 -1.777034499681906077e+00 -1.745333915280941728e+00 -1.814708484103330521e+00 -1.684792186754458410e+00 -1.755732258403881696e+00 -1.636672971496411000e+00 -1.602684297542472436e+00 -1.722329498752617427e+00 -1.918679838559442352e+00 -1.831617879562724038e+00 -2.640945874547280248e+00 -2.873666900003802205e+00 -2.556639965738977782e+00 -3.158198544803349606e+00 -3.064182238216585308e+00 -3.244291877971640758e+00 -3.516470572761793534e+00 -2.386424201415161761e+00 -2.028320282512762862e+00 -2.644268271187694808e+00 -3.647553990313265437e+00 -4.074809581676607451e+00 -3.703562740056494107e+00 -3.341015170082228369e+00 -2.668835018301079831e+00 -2.313533663242461014e+00 -2.261213024416182549e+00 -2.001645695479783438e+00 -1.875572698744774947e+00 -1.827428738368555461e+00 -1.735822669730642920e+00 -1.717972737040471598e+00 -1.644121171104663048e+00 -1.685325337396804901e+00 -1.687722458961363969e+00 -1.735153386750563298e+00 -1.665628300683773988e+00 -1.689615411288460489e+00 -1.604478875434263152e+00 -1.712164918395164603e+00 -2.134234492819344631e+00 -2.547814255688274798e+00 -2.539656266277541707e+00 -2.654008423480630707e+00 -2.823133752409140662e+00 -1.741903564317012876e+00 -2.400960697196933058e+00 -2.759332010938244206e+00 -1.360365402979798466e+00 -8.918112251404290980e-01 -7.682786190616850419e-01 -2.847393668266749334e+00 -2.172137195892259953e+00 -3.961265143205270345e+00 -3.658701376790588711e+00 -2.940448701292600830e+00 -2.464984905176289320e+00 -2.375791963034444176e+00 -1.901808753981283573e+00 -1.939665049663946261e+00 -1.922383677556717796e+00 -1.828426772887265406e+00 -1.770208322646882992e+00 -1.711030864169671428e+00 -1.720817365732696835e+00 -1.717993621390769388e+00 -1.684991894497698706e+00 -1.686133023840457268e+00 -1.709530862051175992e+00 -1.768110600653078901e+00 -1.868314671861623921e+00 -2.208151043370535582e+00 -2.353596560770924828e+00 -2.240550477009107588e+00 -1.188357898941942548e+00 -1.390351685708437035e+00 -1.332459384047946838e+00 -2.380390531259605424e+00 -2.502484129626272313e+00 -6.669401314207428211e-01 -4.755865748545360372e-01 -1.055383470885077557e+00 -1.632248674933028942e+00 -1.258998103814489733e+00 -1.775464760296137756e+00 -3.711311689901592104e+00 -3.180587995522668798e+00 -3.078652324001642349e+00 -2.547048100621539746e+00 -2.366386054071792255e+00 -1.827930313299551468e+00 -1.873682318365315957e+00 -1.763201880635657082e+00 -1.804594149812231763e+00 -1.702792515725881639e+00 -1.696339258775782843e+00 -1.827703259271481917e+00 -1.690157684779102443e+00 -1.781762101647656582e+00 -1.628326958223899501e+00 -1.924563909770407921e+00 -1.842510392361898841e+00 -2.362537001721542573e+00 -2.054549948062000642e+00 -6.265141072891380336e-01 -4.677051351274907898e-01 -1.124064190118484019e+00 -2.759959666655130928e+00 -1.741525530217060913e+00 -2.297504562157984598e+00 -1.101338412495681318e+00 -6.040755675256286039e-02 -1.174295526949886481e+00 -1.444251195716760527e+00 -1.304007574176890616e+00 -1.081932899742927834e+00 -2.727205238403439758e+00 -3.363475987328507610e+00 -2.962926685874272437e+00 -2.877850336223123584e+00 -2.266016320884861379e+00 -2.200645910892520707e+00 -2.129907674788893868e+00 -1.864262011512311190e+00 -1.729729330632794770e+00 -1.724117483097348469e+00 -1.833444614770957548e+00 -1.856261828431890137e+00 -1.687060541263609936e+00 -1.719511759537960760e+00 -1.842459220802283859e+00 -1.762287316747694677e+00 -1.969857352523727734e+00 -2.006617657654308218e+00 -9.934167551466859258e-01 -4.799854125023980123e-01 6.723194291449005600e-02 -1.122601914679084878e+00 -2.298496787830685673e+00 -1.425634782202778617e+00 -4.494161877737860578e-01 1.444339534360461919e+00 9.894691680809688528e-01 2.466024352411326781e-01 -4.042159067352074087e-01 -3.698884967408169189e-01 -2.629051881073438679e-01 -3.795471726333791151e-01 3.735155853601280218e-01 1.393317135688382225e-01 -3.079642313025473754e+00 -2.860883644136783754e+00 -2.807965401109969950e+00 -2.316056362157983273e+00 -1.877625090806782859e+00 -1.859724151682432325e+00 -1.701224102930315674e+00 -1.856205684164280001e+00 -1.715060212448336285e+00 -1.675536861447412429e+00 -1.778001896411242733e+00 -1.740480108060792563e+00 -2.086843252937253368e+00 -1.936645118467680282e+00 -1.993439844036268838e+00 -8.012031907165640954e-01 4.016102961979953756e-01 3.626679580341372056e-01 -1.281364463518308572e+00 -1.373831298269198253e+00 2.587950289459961528e-01 2.106325831071615529e+00 3.488919837703873483e+00 2.867355055655085305e+00 1.956396949774673155e+00 4.987815798970222092e-01 3.028338583889623181e-01 8.702675750953683398e-01 -1.226443533023283822e-01 1.235778110680364916e+00 1.388907455096835664e+00 -2.942793361172131306e+00 -2.515583754378891701e+00 -2.002036308889411309e+00 -2.050392328562627320e+00 -1.971843936108635731e+00 -1.803567987200240141e+00 -1.696271609378906975e+00 -1.768224715035030536e+00 -1.839231615913189177e+00 -1.779161855811800086e+00 -1.734269221807479333e+00 -1.821304377428514476e+00 -1.947835523075880149e+00 -1.965420215449330099e+00 -1.705109673292601213e+00 -1.420471412150701163e+00 -6.419701859498539998e-01 -5.327826197806844188e-01 -8.884007438237593313e-01 1.267085366165820792e+00 3.316523463943182204e+00 3.504301586475667918e+00 2.009107563784781725e+00 6.301527464583894789e-01 -6.376950901280118433e-01 -4.277250189342017839e-01 -4.721749412147860925e-01 -1.300307733943901756e-01 -8.997199713834459489e-01 5.178183502079307665e-01 1.533902589519120507e+00 -2.540379596405697882e+00 -2.084271422163434639e+00 -2.042602223687848273e+00 -1.739257573598871787e+00 -1.790369756055591122e+00 -1.725815018466249517e+00 -1.789288378574909411e+00 -1.799932925088680857e+00 -1.726998236061007663e+00 -1.724993702237201054e+00 -1.707032568683728879e+00 -1.967805248337909596e+00 -1.939264721444341699e+00 -2.173829113284691417e+00 -1.782581840869411627e+00 -1.433117207849311292e+00 -1.536233161471918462e+00 -6.431223656302188507e-01 -5.182858858831708160e-01 2.262762637827379741e+00 3.811370282480892158e+00 1.251015517801850274e+00 -1.285296692041159594e-01 3.816734332127120766e-01 2.256220440771421476e-01 -3.594939718521588529e-02 -9.697580322005092679e-01 -4.990619515976880693e-01 -1.162766641444626270e+00 2.527728033253733297e-01 1.394593522268988250e+00 -8.501529380672161462e-01 -2.193531298955164299e+00 -2.199047019772530920e+00 -1.924737418636202735e+00 -2.068637535233957436e+00 -1.911686664006873260e+00 -1.760029220093551894e+00 -1.693966152298580274e+00 -1.691746994855386710e+00 -1.711444873288095581e+00 -1.725387050297421787e+00 -2.011628575649764272e+00 -1.964391898652886992e+00 -1.829348509744988638e+00 -1.777765068188178033e+00 -9.972727380972408184e-01 -3.064004449351407366e-01 -5.528330606900175859e-01 2.161288916872832200e+00 3.403437162305503083e+00 2.623391523914151868e+00 1.238233673173249949e+00 -6.722154769391860407e-01 3.865701994518275786e-01 9.369386090631826036e-01 -4.573936159536738932e-01 -1.058797938431310426e+00 -6.833684133162281071e-01 -1.214714293764561193e+00 4.087339790272010998e-01 3.085660389027138351e-01 4.588285856961697717e-02 -2.132754027730855012e-02 -2.135564145757788523e+00 -1.948401509603849613e+00 -2.146285188940153965e+00 -2.066467467477401065e+00 -1.974184315193535433e+00 -1.701755561668352845e+00 -1.614019227164326331e+00 -1.759495324660903748e+00 -1.816112276481182120e+00 -2.148421765215497548e+00 -1.945688930668679095e+00 -1.677894045382402721e+00 -9.655601994575561953e-02 -8.352604211562922876e-01 -8.031913556650049912e-01 4.091624987307460604e-01 2.282390335302967532e+00 3.375280007337448041e+00 2.822493376508907748e+00 1.136693447024746118e-01 4.568293237476193924e-02 1.904523694377948217e+00 4.837307308241369785e-01 -9.987794989920149025e-01 1.413530274669994591e-01 4.951583937502426203e-01 3.869293147851581294e-01 1.362188634170959957e-02 -7.971964178719234129e-01 -1.686162268271798048e+00 -9.210716065054598278e-01 -2.223569336435695654e+00 -2.081037330614191827e+00 -1.998252552348807054e+00 -1.856421203770744599e+00 -1.873985785821071559e+00 -1.889007633252170137e+00 -1.742654704968608748e+00 -1.690329960664973763e+00 -1.975195924180602303e+00 -2.021700715040507745e+00 -2.060902556645205941e+00 -1.731658064382279871e-01 -6.153393212110913613e-01 -1.276006903207888898e+00 -5.531333823283814954e-01 -3.072914999723181384e-01 1.114734019950624377e+00 2.630852994397789857e+00 7.930659278177676352e-01 -5.254525193588347465e-01 5.039067042527944906e-01 2.007539916037278882e+00 -1.401097387684289153e-01 -1.217833738995186543e+00 6.102487691472142650e-01 1.115795605042942507e+00 -2.998239744626984837e-01 -2.620979133462766342e+00 -1.546063662174653519e+00 -2.883021967354562953e+00 -1.217756725142292717e+00 -2.482929605311411159e+00 -2.463565024236266332e+00 -2.375699888643023616e+00 -2.012302638535922839e+00 -1.923703864568410804e+00 -1.754860425891448861e+00 -1.895331044505045304e+00 -1.881749105137551448e+00 -2.002616450020368255e+00 -2.038729637257731930e+00 -1.935890998224005344e+00 -4.042092608670903031e-01 -7.124702686225945492e-01 -1.139131501869614871e+00 -7.880322999408073681e-01 -3.273596761545150557e-01 1.032863642465987608e+00 7.276682867697279455e-01 -5.095566002919402759e-01 -1.090069590723363735e+00 -1.940926379571607518e-01 1.923458382266254318e+00 2.081315361538587094e+00 -8.429919995119687925e-01 -5.241309053827750697e-01 -1.064976517939141942e+00 -6.905141012133615419e-01 -1.986255078364661752e+00 -8.874126024482573705e-01 -1.436173321173690676e+00 -2.504572457347304937e+00 -8.204334380558084838e-01 -2.353472234345652669e+00 -2.394854929503065222e+00 -1.819348077989889623e+00 -1.851227416011061333e+00 -1.816154076331411238e+00 -1.883015746899020515e+00 -1.785735059842655570e+00 -1.957974972449063156e+00 -1.993197549991867934e+00 -2.227870684050449190e-01 -6.744282088728167368e-01 -9.772065521681558842e-01 -6.177667399666320058e-01 -1.390110847238074654e-01 8.536063023510418457e-01 9.506952987359118534e-01 3.969564079155607494e-01 -7.796686255700113755e-01 -1.775084092513051770e+00 9.506641782828280096e-01 3.950450328908351239e+00 8.546452397443891069e-01 -1.367243313147655570e+00 -9.958142017395048562e-01 -2.436248157887269006e+00 -8.220328206328255671e-01 -5.360692674220068898e-01 -9.787416654720031417e-01 -1.688834475824029235e+00 -2.481570863455080378e+00 -1.027286181749033522e+00 -2.275845139680476859e+00 -2.449455581230200352e+00 -1.843045009428537551e+00 -1.916819744676811155e+00 -1.837679727468300106e+00 -1.786792270078060962e+00 -1.793677428529784290e+00 -2.011863391079540708e+00 -1.892539479570584104e+00 -1.819759511261694329e-01 -7.215440305080712546e-01 -1.450279880854882242e+00 -1.898640542814156618e+00 9.733604321502815626e-01 1.290470186062530944e+00 1.420347911501910199e+00 -2.316130736929425393e-01 -7.619261085814198475e-01 -2.488436243685447469e+00 -7.767261311648976721e-03 9.957876988393281614e-01 -4.078815523597945081e-01 -2.138413040059892190e+00 -2.876558519755318066e+00 -2.624259856724462825e+00 -6.668864499170011895e-01 -8.365797530985008557e-01 -2.162459449882969231e+00 -1.695839619202286208e+00 -2.938360250516875993e+00 -8.012966997917538858e-01 -2.500149957098065645e+00 -2.320654257331596249e+00 -2.019668191444381922e+00 -2.011821565686234603e+00 -1.946525283702214226e+00 -1.827846148994909381e+00 -1.781404567361800195e+00 -2.053813432605741784e+00 -1.902651499835861459e+00 -3.812381054294524674e-01 -1.235595973637042100e+00 -1.639920353393075070e+00 -6.887999304336378525e-01 1.473812977435732918e+00 1.483941080074125063e+00 7.808522941251270222e-01 4.579115162873258205e-02 -4.167580344916256507e+00 -1.021949196843998209e+01 -9.329582414437906923e-01 -8.967077581867194391e-02 -8.861037878974713511e-01 -3.841579721261322966e+00 -5.786714088337418183e+00 -2.464620630397095447e+00 9.874147723580180003e-01 -2.972438493012783400e-01 -2.004348852519723501e+00 -1.227661787796509474e+00 -3.053280331743944753e+00 -1.192384455236667362e+00 -2.359698886670679396e+00 -2.498331068987706960e+00 -2.070849224165560276e+00 -1.859887879672830646e+00 -1.762260789030900776e+00 -1.656970986370654098e+00 -1.610843684645160367e+00 -2.058664511818419030e+00 -1.854599460039171310e+00 -9.384401401678877930e-01 -1.280230351958852264e+00 -1.240672495054578217e+00 1.946668910147468790e-01 8.642402485058375827e-01 1.572187841144834231e-01 3.417662804464963733e-01 1.578675986624506478e-01 -1.025019295274737452e+00 -2.861836763308393650e+00 -7.172026050728093072e-01 6.605904894214258416e-01 6.838412741560409569e-02 -3.084990962025304206e+00 -1.987695736094939214e+00 -1.936351198017347564e-01 7.893353182034072990e-01 -2.038193433833579427e-01 -7.611246107771230118e-01 -8.148541980308277033e-01 -2.821767573287218056e+00 -2.599804248365047421e+00 -2.327509094207427687e+00 -2.439168890451613336e+00 -2.065885970307158814e+00 -1.862167578628642461e+00 -1.869679549822317099e+00 -1.699619759084086246e+00 -1.784561684812100868e+00 -1.652860882246724339e+00 -1.780736126000166619e+00 -7.804537845118533212e-01 -1.033719761581086027e+00 -1.310265791848538530e+00 5.969777140633669710e-01 7.198142755952590122e-01 2.452403104322850025e-01 3.457487516558831464e-01 -4.347506206614923929e-01 -8.423982825588760548e-01 -1.398823230184890631e+00 -4.888399069695976706e-01 1.266868688641370477e+00 -7.432448742476234216e-01 -1.116345206643807542e+00 1.818459152477354124e-01 -7.715363431565476493e-02 4.690850112476845080e-02 -3.197932082495151818e-01 -1.008305717903253518e+00 -1.649508021049067796e+00 -2.715594543926161286e+00 -2.550612808168121415e+00 -2.390205903547707678e+00 -2.350705812352372526e+00 -1.997130537891925295e+00 -2.007466618655684432e+00 -1.843101205985688384e+00 -1.817823974696272771e+00 -1.713424897699482585e+00 -1.713865021789184206e+00 -1.945205388571178196e+00 -4.759507523349927327e-01 -1.760735051617943192e-01 -1.637215352908459320e-01 -1.230501630027289323e-01 5.333744020782003048e-01 7.160475320409238620e-01 2.705829776398668285e-01 -3.156461699495072964e-02 -1.910231521550871170e+00 -4.535109455105068577e+00 -6.633533922779049075e-01 3.357934404605013023e-01 -1.214950434218195152e+00 -4.321185442411307198e-02 2.358298287533137083e-01 -8.498276996501694658e-01 -6.697568741900419287e-01 -9.992723121545117326e-01 -1.941777542784402844e+00 -2.951593536996298006e+00 -2.706737028832900016e+00 -2.231779245777209209e+00 -2.244266000585969145e+00 -2.057979841107058672e+00 -1.808758622964076190e+00 -1.947336203470882321e+00 -1.807257257615416668e+00 -1.824874252491539783e+00 -1.665675761062950233e+00 -1.714704738915193261e+00 -2.036569536207308850e+00 -4.983860234101941122e-01 -2.092677033253759755e-01 -1.103217521950876412e+00 -2.929409543050380815e-01 2.435452831376511140e-01 1.427111968354316529e+00 8.875885174753518347e-01 -7.880185871914339168e-01 -2.445921756026287586e+00 -3.253260380022529041e+00 -2.288345465429641568e+00 -2.223886276448223120e-01 3.523414021208539637e-01 9.344393969443803849e-02 -4.272061697490110443e-01 -8.783901979326924625e-01 -4.486609108928396594e-01 -6.308940943422725045e-01 -1.802097609088580077e+00 -1.469994626637784352e+00 -1.137076775179848731e+00 -2.337869778098033091e+00 -2.297736926963577009e+00 -2.377020906858046789e+00 -1.672611333179217841e+00 -1.864493987617144910e+00 -2.008034876246536982e+00 -1.825782549717962056e+00 -1.826079214409645601e+00 -1.699657300972108542e+00 -1.958576914733114016e+00 -4.465009443367388142e-01 -4.754056003733103664e-01 -1.541672169364445955e+00 -2.085940474617800522e+00 9.337229229119804463e-01 1.298219142940315152e+00 9.788055401638739994e-01 -2.877210442967045312e-01 -1.581512397895723288e+00 -2.176508252214367278e+00 -1.577174516226679257e+00 -6.467771060219433543e-02 5.977322985204183148e-01 -2.013986922344498942e-01 -2.301077787922535256e-01 -5.128642858344591993e-01 -1.004383095078421162e+00 -1.355511829177319383e+00 -1.274988749003406641e+00 -1.822542185774410628e+00 -2.416905166511253977e+00 -2.188384749823966136e+00 -2.214725080996041484e+00 -2.086180495431328996e+00 -1.897139761232006894e+00 -1.835952112960021365e+00 -1.846879580981138025e+00 -1.681452144765870793e+00 -1.635623879537834169e+00 -1.787422609812777230e+00 -1.890391584178500173e+00 -5.200727567488029335e-01 -8.468708038062535692e-01 -3.280373817045013407e+00 -6.237761914685077125e-01 1.713561017806220832e+00 1.830237163904894215e+00 -1.469171769877027772e-02 -1.459835041325799887e-01 -1.146709282362979643e+00 -9.525558065427612853e-01 4.865953793099460079e-01 2.208344972133659656e+00 1.894709518282680083e+00 5.104965417988723830e-01 6.206163206120861586e-01 4.162533868377337187e-01 -1.245282121526983393e-01 -8.083653431681731005e-01 -1.339835719702747507e+00 -1.480266867981958390e+00 -2.291472976364342884e+00 -2.083312285659553176e+00 -2.124480170525622658e+00 -2.027128337779666278e+00 -1.874453103369324358e+00 -1.762780971220572646e+00 -1.729740399433969733e+00 -1.692244328221722549e+00 -1.838469140009181269e+00 -1.752314300747624287e+00 -1.745286901898782883e+00 -4.654785909376005781e-01 -3.992571879642502486e-01 -1.858048486047242154e+00 -6.484955724687936351e-01 1.059417582713086281e+00 1.547570918694375131e+00 3.152035044227436411e-01 -1.599120199658805169e-02 -3.369006473250294453e-01 4.803568024238911993e-02 1.657906451882724008e+00 3.761745191184918014e+00 3.915594565163434737e+00 1.917632153569835518e+00 1.585189834001495157e+00 2.473159352662895882e-01 -3.603246256964436345e-01 -1.236268035956030076e+00 -2.063379271036604568e+00 -2.844066126650457882e+00 -2.010927165446244391e+00 -1.982353668517958356e+00 -1.865759604388049775e+00 -1.862163993082528002e+00 -1.776088121311391266e+00 -1.784820607628990974e+00 -1.738762994573874732e+00 -1.758740908259777136e+00 -1.652872695287111560e+00 -1.735285539861646908e+00 -1.696006428307524239e+00 -1.794348600477795319e+00 -3.097846697983057673e-01 -1.318222593907451445e+00 -7.980109799385818325e-01 -3.078745247872020085e-01 1.400767767769271477e-01 5.481293914684836066e-01 1.982018626287990748e-01 1.858132587939615443e-01 6.503759639643769130e-01 2.461732957567932978e+00 3.447031810762610782e+00 2.815961716045836560e+00 1.524855698273643423e+00 8.369484350499978298e-01 -4.062919037300075642e-01 -2.555495947929552258e+00 -2.081074327450790573e+00 -2.016515287561100322e+00 -2.563529226723956889e+00 -2.265539444468418040e+00 -1.970845818482739764e+00 -1.906978308832978364e+00 -1.741536803710678205e+00 -1.664547698341476201e+00 -1.871356941847015953e+00 -1.736761723466938800e+00 -1.755270060170798896e+00 -1.845796131200379442e+00 -1.801971207946425402e+00 -1.683362093524533476e+00 -2.052260846501513747e+00 -2.040503664495501912e+00 -6.874566629849159227e-01 -1.892230731182590997e+00 -4.894759932340386754e-01 2.717776654090662825e-01 -3.766170717650331179e-01 -4.725358704056611403e-01 -5.613423141987434750e-01 -1.004394628198323897e-01 6.279384409005293044e-01 6.612431835390396584e-01 4.249257813134683648e-01 -7.723110263327805924e-01 -1.528388559065504193e+00 -3.114397957441426001e+00 -4.454012330955762877e+00 -3.917966135601272271e+00 -3.678178003891554138e+00 -2.396601235389785423e+00 -2.143103310155876073e+00 -1.866060346289107219e+00 -1.938927127677545492e+00 -1.769975767317755855e+00 -1.725003169807598047e+00 -1.699602132887525929e+00 -1.606086554875316041e+00 -1.713379595529254562e+00 -1.652564662317860256e+00 -1.769532225007562687e+00 -1.752529827054519762e+00 -1.924246191869555700e+00 -2.129589739317176100e+00 -2.061963201070355911e+00 -3.706782434336538534e-01 -1.069856404014785101e+00 -7.454250480328357131e-01 -8.016937069250396064e-01 -9.774669407570650836e-01 -6.616811899225474303e-01 -1.241362922090202936e+00 -1.680224514706058381e+00 -1.388017728180374943e+00 -3.386118293754701192e+00 -2.685396864638320391e+00 -2.053678426382980149e+00 -2.878201166429315006e+00 -3.986491983883366785e+00 -3.349772978404005119e+00 -2.978474221084372875e+00 -2.184050924884337164e+00 -1.783751972279336240e+00 -1.919489753139767441e+00 -1.765374721588484075e+00 -1.814044531969889018e+00 -1.697419499834875500e+00 -1.627301429899773444e+00 -1.747057164607319635e+00 -1.648882449877554501e+00 -1.780123602601582311e+00 -1.623466608279575008e+00 -1.813677932725526354e+00 -1.905474018809227399e+00 -2.196051193832207815e+00 -2.079304902200151961e+00 -1.926014019312825010e+00 -2.133508855574987262e+00 -1.284409487379428727e+00 -1.533536840492959241e+00 -2.476404353391179924e+00 -1.852713293381097914e+00 -1.955190758444743215e+00 -1.169831729304925183e+00 -7.936812143065163916e-01 -1.391046751157374306e+00 -2.803555151494147690e+00 -3.485522145727519838e+00 -2.748409970396066715e+00 -3.413555908417311713e+00 -2.614975159501322199e+00 -2.389278295918610073e+00 -2.350734710623598733e+00 -1.834387888262980493e+00 -1.892882375152090457e+00 -1.891740188865867367e+00 -1.736428344916682409e+00 -1.714166383022083906e+00 -1.577179612046625490e+00 -1.748036634843995962e+00 -1.627813908946478039e+00 -1.782218497742842800e+00 -1.729062127680176753e+00 -1.646945003823461651e+00 -1.989071936036143740e+00 -2.226338134857337892e+00 -9.934218822083809020e-01 -1.846987969885436343e+00 -2.121125672619021518e+00 -4.760332811585613610e-01 -5.234396306495843199e-01 -1.441245217542193480e+00 -2.225584804537715122e+00 -1.185937548174518907e+00 -4.000411505694945191e-01 -7.593144212605906773e-01 -9.830584941877440475e-01 -2.088763746243122110e+00 -2.689994006581529540e+00 -3.290831869273012522e+00 -2.985631267129062127e+00 -2.321889525358425743e+00 -2.005541081186469121e+00 -1.919157952945801604e+00 -1.857281255716745960e+00 -1.754554652423822247e+00 -1.706560111227585441e+00 -1.775250164042930789e+00 -1.632897584685502723e+00 -1.727395307566438554e+00 -1.680739565150632719e+00 -1.657164326654682274e+00 -1.727484430943408311e+00 -1.714263168972407714e+00 -1.760133821320966963e+00 -1.849710563358788695e+00 -1.893286693556294864e+00 -2.005183761673018150e+00 -2.052806575205839756e+00 -1.929606200596868160e+00 1.275709308519631935e-01 -4.203594845571461125e-01 -7.866780742879835309e-01 -1.544709516398175664e+00 -2.286993164807082479e+00 -3.070734921432082931e+00 -2.400604439759270736e+00 -1.649786294989015190e+00 -2.455775740784329919e+00 -3.336010811011709709e+00 -3.382276102380596505e+00 -2.856620503035482539e+00 -2.559865280642092067e+00 -2.195363382119279283e+00 -1.929930633970298626e+00 -2.159357859104146904e+00 -1.976602318226002852e+00 -1.891514360294482611e+00 -1.726388026226137296e+00 -1.726634770684303044e+00 -1.586116712176129040e+00 -1.664825757139696938e+00 -1.619491143508461573e+00 -1.677644439966313739e+00 -1.800912818523858760e+00 -1.691986686180151578e+00 -2.014960299374789265e+00 -1.948076860287953460e+00 -2.104344325860695530e+00 -2.192940029410685554e+00 -2.282141891345333740e+00 -1.180007348821823010e+00 -2.486251815958685718e+00 -2.964215229172425747e+00 -2.892521613727254248e+00 -3.009015990767286208e+00 -2.248961044045002744e+00 -2.364509279201074232e+00 -2.486841553819229667e+00 -3.010429909303826701e+00 -2.853915740253412103e+00 -2.664787714450246092e+00 -2.555103422814291925e+00 -2.102939441308170565e+00 -2.181350165776328787e+00
-1.866750356380183051e+00 -1.789546782615104581e+00 -1.671368008501565638e+00 -1.711546024280528266e+00 -1.838297025234152171e+00 -1.796011057100088237e+00 -1.660651082002528200e+00 -1.724060625912980038e+00 -1.900869564507733811e+00 -1.740452648276026748e+00 -1.729714385762590734e+00 -1.858463580075663257e+00 -1.792014966054281677e+00 -1.800218053002207164e+00 -2.023668169481882995e+00 -7.590442709259594967e-01 -1.222620925905203881e+00 -2.128326738765782711e+00 -1.335015425606222328e+00 -7.792272703904375986e-01 -8.780712620351649456e-01 -5.677839465120188001e-01 -3.336930341481708640e-01 -1.038540556646408319e+00 -1.307130623818214543e+00 -1.300289559225255687e+00 -1.025910722110467521e+00 -1.469050985621984440e+00 -1.987095469935555414e+00 -1.915470603281255624e+00 -1.904751732043826751e+00 -1.662553452087766948e+00 -1.690673356584389886e+00 -1.729982533770650477e+00 -1.627432227713751844e+00 -1.637422480125997781e+00 -1.783041312942261536e+00 -1.738271247530615904e+00 -1.793855265345679850e+00 -1.802397681463088652e+00 -1.755189413643377216e+00 -1.866150237907825415e+00 -1.825603296148604615e+00 -1.775367546568452637e+00 -1.842637351919814481e+00 -1.894939484655964845e+00 -1.879883493751555168e-01 -2.488481423658739367e-01 -1.069594913996057883e+00 -7.496178297934921186e-01 -3.242837462363123979e-01 -2.540036167356690133e-01 1.417191391405353551e-01 -4.290445016054681426e-01 5.584297656764351109e-02 -2.972784001386336028e-01 -1.728688654600289087e+00 -1.761257048442952167e+00 -1.736001959789316373e+00 -2.375123092594354723e+00 -2.292561420579204423e+00 -1.635102856500516122e+00 -1.673929226253545455e+00 -1.646858677213639099e+00 -1.752737444681405687e+00 -1.871777307119252942e+00 -1.791846950918487114e+00 -1.838702239847488373e+00 -1.686090348210713907e+00 -1.751638404406096639e+00 -1.773503821587554707e+00 -1.812829509292329666e+00 -1.769492018393615140e+00 -1.715380863860885841e+00 -1.810212516692634610e+00 -1.787403164998828897e+00 -1.761667020723806765e+00 2.688525108788075157e-01 5.068660677455998770e-02 -9.671081052253054366e-01 -4.615164535052333761e-02 -5.781534206292922029e-01 2.858111765811105487e-02 5.821138922068647137e-01 4.880898020819364191e-01 9.223704710492937053e-01 3.116315993850957144e-01 -7.857776750881592109e-01 -2.555839203119147918e+00 -2.524963865819481956e+00 -3.266990159362740620e+00 -2.603966390364549355e+00 -2.121667763040650634e+00 -4.922682608570331242e-01 -1.521264503176785965e+00 -1.890140171960950077e+00 -1.841962865106224756e+00 -1.793214541342414092e+00 -1.873021766438096369e+00 -1.768875967111924075e+00 -1.824247396423067213e+00 -1.745571649909092971e+00 -1.733204119373131125e+00 -1.683678854786295531e+00 -1.784413596756248221e+00 -1.807944811130104412e+00 -1.843391535329295561e+00 -4.023577831175374486e-01 -2.553157968532342448e-01 -6.501700448208294625e-02 -2.996273155531987697e-01 3.309856264457848862e-01 6.319068552647964798e-02 8.160064470403581849e-01 1.509936654477546991e+00 1.570238640820535769e+00 8.525519941801376067e-01 2.370703468609467457e-01 -1.304209979907250183e+00 -2.361560226054423950e+00 -4.181581194396469137e+00 -3.620400457496855129e+00 -3.285355324392015497e+00 -2.077414142593831503e+00 -5.554440504339576146e-01 -1.704360316022662802e+00 -1.726798903589645384e+00 -1.772037749105967119e+00 -1.799585014473450428e+00 -1.822688924856868509e+00 -1.760873074974252717e+00 -1.775750608722912016e+00 -1.760487288483320034e+00 -1.764545355790824832e+00 -1.697413745829789988e+00 -1.634226751015674717e+00 -1.672177189862665170e+00 -1.516772663329002402e+00 1.382814691226363357e-01 3.438591138551148063e-01 1.387263017747480953e-01 4.635308490735172704e-01 1.206841948688823551e+00 1.042783575216738701e+00 1.389441793216283694e+00 2.561027239367731134e+00 2.032563072974797880e+00 1.410742990909687355e+00 7.681648251806908467e-01 1.368822183958448048e-02 -2.323741929416745511e-01 -2.321308947952511303e+00 -3.613723545216572131e+00 -2.942675915491463456e+00 -2.679717879284291726e+00 -1.241524924150015696e+00 -2.152715319224657975e+00 -1.534917153178785076e+00 -1.718259182536174601e+00 -1.783235734873745093e+00 -1.788020893840566616e+00 -1.795639672715294122e+00 -1.689410077263113319e+00 -1.735459204092454355e+00 -1.867503255965333508e+00 -1.787207591845191512e+00 -1.744836345862402993e+00 -1.668128335095433012e+00 -1.591940708276752270e+00 -7.490781365445811635e-02 3.012070644668869007e-02 9.312060329820706084e-01 9.755627928297574414e-01 8.840930781955416151e-01 -1.820655545477585235e-01 1.669268920963560943e+00 2.310313059188808804e+00 1.990253254496529456e+00 8.060279036272048891e-01 2.898226424375539012e-01 -8.033540816074132007e-02 -4.909437697922796051e-01 -2.187407858734268018e+00 -2.065708360993491421e+00 -2.128098397764263794e+00 -2.337247364476806588e+00 -9.889854039404264441e-01 -1.629146534392887036e+00 -1.698093040483235505e+00 -1.731216763346658416e+00 -1.671973839649238069e+00 -1.890891791305493008e+00 -1.898641561897015606e+00 -1.685522365436976644e+00 -1.649330224610790152e+00 -1.742272211551619820e+00 -1.725556866976750481e+00 -1.857931982209401589e+00 -1.524987161645245504e+00 -2.704307493987057054e-02 -4.114040389997346975e-02 7.646710101237653989e-02 6.478613390619618606e-01 3.580260464397896358e-01 -3.928924834049478676e-01 -1.062932900118087644e-02 3.374908462175140178e-01 1.579648781899778864e+00 1.351678605033417080e+00 -6.360770488789391219e-01 -1.328898928298882787e+00 -1.609992871930261416e+00 -2.802192605851816953e+00 -2.851139331309729741e+00 -1.543054573011496178e+00 -1.099459475835918632e+00 -1.385596794628058070e+00 -8.949517312706813943e-01 -2.235984028666921031e+00 -2.089368329912229871e+00 -1.634965596816372324e+00 -1.704231162966540314e+00 -1.810417060231690023e+00 -1.853211174302554776e+00 -1.815345136821142180e+00 -1.695868258966345188e+00 -1.794025887265946251e+00 -1.836883743385918422e+00 -1.675368488904946940e+00 -3.232374743588112276e-02 -3.349782519941730402e-02 -5.673493720168818616e-02 4.312968077065898465e-02 3.106314355832436869e-01 -3.159242635256251930e-01 -8.390648897954955387e-01 -1.282591827204345503e+00 -2.692603101021766032e-01 1.511475031995005436e+00 -1.166684467027259836e-01 -1.864421703818361031e+00 -2.594257091803048532e+00 -2.557972709554196200e+00 -2.495497560198134401e+00 -2.473738800274730476e+00 -1.512589251784571820e+00 -1.614809576893330823e+00 -1.210513313268551050e+00 -8.459382101351256011e-01 -2.275399233686105749e+00 -1.712728884085689129e+00 -1.740950974496845438e+00 -1.798757035450990527e+00 -1.861383801534777893e+00 -1.675663139762733955e+00 -1.640686087065502230e+00 -1.857364948990751996e+00 -1.719347073611963372e+00 -1.619013767319409602e+00 -1.614571478776507529e+00 -2.014104895116367033e-01 -1.707931839549760022e-01 -1.223556376301252913e+00 -2.334259522315597635e-01 -6.610461134298196706e-01 -1.985868817628282379e+00 -9.076060772634322316e-01 -1.076563924472808909e+00 5.482460915921307798e-01 2.238552050636902546e+00 5.156940225298545233e-01 -1.842859401216479176e+00 -2.847780889421912764e+00 -3.297715437420108753e+00 -3.705601446636090479e+00 -2.992024867535181265e+00 -2.439043619353573167e+00 -2.290523957736013916e+00 -3.310279460892962877e+00 -1.749134875735843586e+00 -1.808276992587857013e+00 -1.766662477794431307e+00 -1.635505893909141806e+00 -1.754334853256903859e+00 -1.779196582184719766e+00 -1.780802977072583060e+00 -1.822299497402702251e+00 -1.818995517640211057e+00 -1.586110058176876114e+00 -1.664296767227805729e+00 -5.742763982782846943e-01 -2.444597183574810928e-01 7.099948071096365276e-02 -1.354787903958367234e+00 -1.138532264500527746e-01 -7.463753421015977274e-01 -1.912229072757657855e+00 -1.105739809046622613e+00 -3.182183237541346688e-01 1.615961925303000646e+00 1.843462446353122175e+00 -1.121542868014163030e+00 -3.031219808367306534e+00 -2.169827987650587264e+00 -3.173817931697058725e+00 -1.790733754190179328e+00 -2.525221310239720296e+00 -1.398964249093341827e+00 -1.790904426008425476e+00 -1.657743631434079656e+00 -1.975626916102775965e+00 -1.614018257056958339e+00 -1.663661120553228567e+00 -1.760745577301610520e+00 -1.777606425186752270e+00 -1.834848028256125474e+00 -1.890125312266559998e+00 -1.711970924886930145e+00 -1.806561764664837755e+00 -1.751193560262846338e+00 -1.578021566683370125e+00 -2.207473795844006048e-01 -2.249349199110983744e-01 -6.460642713108590840e-01 -1.533369176041684323e+00 -7.209460224826940156e-01 -1.282134360357289449e+00 -1.514967049354089879e+00 -6.952135854651567137e-02 1.060329035210521020e+00 1.431926371773081907e+00 -7.390028134588293440e-01 -2.470580588152728740e+00 -3.332714128203141168e+00 -4.581779880460169707e+00 -3.424585648919800551e+00 -2.550828538860018480e+00 -2.431727120894254135e+00 -1.678139355253627923e-02 -1.744375023534377345e+00 -1.883139681241060792e+00 -2.326578115843706662e+00 -2.196278538293138904e+00 -1.794217774525637576e+00 -1.601232575636594824e+00 -1.813384595970642721e+00 -1.848444593408998804e+00 -1.776459132834791177e+00 -1.905036051515859752e+00 -1.721657793667626501e+00 -1.767484999238216670e+00 -1.512540081957497007e+00 -8.816838875834603906e-02 -3.683430798699720565e-01 -1.327210009383350098e+00 -1.637020696512435203e+00 -7.100604505284789925e-01 -1.179852819887747373e+00 -1.121609551387639625e+00 1.113903231800257743e+00 1.088981785368076327e+00 -9.712926723351071601e-02 -6.463265271387583777e-01 -1.741332629188871772e+00 -5.384286951181293190e+00 -3.171268595512470867e+00 -3.529659097510269294e+00 -3.236775024651411758e+00 -3.559314940573378383e+00 -1.640924810101853204e+00 -2.783412715537370019e+00 -3.046970856570538899e+00 -1.741148990605170033e+00 -1.724205102312054594e+00 -1.772232795263467109e+00 -1.795163922694556824e+00 -1.717879777261858809e+00 -1.721193630504850525e+00 -1.664376556961351783e+00 -1.869410477444515495e+00 -1.819214487004557457e+00 -1.836579793740322764e+00 -8.265751607899057829e-01 -2.146190280757708790e-01 -2.495861090730656651e-01 -1.533483740202572720e+00 -9.634054269448435459e-01 -3.291514012211181339e-01 -1.210653258052778236e+00 -6.232308729076887488e-01 5.269320388268088351e-01 6.310414765073590893e-01 -2.282794235521383719e-01 -9.997813122822603038e-01 -3.418894562911609647e+00 -3.323151422902997698e+00 -2.289114093929514482e+00 -2.137598613476065612e+00 -2.805580849760311413e+00 -3.761803764241807180e+00 -2.216498867175606957e+00 -2.731965004742217484e+00 -2.476727298799934029e+00 -1.686533657756041249e+00 -1.677184947922785829e+00 -1.536461005800708435e+00 -1.529884619950946822e+00 -1.538114877589290996e+00 -1.764638325500492488e+00 -1.793101020476011387e+00 -1.928660951631969045e+00 -1.911123770585456905e+00 -1.836193017291084084e+00 -9.196249007504933015e-01 -3.100011491248172435e-02 -5.839171812146365381e-01 -5.049593032626268352e-01 -4.040742225443293978e-01 -1.552777264609784581e-02 -7.574434887251629833e-01 -5.501340209015176397e-01 5.774847987265460114e-01 1.457102428476956812e-01 -2.103477345252059705e-02 -7.381264571692491838e-01 -3.023089885985814185e+00 -3.187169476443581839e+00 -1.987904802143311223e+00 -3.121241688720116869e+00 -2.611850115957052409e+00 -2.430155540451885532e+00 -2.057325971183087798e+00 -2.703282676173644372e+00 -1.178715094018157883e+00 -1.904903396152334283e+00 -1.448251024494777273e+00 -1.691121514228581146e+00 -1.635701893447317090e+00 -1.758225942193239133e+00 -1.844677096075648670e+00 -1.596104551393871196e+00 -1.721681314919914607e+00 -1.700694008480412966e+00 -1.753636196127851044e+00 -8.676663675068949644e-01 -8.592585957374309080e-01 -8.812977458891662064e-01 -3.950751982544632446e-01 -6.491360879709201503e-01 -7.148720891244253473e-01 -6.979981380931981061e-01 5.441147545150839537e-01 1.766179750156232409e+00 7.169136182041055960e-01 -8.016716173221680730e-01 -1.076494692681394305e+00 -3.295909722629317695e+00 -2.056952295678063702e+00 -5.224481904923469200e-01 -1.263524916723798963e+00 -1.605145801931097349e+00 -7.333956058496766683e-01 -2.414723334112014452e-01 -4.324283885087648605e-02 4.101340742198144457e-02 -1.278856924273068518e+00 -8.713765193993667779e-01 -1.794085800246088658e+00 -1.581009697130818958e+00 -1.800157594163111607e+00 -1.653734610911981262e+00 -1.762837597225753505e+00 -1.787849872511395155e+00 -1.708588071476275561e+00 -1.800562056453614002e+00 -8.487139691541440989e-01 -8.433565468261060571e-01 -1.782347250181875342e+00 -1.222826938250907380e+00 -1.024078013102442286e+00 -1.375629963668159039e-01 1.504014150989583687e+00 1.546726213128144289e+00 5.409419245726586389e+00 9.042286075761429842e-01 -6.159096161701946986e-02 5.247664807650793684e-01 -1.193663964921219733e+00 6.659036683407189017e-01 8.350582667520807245e-01 3.492608702679961263e-01 1.589249482957694748e-01 1.776128036166694790e-01 1.660939617288463288e-01 6.227842452892564662e-01 1.259869037896888422e+00 -6.866473280987728245e-01 -1.366663387448728395e+00 -1.711180188596967966e+00 -1.628277573104554232e+00 -1.611285199387951339e+00 -1.694892328331948361e+00 -1.816145238013204377e+00 -1.667562674275063106e+00 -1.887764752354611275e+00 -1.772659693651985613e+00 -8.443032672655800264e-01 -7.783177704163887212e-01 -9.730804762600189228e-01 1.667323673684387164e-01 4.315703862610695829e-01 1.198543803763073567e+00 2.165464670043239170e+00 4.613737033500325602e+00 5.137745247805342252e+00 4.420866200440256577e+00 6.812290741848748610e+00 1.779029032924572817e+01 4.180627280355280195e-01 1.159442607655250645e+00 1.176828158328633522e+00 -1.188424109140926027e-01 5.788462096113968780e-01 3.673042943040777386e-01 -1.148318617174959588e-01 5.823478182626914412e-01 1.527437221073213891e+00 -1.236222380640566554e+00 -1.830493260800914346e+00 -2.041582648736251393e+00 -1.766881025629229329e+00 -1.834485348860585008e+00 -1.796942865726756100e+00 -1.827355541759599022e+00 -1.828536605144932325e+00 -1.782147634729440266e+00 -1.805057918591555621e+00 -9.263240489950302914e-01 -7.042519468355801227e-01 1.099191192552675424e-02 1.872906105773657348e-01 3.036784642958812452e-01 1.289781964122276081e+00 2.098122341229756049e+00 2.686042761683955060e+00 3.577578757854389835e+00 1.909406973949045128e+00 7.428791237897187649e-01 1.922150629068221761e+00 -1.486143473246065994e-01 -1.088290778117767255e-01 6.736564952205389978e-02 -2.692741243806823448e+00 -1.148060447820058672e+00 -8.077890539513432611e-01 -1.275492174806553747e+00 5.327224279863909118e-01 -5.360448838144620670e-02 -1.273795669710934719e+00 -2.341879596847469269e+00 -2.077787971043220772e+00 -1.851789441658828306e+00 -1.848703090655840819e+00 -1.795151283812166376e+00 -1.784873643675397137e+00 -1.831327654121928328e+00 -1.576313710218521624e+00 -1.859078208352811679e+00 -1.709823889110253070e+00 -1.748830659964014878e+00 -1.955964552206890250e-01 -1.193459988954137657e-01 -8.321890013437827083e-01 1.830011397748186885e-01 2.009627232083504467e+00 2.038432419321259292e+00 4.256005936565558923e-01 -1.639158989625563723e-01 -5.383703390633433061e-01 -4.801191506284845090e-02 -1.340973439827633507e-01 -7.997122334383939268e-01 -5.788350607665744274e-01 -1.516165198713910423e+00 -1.611132637255706213e+00 -1.476041115738311538e+00 -1.248483036801579349e+00 -8.268175714046955838e-01 -1.161932662760740032e+00 -8.594220539614269017e-01 -1.444391262075682691e+00 -1.740983653951726495e+00 -1.846508841480234198e+00 -1.891272997938479916e+00 -1.724901884227716620e+00 -1.713604094847048342e+00 -1.824212156676269903e+00 -1.793745250293779403e+00 -1.773924674836975246e+00 -1.926739312681216676e+00 -6.036138589795336795e-01 -7.099382730316373680e-01 -1.630648470207227030e+00 -2.127757985622096726e+00 1.109775209135375862e+00 1.874008100943061583e+00 1.074723890934091486e+00 -4.286845941232156898e-01 -5.553508859696364430e-01 -6.969649094526625399e-01 8.861102772934766891e-01 -8.452309689973356299e-01 -2.759877290397918959e+00 -8.749076923446825749e-01 -1.124340950014143470e+00 -1.127064807996573492e+00 -7.088078091042427920e-01 -9.893034231722788174e-01 -1.407522186922091745e+00 -1.891795744974011262e+00 -1.329597681697932909e+00 -1.523657743318924007e+00 -1.458563503230983605e+00 -1.700128814400156729e+00 -1.838933207696545002e+00 -1.844005646445116220e+00 -1.787124296696672054e+00 -1.630694251688288521e+00 -1.791051468368724642e+00 -1.755011753907880223e+00 -1.667333049687576674e+00 -5.339951775071379858e-01 -6.800528470135714931e-01 -1.540239536095264095e+00 -1.040768864397932925e+00 1.220062917130651181e+00 1.431922064675378747e+00 -2.095013519672773161e-01 -1.667587450186123421e+00 -5.550470119537969094e-01 6.878555930399624652e-01 1.297741272414607572e+00 -1.835212919361608463e+00 -1.569426972854790936e+00 -6.514025666771499079e-01 -1.354637343207082845e+00 -9.294511597992107799e-01 -6.342536509227728603e-01 4.380657843913116078e-02 -6.649569287922226790e-01 -1.857088685595654098e+00 -1.306362483574056821e+00 -2.338521915373863003e+00 -1.584551046749098635e+00 -1.547189604119625361e+00 -1.897299029891287958e+00 -1.779735823217166502e+00 -1.710257786638064825e+00 -1.711935940554892621e+00 -1.782142669683195235e+00 -1.831612750174281601e+00 -1.866633794508754995e+00 -5.539530370803691373e-01 -7.563619317770977624e-01 -6.495639277238525189e-01 3.646574991577485880e-01 1.517075372530067634e+00 1.262783171082783040e+00 -5.306745276124461563e-01 -1.464705194607572425e+00 -8.191108870651624407e-01 9.037993925402881823e-01 6.455898846258067980e-01 -9.880716936726818833e-01 -3.393170246462109407e-01 2.720051665070969960e-01 -2.751834610884048571e-01 -1.249218345327797852e+00 -1.109612559224125716e+00 -7.155348643575532019e-01 -1.650130556940419657e+00 -1.703850229689925388e+00 -1.482885967597821875e+00 -2.085490164104313759e+00 -1.568033623613238614e+00 -1.418474138680504648e+00 -1.849371552251768858e+00 -1.686447186049903513e+00 -1.700156423083776680e+00 -1.613648536834840330e+00 -1.770305391556180385e+00 -1.720442189949132006e+00 -7.420767074843076516e-01 -6.585237236511335412e-01 6.649503779195989339e-02 -2.909706207586540971e-01 1.575502563444704185e+00 6.502124381440003154e-01 -3.912095008509822724e-01 -1.190134753500309728e+00 -2.065772431969677303e+00 -8.094938982663805183e-01 4.564662595998466577e-01 2.751293126170664682e-01 -1.383856981635243066e+00 -6.311793125805837956e-01 -2.411226327679093506e-01 -8.346745235527051054e-01 -1.536227362164489296e+00 -2.010006747027526242e+00 -9.811927770027724094e-01 -2.347543270125794113e+00 -2.074341903324610215e+00 -2.513962422189138124e+00 -1.925474830120942116e+00 -1.336578904588649142e+00 -1.788481724588547594e+00 -1.679117709167777805e+00 -1.839439047593637744e+00 -1.716156259552158891e+00 -1.787093125458202980e+00 -1.721589554407640721e+00 -1.795828792395524287e+00 -1.757115011701909424e+00 -1.787701326724939310e+00 -2.090625620255891270e+00 -2.288164399006530125e+00 1.143830690077860257e-01 -3.552746090689778286e-02 -4.834129939564526524e-01 -2.171979933908264382e+00 -2.340289985081038360e+00 -8.388022166964480553e-01 6.303866669471582806e-01 -1.440588321819032958e-01 -1.037182869116396455e+00 -2.280025968045234830e+00 -1.892891560863543043e+00 -1.856216640835717469e+00 -2.459798986651038355e+00 -2.128430909134694016e+00 -1.774814670190864030e+00 -2.721307017855651100e+00 -2.693557915761489507e+00 -2.268420556327092275e+00 -1.770654585086482324e+00 -1.195539555229383266e+00 -1.723709617827085205e+00 -1.566440343777582678e+00 -1.819055963809218968e+00 -1.726411483085085186e+00 -1.731585455280717722e+00 -1.749282764665834211e+00 -1.799935173604582772e+00 -1.756451591522505407e+00 -1.713300438410963134e+00 -2.159120356755698023e+00 -2.119513324963957057e+00 -2.899475454429416010e-01 3.604757273459845424e-01 5.362291556474026999e-01 -1.640920970293119119e+00 -3.064124275835148570e+00 -2.228778609240434250e+00 -5.280591657836384289e-01 -2.015610312823419292e-01 -1.842979217928562896e+00 -1.808716196619789773e+00 -2.320324037770336467e+00 -1.714958709255229641e+00 -2.347772435072345232e+00 -1.872552600243698295e+00 -1.886789109166461698e+00 -2.637327015243223105e+00 -2.194815789117261495e+00 -1.169589887203750012e+00 -1.140939477824984616e+00 -1.365578357033643275e+00 -1.652864631273568641e+00 -1.818553000686315979e+00 -1.690904052198204166e+00 -1.722847077418333317e+00 -1.748220386554702799e+00 -1.710052129962542633e+00 -1.646641670371661759e+00 -1.658809773227599260e+00 -1.785592004079042727e+00 -2.106065663837771051e+00 -1.926954542098530121e+00 -1.927490819558165702e+00 -4.623162512716914169e-03 9.682449082386401784e-01 -6.471501722071473228e-01 -1.322417111381008370e+00 -7.665529236373841426e-01 1.195933109790092846e-01 -1.814328877278598706e-01 -9.048690062912199128e-01 -1.189856284009176202e+00 -5.763243509532957054e-01 -8.957689439134919329e-01 -1.878326681461640613e+00 -1.416917150419487959e+00 -1.791688496799523023e+00 -2.615266233109302618e+00 -1.872583061183489272e+00 -1.165713424789561969e+00 -1.215315115980467597e+00 -1.442467203875567483e+00 -1.760031949562578246e+00 -1.642299033327606184e+00 -1.635432044830316345e+00 -1.663782378815241492e+00 -1.795918046495335041e+00 -1.729577490681473595e+00 -1.788506255939308787e+00 -1.709146264386779190e+00 -1.731518723802810467e+00 -1.980066072222797846e+00 -1.886171497989874268e+00 -1.868165473107771923e+00 -7.244611874335511459e-01 1.282212065262666179e-01 -6.438806760473451962e-02 -6.639382543805308901e-01 -4.633984927908323392e-01 3.290935317684975381e-01 2.673084053281020722e-01 -8.656697616401930473e-01 6.852353078197779279e-01 7.809946413717838709e-01 -1.898759795652777416e-01 -1.900696452395261860e+00 -2.644283960859977078e+00 -2.460852680549819205e+00 -2.124423833005219198e+00 -1.545089368699499310e+00 -1.819426897995737979e+00 -1.566565052797541213e+00 -1.748277601350711308e+00 -1.695129412759242893e+00 -1.690664942071436361e+00 -1.678576039666540787e+00 -1.685092461581446877e+00 -1.946833174876293260e+00 -1.856032396023192810e+00 -1.833083782419260510e+00 -1.719666273195060269e+00 -1.897583645744856495e+00 -2.022132167497482591e+00 -1.889165532664760727e+00 -1.792869244779536242e+00 -2.092548947155847827e+00 -1.327620144488682152e+00 -1.412411953773553108e+00 -1.718814570188369029e+00 -1.557404212870179938e+00 -1.023229371777128138e+00 -6.670677398108832978e-01 -1.373775878824543994e+00 -1.867116013139580866e-01 -3.702842481421537157e-01 -1.269234664602509666e+00 -1.967272483986604481e+00 -2.769509374441181393e+00 -2.613447895651716202e+00 -2.722743114796882136e+00 -1.730308955671302495e+00 -2.091248700201169708e+00 -1.817686711166347058e+00 -1.838737861545326702e+00 -1.670695987959689655e+00 -1.732162515609352305e+00 -1.749743944864850187e+00 -1.417654438134274608e+00 -1.370979322349996865e+00 -1.611643980966305678e+00 -1.840985819823609093e+00 -1.808638796695037909e+00 -1.761899147449448533e+00 -2.000319309110706989e+00 -1.996130765161532761e+00 -2.024699641914528225e+00 -2.104778526980854991e+00 -5.549712120709087149e-01 -1.779488629866566418e+00 -2.611193020131765685e+00 -1.835790812108994086e+00 -2.117211724380029914e+00 -2.260903951035647896e+00 -1.234170768692822939e+00 -6.641145271552358897e-01 -1.083725751310401719e+00 -7.438719346651014863e-01 -1.940735885249715409e+00 -2.263751384330506156e+00 -3.046780461188388411e+00 -2.436183746925547400e+00 -1.811382756870999922e+00 -1.850865981649755909e+00 -1.758743181188542781e+00 -1.782700003672499145e+00 -1.667887433857425439e+00 -1.843823198621650006e+00 -1.697124947485534330e+00 -1.735517439894391112e+00 -1.388755001189203586e+00 -1.477767525225155421e+00 -1.840693555525584335e+00 -1.841258085802387034e+00 -1.699923396273283593e+00 -2.080372603104104989e+00 -2.173813824047398757e+00 -1.880304228143025558e+00 -1.939130685628939865e+00 -1.491510766248764774e-01 -1.052206711422312146e+00 -2.081270542112396704e+00 -1.749799546767311531e+00 -1.470742601379150694e+00 -1.349922037658475960e+00 -4.793347194959700630e-01 -5.545164883612148099e-01 -1.189088750519413207e+00 -2.010723372362650974e+00 -1.505296568535988033e+00 -2.402225514186801636e+00 -2.816846666476665817e+00 -2.219060308180235364e+00 -1.829348595162342939e+00 -1.857895710983558102e+00 -1.836915609873958743e+00 -1.731114159086229565e+00 -1.586620577934598986e+00 -1.799219244522119565e+00 -1.715781048077737569e+00 -1.716345563669833929e+00 -1.678061985828140257e+00 -1.690150212641974514e+00 -1.689946472654302756e+00 -1.857901383074961776e+00 -1.756851963316386156e+00 -2.184767621693983308e+00 -2.157038518768842561e+00 -1.749231997142445039e+00 -2.143145429895475296e+00 -5.528336939262101790e-01 -7.994263896006021941e-01 -2.090201260185099219e+00 -1.722570837051650150e+00 -1.716577096224435550e+00 -1.222526207255187236e+00 -5.366109341472457411e-02 -3.487471774542897363e-01 -1.187815355443789134e+00 -1.819250073955277047e+00 -1.879773411958867380e+00 -1.554919632637758120e+00 -2.537923357844542149e+00 -1.663592589262955057e+00 -1.721146059353254376e+00
-2.850001203192801480e+00 -2.634414441025822562e+00 -2.365273978272401489e+00 -2.178076516584146027e+00 -2.265180006656065892e+00 -2.280882880246168032e+00 -2.141849872807630284e+00 -2.111570294720618524e+00 -2.082453163115746797e+00 -2.019146411039257405e+00 -2.062045217225820348e+00 -1.969420191329446235e+00 -2.012948708202003001e+00 -1.948377882654793503e+00 -1.094742863251404685e+00 -4.377030954168262822e-01 1.717567427607595842e-01 1.003817746839395397e+00 -1.513352400899544703e-01 3.873942872696818362e-01 2.585723266567128142e-01 2.430192707878811031e-01 3.478338659134810329e-01 1.459572996437159764e+00 1.081581462812660099e+00 -1.091620781645155303e+00 -1.710223268447788048e+00 -1.467220902535446347e+00 -1.705155628922047750e+00 -1.416321123175422914e+00 -1.411310484515620356e+00 -2.307459383038293232e+00 -2.245608733165020521e+00 -2.200553722799504452e+00 -2.221338280628994077e+00 -2.029153540761071461e+00 -2.083218618212556272e+00 -2.125788640408428520e+00 -2.051228036159396417e+00 -2.011953751999980167e+00 -2.001363029227003043e+00 -2.159767121930407097e+00 -2.031889153473756870e+00 -1.998367859902754340e+00 -2.048201554333517027e+00 -1.919988786805971293e+00 -2.092440275782908365e+00 -2.200015741943655900e+00 -7.889860245357945834e-01 -1.078638075389203976e+00 -1.252806865005188897e+00 -1.129671968944069960e+00 -7.521944755401781535e-01 -1.373868654154827285e+00 -7.661803145998453690e-01 -1.656776662211390860e+00 -3.009800443236430922e+00 -2.736303816734073191e+00 -2.027180818371783655e+00 -2.683267656019927561e+00 -2.466160657109777166e+00 -2.372777673902949136e+00 -2.355467660768637561e+00 -2.191866039352932560e+00 -2.168986990407475890e+00 -2.006398924849118526e+00 -2.019540315799740693e+00 -1.974076135927970155e+00 -2.047366316059824332e+00 -1.889025665379896690e+00 -1.988718879688098573e+00 -2.035720438218378447e+00 -2.019953230553224177e+00 -1.951873800690296701e+00 -2.064260690637727436e+00 -2.105264156083032301e+00 -2.044630369521528657e+00 -3.007351292031255952e+00 -2.281948378543612765e+00 -1.923195396318239103e+00 -2.652222183609040940e+00 -2.379043725688466004e+00 -1.747167722553075064e+00 -1.600784879583770914e+00 -2.098586434955842517e+00 -2.635399879414106028e+00 -2.090592579758792091e+00 -3.253815301705794027e+00 -3.809904585101413499e+00 -2.493456309543666372e+00 -3.026044756919365142e+00 -2.756428495655383504e+00 -1.977273188987475949e+00 -2.216404647259378358e+00 -2.033130136766772900e+00 -1.947452104532759520e+00 -1.989968889741934088e+00 -1.970257696724156959e+00 -2.007371630125161843e+00 -1.939944323581950680e+00 -2.007597374467775975e+00 -2.052699421734430540e+00 -2.027626273804697288e+00 -2.106623496337272083e+00 -1.998765624426060761e+00 -2.081597275200999242e+00 -2.014637560087848112e+00 -2.870497620327604249e+00 -3.159817892259469740e+00 -3.183126700664160591e+00 -3.049604139747720044e+00 -3.311385870303326762e+00 -3.125306456070224392e+00 -3.269847709468856056e+00 -2.849692525276287913e+00 -2.514429400879959253e+00 -1.533826865772479842e+00 -1.950517251296998156e+00 -3.181031163240959803e+00 -3.394377225484702443e+00 -3.454136686372291098e+00 -2.896614924545058312e+00 -2.648400676772582951e+00 -2.036953461467894577e+00 -2.083630691424005033e+00 -1.935476821868176156e+00 -1.847546153848243167e+00 -1.827143877781178816e+00 -2.120785672461470206e+00 -1.947310625681525131e+00 -1.945771354152395105e+00 -2.011969994365490066e+00 -2.060831922584831499e+00 -2.063116061111334165e+00 -1.946557143470572182e+00 -1.942257392772937408e+00 -2.001446769307990703e+00 -2.155460601430915446e+00 -3.065440536346152989e+00 -3.337948043412227950e+00 -2.803648843350684317e+00 -3.262485989875023584e+00 -3.904159809940963566e+00 -3.620457038178621190e+00 -3.965498964699726070e+00 -4.370620736362371694e+00 -1.649469291931038972e+00 -1.393498494953236966e+00 -1.605183840313702204e+00 -3.067500800750350809e+00 -3.093866995479602533e+00 -3.063211456360447560e+00 -2.710527077079038616e+00 -2.525435728717041250e+00 -2.287056910007340349e+00 -2.402534367776606228e+00 -2.257817135738387826e+00 -1.842035667763213924e+00 -1.894228897564701697e+00 -1.989128226097753416e+00 -1.894690231092984511e+00 -1.989114895632517532e+00 -1.900722299020665806e+00 -2.060276570176414523e+00 -1.989996612251296426e+00 -2.001185593082162928e+00 -2.002956384116802990e+00 -1.981306268921970037e+00 -2.061233100691582720e+00 -3.217117903392988421e+00 -2.844972798507678924e+00 -3.322671155879800775e+00 -3.264929262708649471e+00 -3.440670461700135796e+00 -3.700341415920177290e+00 -4.093989271303018818e+00 -2.494440370502930548e+00 -7.318219301863930770e-01 -8.859461301675917166e-01 -2.860806867374306339e+00 -3.106820800547856365e+00 -3.307409228372653054e+00 -3.227426971336112338e+00 -2.803834958442657843e+00 -2.432710130457976572e+00 -2.283819691984631195e+00 -2.034936477900348706e+00 -1.937851150459142469e+00 -1.909703737410133995e+00 -2.019554115359932123e+00 -1.924962533428294265e+00 -2.191048127838449489e+00 -2.039991053584350844e+00 -1.969414918322065944e+00 -1.899387028087513585e+00 -2.014637011871478922e+00 -1.881266595704119249e+00 -1.954868112596387597e+00 -1.974589853942640305e+00 -2.777058769625006196e+00 -2.955882127347951638e+00 -2.748632035288053554e+00 -2.839030755324894351e+00 -3.430523593053373954e+00 -3.269100511170283774e+00 -3.772326117893680664e+00 -2.711724258137175436e+00 -1.423106460682332042e+00 -1.751945872610799482e+00 -3.542447144951310189e+00 -3.389014464469027210e+00 -2.971061623365786275e+00 -3.188486216802163931e+00 -3.301822885558336473e+00 -3.042163144926704810e+00 -2.742016495403752696e+00 -2.437104626458694856e+00 -9.661699561144980741e-01 -9.059643802149552894e-01 -7.750953523505508258e-01 -1.825755661321284862e+00 -1.953102024162671979e+00 -2.130396107075793743e+00 -2.117000864410384153e+00 -2.082614744737656398e+00 -1.921123327026481364e+00 -1.991309532776859070e+00 -2.105983802214851597e+00 -2.060669154788239421e+00 -2.795313080422554552e+00 -2.815080938985691894e+00 -2.785476567580707385e+00 -2.730538722412681363e+00 -3.235869498715554293e+00 -3.530488121791124811e+00 -4.092924048330539577e+00 -4.500371100303328653e+00 -3.167861704630472008e+00 -2.265975698730377630e+00 -3.518921950119597408e+00 -4.188220626752800158e+00 -3.865472935337253890e+00 -3.561914877797940360e+00 -3.517247467200173006e+00 -2.361728131370007144e+00 -1.697264896046627447e+00 -2.962157410071272423e+00 -2.735295695358919144e+00 -7.575151573176589492e-01 -7.715612219741546651e-01 -1.844906728486408687e+00 -1.894422257952932176e+00 -1.939349834961423991e+00 -2.032729656207620472e+00 -2.082479556054398717e+00 -1.889814889004043374e+00 -1.932037965366984578e+00 -2.043117978166471005e+00 -2.039913627294624998e+00 -2.018678317772277353e+00 -2.681194840168835025e+00 -2.901331334920462357e+00 -2.203561736691820983e+00 -2.471431614764502793e+00 -3.054780639424909960e+00 -3.523341780811885648e+00 -4.068588466879029752e+00 -3.452945028058695964e+00 -2.864371581390839250e+00 -3.050473063731099277e+00 -2.775057653092524390e+00 -2.944848088487716176e+00 -2.698310752531764667e+00 -2.268442343019732022e+00 -2.077733513257675746e+00 -1.088842274578295966e+00 -3.609409763260045700e+00 -3.890326968001105001e+00 -3.423219521984506297e+00 -2.111838112645036958e+00 -2.035060366829601897e+00 -2.174368911664057435e+00 -2.101890171986965594e+00 -2.064419130412278314e+00 -2.038154644862052667e+00 -1.959758270522264034e+00 -1.999358326291872601e+00 -2.055984776819693494e+00 -1.883444685285344367e+00 -2.027351388788491970e+00 -2.429793233376329020e+00 -2.821158656260388309e+00 -2.953972697179044982e+00 -2.089331737639329667e+00 -2.444442722262168743e+00 -2.507749623398403127e+00 -4.254405843737328219e+00 -4.415787137512602101e+00 -3.944706970143419422e+00 -2.621273227674537853e+00 -1.924761319350267730e+00 -2.385425631848347550e+00 -1.603017757987977854e+00 -1.314156756756776234e+00 -7.485226065189798383e-01 -1.226047434900825461e+00 -1.379557538633880753e+00 -1.764185410686463618e+00 -3.404828365837326842e+00 -4.319667390567416554e+00 -1.586084618947044111e+00 -2.177452822563553880e+00 -2.440020132990718071e+00 -2.305107805538869847e+00 -2.233693295527217959e+00 -2.300646711748955298e+00 -1.895841711509105965e+00 -2.014523830830197593e+00 -2.043855133563216686e+00 -2.068837458906807480e+00 -2.035108419483527165e+00 -2.825470831362861812e+00 -2.834264452158567593e+00 -2.460253740842698988e+00 -2.058520371244585423e+00 -2.950599604755964833e+00 -3.099425196868813348e+00 -4.356067406014800802e+00 -3.894030392053747569e+00 -1.871120119697177397e+00 -9.863663307352545928e-01 -3.613760697112792797e-01 -1.902843428010858595e+00 -6.181700567385984835e-01 -8.797467951245514506e-01 -3.876486874257107362e-01 4.147041929609238675e-01 5.958610141804783211e-01 -6.287852484741008885e-01 -2.722498120827492762e+00 -2.301987771070197475e+00 -1.194255753347393423e+00 -1.127026946073129476e+00 -2.511883141762043081e+00 -2.602937363696988360e+00 -2.402511966180925107e+00 -2.403423531175993944e+00 -2.305001981757172747e+00 -2.082487673175925647e+00 -2.005254393267304369e+00 -1.991351667666036107e+00 -2.047386406634957634e+00 -2.865046675341094140e+00 -2.854446347605859025e+00 -2.078798666445917487e+00 -2.288734514521237884e+00 -2.805280321350678285e+00 -3.768275726351202781e+00 -3.688927943766989959e+00 -2.817495768812107837e+00 -5.765734983436098249e-01 8.952794126529546315e-01 2.920880709896604976e-01 -4.537572437415131055e-01 -8.629070689872059274e-01 6.306517873304473554e-01 3.993609646613613950e-01 1.587649495824438040e+00 1.248334114248525362e+00 1.455440047272595239e+00 -3.105042437499989649e-01 -1.813841764708011395e+00 -2.201240685920634821e+00 -1.831381760249713109e+00 -2.639746251309461833e+00 -2.879391099449123192e+00 -2.309826883674147791e+00 -2.031314178665668102e+00 -2.112509489538171525e+00 -2.020493446339384658e+00 -1.812813515144782617e+00 -1.784282136911562677e+00 -2.508029380200384573e+00 -2.751012034355701630e+00 -2.796125310594399060e+00 -2.225701628912250651e+00 -2.512363189801763319e+00 -3.244860947366297488e+00 -4.020289639231481971e+00 -5.138284334222619876e+00 -1.497838778954455385e+00 2.453881631354178694e+00 2.222616234578033811e+00 5.945537848056146046e-01 -9.680747566229164214e-01 -1.360282745187900710e+00 -5.134019283683521895e-01 -1.389042034662930636e-01 1.261490886612616658e+00 2.141769603930272048e+00 9.015744214555014846e-01 4.285968869518669289e-02 -1.653481098971698593e-01 -2.857780222389989078e+00 -1.697454322354307710e+00 -2.595295499245343862e+00 -2.996757760877314603e+00 -2.476729478596313871e+00 -2.062949095888192641e+00 -2.123631010843694433e+00 -1.968399858083918597e+00 -1.947210711145579642e+00 -2.016317531393628570e+00 -2.497814058306817575e+00 -2.758173525721008268e+00 -2.566094153653541099e+00 -2.538141672567459928e+00 -2.903964259423368333e+00 -3.588443752875822401e+00 -3.483295856668184420e+00 -2.696073650447079029e+00 -1.464438374391403008e-01 2.851840581079613468e+00 1.304194747746920457e+00 4.241464388254877482e-01 -4.943090525276440106e-01 -1.219152096570366828e+00 -4.113168134987470026e+00 -5.555632715519599252e+00 -7.334776398809059184e-02 6.179280925559749171e-01 -8.426438754350105143e-01 -5.273550006022387215e-01 -7.183467461038282043e-01 -2.050460892131666490e+00 -2.689774037458156020e+00 -1.772770502012555038e+00 -3.065612753763034437e+00 -2.539534974954456903e+00 -2.072538183756468033e+00 -2.249002773902118335e+00 -2.023537121340639455e+00 -2.048958219350541565e+00 -2.070395219052630242e+00 -2.383328385290608420e+00 -2.466535526198252892e+00 -2.701451609384490471e+00 -3.092315548462338359e+00 -3.126429729213490827e+00 -2.362759844106785856e+00 -2.766876357493693206e+00 -2.149836054960952758e+00 4.132000454361002273e-01 2.419319824442185851e+00 6.980053660925522596e-01 -2.260317116656600511e-01 -8.561036940341939516e-01 -1.986833132514856270e+00 -1.893030943604274041e+00 -1.880334752007917665e+00 -3.629763829558780852e-01 3.913644115884089975e-02 -1.893623018153657855e-01 -4.897459980070026919e-01 -8.541962493246462174e-01 -2.108021146394007506e+00 -2.679226741215439578e+00 -2.132457868025262382e+00 -2.897611257281596853e+00 -2.476898459759627080e+00 -2.105684471128085988e+00 -2.078153686290934221e+00 -2.176133047253808517e+00 -1.992003635286791585e+00 -1.941513325686808233e+00 -2.439764104915937093e+00 -2.384511856427401710e+00 -2.303879583735318537e+00 -2.475112675786154792e+00 -2.133107828059292554e+00 -2.737369882440792157e+00 -3.159520923622692212e+00 -1.070031314970666836e+00 2.461913635021780955e+00 1.743820240160817825e+00 5.757093547461440419e-01 -3.506524803762540721e-01 -5.811895590127593714e-01 -3.660485753880848847e-01 -1.548610664009493210e-01 -1.444145706961474040e+00 -2.231044080464367196e-01 -7.240307347581780295e-01 3.012134930864596161e-02 -7.719369896572791934e-01 -1.442882907426936256e+00 -2.542483847682607490e+00 -3.701831356680960194e+00 -2.271200089849853221e+00 -2.673505246077854114e+00 -2.421730551994431213e+00 -2.360508385553814037e+00 -2.118061607246119138e+00 -2.095620313774749555e+00 -1.982569099959312409e+00 -1.945891679184662548e+00 -2.428580296417948148e+00 -2.320516875257646827e+00 -2.547925738313782329e+00 -3.265489843334944187e+00 -3.361713934819875238e+00 -3.219242376588947518e+00 -3.214683192400042522e+00 -5.470980103872734590e-01 1.577994327825745779e+00 1.959674118140838361e+00 5.189455174788406566e-01 -8.989818544581512638e-01 -1.142915261252553272e+00 -9.818279989531280005e-01 -1.014343370746407791e+00 -1.491098447077251921e+00 5.903409159360650804e-01 2.098300508142250109e-01 -3.240257857809990538e-01 -1.594417962155309842e+00 -3.003346806145345216e+00 -3.822565870329030613e+00 -4.165257644694193573e+00 -2.189982219363050486e+00 -2.428663837928630276e+00 -2.604216858835676440e+00 -2.175750622319088556e+00 -2.073263961267438837e+00 -1.982366680556328475e+00 -2.040531485430653547e+00 -2.030577253336602439e+00 -2.481862074496538728e+00 -2.397403513932886199e+00 -2.854901206965192006e+00 -3.119243875240249153e+00 -3.228975835418670837e+00 -3.096896224994273972e+00 -2.252106362035363851e+00 9.729016945246160911e-03 1.546937459418082916e+00 2.670634198849499708e+00 4.049003718009986930e-01 -2.862691030483121235e+00 -7.657990167468147202e-01 -1.150636713808407263e+00 -2.102641634800133108e+00 -6.870373726039273876e-01 9.624994001039151037e-01 7.304246796575373235e-01 -2.311587132199428019e-01 -1.515568674136717808e+00 -2.016064447733175058e+00 -2.661336126493540455e+00 -3.038312642310798228e+00 -2.529269777667181529e+00 -2.317544866330381037e+00 -2.342912058410405063e+00 -2.138884692891727113e+00 -2.000238109950024157e+00 -2.072044825845794414e+00 -1.971025801467478411e+00 -2.026920472503162873e+00 -2.047924515530645806e+00 -2.074073683556422854e+00 -2.739162369408804310e+00 -2.940167468566659448e+00 -2.910086886604985157e+00 -2.310874917400359330e+00 -1.582094143091796523e+00 8.079054386916627584e-01 2.181748872511424686e+00 1.508995096391909208e+00 1.477964904572595141e-02 4.233079676685309600e-01 9.342011485380137259e-01 -9.086023545632744280e-01 -1.501315743107578093e+00 -9.471409919818580825e-01 2.765773496714096780e-01 1.368398940944727471e+00 1.997066396720801329e-01 -1.146845430204877170e+00 -1.551620996855587409e+00 -2.235039164826773117e+00 -2.578945872732947286e+00 -2.622050642948449806e+00 -2.444094713252451534e+00 -2.353728050299343622e+00 -2.211155951953753807e+00 -2.097859180171026683e+00 -2.095414577897876551e+00 -2.073930807018021572e+00 -1.999085726935942775e+00 -2.075112247613875471e+00 -2.149050011658153903e+00 -2.275086979259395292e+00 -2.179798956388397269e+00 -1.837855368287030222e+00 -1.031966795735900444e+00 -7.817514939444604183e-01 1.089389258908188607e+00 6.145970645238549857e-01 6.324487854761516870e-01 1.064933943154346752e+00 1.986023267084979338e+00 4.656162304980844269e-01 -1.561536855641582067e-01 -2.358297799668955808e-01 2.272655446051869976e-01 5.352519874265462274e-01 1.685625544693683864e+00 7.109223835622715537e-01 -1.037735288102416664e+00 -1.856389626159340445e+00 -2.550925311095386228e+00 -2.779809366033688001e+00 -2.689666909048664678e+00 -2.395463644402946013e+00 -2.353318134536326767e+00 -2.175382108667956338e+00 -2.000647550492675730e+00 -1.982540993808238561e+00 -2.065228316437738521e+00 -2.002597441492598662e+00 -1.930979799930433005e+00 -2.118632051817863182e+00 -2.217129612417581885e+00 -2.269447290711712917e+00 -1.317882399477414923e+00 -7.725504796918124528e-01 8.689989559960109577e-01 1.115121189421709014e+00 8.729304879328252387e-01 1.565124999895767921e+00 3.970089456715103271e+00 2.721341371745987114e+00 3.550679260325983327e-02 -1.644676503465143824e+00 -8.135249018101806673e-01 7.489086555128992087e-03 1.344173902550701571e+00 1.736225181610005830e+00 1.004418367900862252e+00 -1.006359878763186000e+00 -1.689128608461294423e+00 -1.915075805998524006e+00 -1.765738831354519922e+00 -2.505819133555264422e+00 -2.535800695161698037e+00 -2.458663895048434966e+00 -2.253557325547228984e+00 -2.087413977055936343e+00 -2.085206504152769647e+00 -2.006842299358758019e+00 -2.074342565056685128e+00 -2.007362162992476051e+00 -2.068991614979043714e+00 -2.250715955865654649e+00 -2.250747667985020239e+00 -8.741302745592175460e-01 8.577606106403973252e-02 6.618119909234196907e-01 1.063230343682611823e+00 1.259469491828235199e+00 1.950788470103087535e+00 2.475149223450960889e+00 1.219291660168318137e+00 -5.156847894277963862e-01 -9.383880420394765665e-01 -1.130271227047821681e+00 4.030089570098406293e-01 2.235034837084723058e+00 1.794111384033231227e+00 6.386632089547732427e-01 -7.169299809214532138e-01 -1.799870120909774496e+00 -3.297169314324158940e+00 -2.673565817606427863e+00 -2.631403341987054834e+00 -2.803476625900681807e+00 -2.551280198537642541e+00 -2.282510030182134386e+00 -2.092166839834331604e+00 -2.240225967274428243e+00 -2.232996937145521166e+00 -2.037740201102481663e+00 -2.411678212460730997e+00 -2.407691531721105171e+00 -2.624388040490869489e+00 -1.467655199115826425e+00 -3.406994667571437430e-01 2.143057697109572723e-01 -1.499257102902565308e-01 1.103072691848157261e+00 1.790275586598277346e+00 1.435719086466753946e+00 8.291977612175660539e-01 -3.539593821791124362e-01 -1.112452328874063756e+00 -1.618291293002032782e+00 -1.558102879191133328e+00 4.127043886208756618e-01 1.606532085135409460e+00 1.479478127894987560e+00 1.710570982406025564e-01 -9.515155349128425755e-01 -1.644462860117963166e+00 -1.753644442722460672e+00 -2.885984132197322083e+00 -2.996632450409657089e+00 -2.703325444797411325e+00 -2.451347985082277248e+00 -2.159750419307709279e+00 -2.080421082224960916e+00 -2.175697373582257121e+00 -2.172212124775015685e+00 -2.166517135206466715e+00 -2.000162077524528126e+00 -2.018195262496385478e+00 -9.509084634357503063e-01 -9.427165745813894659e-01 4.498960753068117491e-01 6.026093025949961351e-02 2.540594459118419302e-01 1.072191385358269189e+00 1.522526377808196330e+00 9.679266508086190601e-01 -4.326874390617146959e-02 -2.274933223363708734e-01 -3.175529142681534078e-01 -7.483200942518346555e-01 -1.527693861030884892e-01 9.385752374488682825e-01 2.079587850587135467e+00 7.241632116280150022e-01 4.227579711200879498e-02 -2.275455827400396647e-01 -1.001791507470387366e+00 -1.803425767537159885e+00 -2.887354424078896642e+00 -3.031034720296948759e+00 -2.778584525267462801e+00 -2.554534210462230170e+00 -2.462003691750206613e+00 -2.191906464958680356e+00 -2.404986549276272090e+00 -2.037109963328708417e+00 -2.138707390349134485e+00 -2.056593312165306386e+00 -1.850040738264433271e+00 -9.327067882936794785e-01 -1.045258080291164182e+00 2.437020443364530942e-01 8.144064994251483391e-02 6.401543678347804134e-01 1.729831413764967740e+00 1.822192714483227283e+00 2.359422298241482530e-01 -2.558237599488560887e-01 2.589718268965824910e-01 -1.250215572233332462e-01 1.102607771203885367e-01 5.267377353502649129e-01 1.113038662296293557e+00 1.582736914098373582e+00 6.025219808701951507e-01 -4.516961503224191654e-01 -5.739787959927278305e-01 -9.218970134095507696e-01 -3.082576217985248501e+00 -2.518161897239408198e+00 -2.391183854968607747e+00 -2.621469618554029157e+00 -2.717112378339489709e+00 -2.218920412627038097e+00 -2.406642819229177110e+00 -2.205689181474136173e+00 -2.182044487653403753e+00 -2.079926414422172520e+00 -2.045677991435021603e+00 -2.004757727296835768e+00 -9.855117423180503877e-01 -2.967157888434164836e-01 -4.083454723075176651e-01 3.598152286693302448e-01 9.092846892652044488e-01 9.780588865929358278e-01 8.352427413167279324e-01 3.815479242216159861e-01 2.793342900387479899e-01 1.031913420863183467e-01 -5.232139601154461861e-01 -2.063115402875567161e-01 -2.267792619303775625e-01 4.775654635297329476e-01 2.654655453316824842e-01 4.052275684114490240e-01 1.946405779106125111e-01 -3.563927749103847908e-01 -1.190996935016746638e+00 -2.692301416460728181e+00 -2.597963147391033178e+00 -2.511567607945747405e+00 -2.818112874071662777e+00 -2.568968545071054876e+00 -2.553597051360965153e+00 -2.725428209005076763e+00 -2.273261832248639536e+00 -2.217647165217773164e+00 -2.125932843913742154e+00 -1.935968714893195886e+00 -2.094923729010567115e+00 -9.674009878017206798e-01 -3.388226043982827673e-01 -3.382074124189420883e-01 1.481362588693534432e-01 8.471704633050498590e-01 5.916954086624529596e-01 4.837557610679227293e-01 8.548468161396960419e-01 6.028398977718204543e-01 1.443993283284049634e-01 7.129375929855896743e-01 2.899323575099679307e-01 2.462805937724492633e-01 3.953747960060325362e-01 6.183725115136081696e-01 1.292315843830411648e+00 7.883110848419607741e-01 -5.489080976618488927e-01 -7.889190243359966992e-01 -3.089852738363820794e+00 -3.267308279220319189e+00 -2.949571453820863276e+00 -2.776725400690355006e+00 -2.700328988637366034e+00 -2.377725861268643381e+00 -2.413614390901191786e+00 -2.191997187192971097e+00 -2.070405141482102973e+00 -2.275577009191067201e+00 -2.151784628525910126e+00 -2.109792633541646811e+00 -9.197494828226481234e-01 2.750831417577271482e-02 -3.702108187058260613e-01 -9.949479764895350353e-01 2.285161975542350232e-01 -5.689478571210758728e-01 -1.740159184719209523e-02 6.078905823785336615e-01 6.999524609318388269e-01 7.699570549808976150e-01 1.093992771198267544e+00 7.397076467556580326e-01 4.830301313384934847e-01 1.491949627066280870e+00 1.500980886898316990e+00 1.718801724976680267e+00 1.637962431088162418e-01 -1.170861817067349486e+00 -1.555293513555622287e+00 -2.330595723816863529e+00 -2.546424568416851386e+00 -2.403167072385385961e+00 -2.133772887795222672e+00 -2.371215826315819619e+00 -2.445488419473982322e+00 -2.460230748308459781e+00 -2.250062940952628043e+00 -2.082496524893798551e+00 -1.925343516589915760e+00 -2.037945775131978721e+00 -2.117244504730470656e+00 -9.316226654641601712e-01 3.828374952939305603e-02 -1.646643111860411901e-01 -1.023735059598084751e+00 -6.188837584332516073e-01 -1.136240674805109041e+00 4.943786311167985836e-01 6.780965134153920104e-01 5.128074281302481552e-01 1.806086177173333196e+00 9.042045794460638053e-01 8.148040079731719842e-01 7.651561061633732619e-01 1.766601653830085050e+00 2.811417481843861754e+00 2.121536912201729574e+00 6.444775748338102961e-01 -8.703896193373063250e-04 -5.809069697346054273e-01 -3.002711246341775553e+00 -2.537843300146560122e+00 -2.257986818273143292e+00 -2.069891730759541471e+00 -2.466187450752812982e+00 -2.356121314695952762e+00 -2.250028849104984019e+00 -2.358221044361684449e+00 -2.247629718807222954e+00 -2.052009437684553017e+00 -1.871748393739926630e+00 -2.003532229616130422e+00 -8.322189773810775293e-01 -2.952489401798452651e-01 -3.497630574599857045e-01 -3.289763944542679619e-01 -1.575768644274305519e+00 -1.772354553880550077e+00 -5.117726666188166657e-03 4.799097092543912479e-01 1.590879544195640261e-01 8.778213282528601891e-01 1.155365751148907494e+00 1.352042791578673686e+00 7.333810503618238830e-01 1.218774126487872644e+00 1.668149994355191623e+00 1.897662951813856802e+00 -5.756093610678201383e-02 -6.022448382896665731e-01 -1.787726724271496259e+00 -2.572437194029095764e+00 -2.470459362936505698e+00 -2.486777620613864759e+00 -2.532801217657754567e+00 -2.356536336670413956e+00 -2.280424011344852175e+00 -2.523589517251431769e+00 -2.367376076074023228e+00 -2.229806329972844559e+00 -2.015588945531122889e+00 -2.040666234330944295e+00 -1.844444906286496044e+00 -9.326751445890480996e-01 -8.976289962581969206e-01 -3.927778613995202006e-01 -5.731747955522784738e-02 -5.321184072918048180e-01 -1.716116171309384875e+00 2.180032599150134170e-02 1.916959661101205192e-01 -9.540439407856098064e-02 8.834659249609927434e-01 1.054625926391143498e+00 1.581703889757583470e+00 4.043522840639267035e-01 5.029430938656124228e-01 7.322744204656683742e-01 -1.294450026884008120e-01 -2.188446820502846446e+00 -2.953698507172160870e+00 -3.089163030808906640e+00
-2.984417628919356247e+00 -2.546067112747425476e+00 -2.659981512031831752e+00 -2.402466995536350680e+00 -2.580053048784432868e+00 -2.582986198973747261e+00 -2.332044094260542710e+00 -1.991997564240989282e+00 -1.758592075798395937e+00 -1.702214865336268979e+00 -2.374716674160461061e+00 -2.558375184308476324e+00 -2.454363770857268978e+00 -2.380173206371171357e+00 -2.370410397574092887e+00 -2.312100323158791770e+00 -2.505326242875536735e+00 -2.358457962866763236e+00 -2.374330782884709556e+00 -2.408841228971186244e+00 -2.737378043431446528e+00 -2.366340775130658436e+00 -2.389678432923496576e+00 -2.157139120558519974e+00 -2.315627314304233852e+00 -1.296213721379740669e+00 -5.218281188492464029e-01 -5.896464626966423372e-01 -6.503325137508021436e-01 -6.471574275468950921e-01 -7.019367398362960087e-01 -2.022503565140765930e-02 -6.141723933038862882e-01 -1.057021263561829461e+00 -5.776768199363105927e-01 -4.085702854002013495e-01 -6.059548971746666624e-01 -1.325692329925210800e+00 -2.399690518676929507e+00 -1.945410030067938667e+00 -1.849391489086072538e+00 -2.512901573679350964e+00 -2.441271290023123264e+00 -2.361572275519939090e+00 -2.428607382877471466e+00 -2.411399465341695247e+00 -2.521386457452266416e+00 -2.408445403266953111e+00 -2.407467400973548166e+00 -2.496706257717379529e+00 -2.313904583491872113e+00 -2.640686803911836300e+00 -2.478467477830247567e+00 -2.387761202649373082e+00 -1.660181650317053670e+00 -1.079497444097224923e+00 -5.035988047674450074e-01 -7.939694512190625941e-01 -7.057005148825541418e-01 -4.051248700258778396e-03 3.123211264071396043e-01 3.637103153443744796e-01 1.126957727287330790e+00 7.224498342269678464e-01 3.846073728687774418e-01 1.463430508416051490e-01 9.914069323828121616e-02 1.053967008121971423e-02 -3.735732271179471597e-01 -1.049127579589743453e+00 -1.469387416790256751e+00 -1.701924878759576210e+00 -2.351970588258638362e+00 -2.305755554150850983e+00 -2.443663876562465198e+00 -2.329623957510953858e+00 -2.313194596712112361e+00 -2.477259611378942239e+00 -2.523661114216567913e+00 -2.263116825539101207e+00 -2.375016015647521517e+00 -2.510616458325533706e+00 -2.556734552294960494e+00 -2.329725621748043096e+00 -1.825592186484871648e+00 -8.135042722370117163e-01 -7.410808658092623569e-01 -1.002966535770772882e+00 -1.401346664927870522e+00 -1.310212884387030874e+00 -7.631918188335831132e-01 -4.550613731300564568e-01 9.784329854098754164e-02 6.365133058399514709e-01 8.264997890836323080e-01 8.131671597076510771e-01 4.905995419929062296e-01 1.119037013281105830e+00 1.177151938855081292e+00 4.776910854775467952e-01 2.350358532349258733e-01 -6.856424860390877285e-01 -1.391476227417963951e+00 -1.951385095675338466e+00 -2.434215257098190310e+00 -2.290195095738875697e+00 -2.388992937939639294e+00 -2.410348044802367973e+00 -2.427808560126031523e+00 -2.470064316837229157e+00 -2.316194956954486184e+00 -2.256631975882986474e+00 -2.254524121196558983e+00 -2.575208450246710967e+00 -2.455236749749992509e+00 -2.121019900843255979e+00 -1.796701706726463232e+00 -1.958987053785157695e+00 -2.411542841356162814e+00 -1.927776581380791221e+00 -1.250476899729008329e+00 -8.315075385790273721e-01 -9.273718921076745669e-01 -4.890792583627749934e-01 3.038389351951226169e-01 1.183334460940234978e+00 9.430951907803453160e-01 6.864193727352334573e-01 1.333543364019188493e+00 1.060984679828140376e+00 7.125348769607364741e-01 2.276794778125703078e-01 -4.402045287731375378e-01 -1.021801766088269892e+00 -1.811528220540526535e+00 -2.422355707690421855e+00 -2.344142026507824994e+00 -2.357562782291615200e+00 -2.416858925042003392e+00 -2.343073898398028376e+00 -2.484224111201453145e+00 -2.446165505945137042e+00 -2.307674587025936752e+00 -2.363744001257121585e+00 -2.683724931028418581e+00 -2.683473297783340872e+00 -2.900221593942574394e+00 -2.987262503051746787e+00 -3.010926774099176750e+00 -3.083032022743724454e+00 -1.553634368305575775e+00 -1.504749159788467683e+00 -4.149588514099953329e-01 -7.291612755141506641e-01 -4.870489651408977938e-01 3.221278440550567890e-01 1.133623792242898443e+00 1.144815404030260719e+00 1.883249848910422131e+00 1.859024281814765756e+00 6.652880775786562673e-01 8.791794513314803439e-01 -2.948220229295348549e-01 -9.173640032524608134e-01 -1.009570778448888762e+00 -1.554523186890848230e+00 -2.386106094421381218e+00 -2.273147170543807771e+00 -2.427840129000780944e+00 -2.530192039126847092e+00 -2.303885922323083868e+00 -2.382037360671232840e+00 -2.380524888876713430e+00 -2.567616121889725989e+00 -2.759861043341220288e+00 -3.178363704480830609e+00 -3.230807222653370392e+00 -3.047560335706108958e+00 -2.737604891111284466e+00 -3.043988470159181947e+00 -2.312892234724523544e+00 -1.729174419180425026e+00 -1.642133983164078881e+00 -1.382548561203234883e+00 -5.368343224347995601e-01 4.310257866567533958e-01 9.891751746641532783e-01 1.561162871849893330e+00 2.093781992585226348e+00 1.406285652361059624e+00 2.128234114316688075e+00 1.766197655926664112e+00 1.839921746896211685e+00 1.009393912045958297e+00 3.434125841943031637e-02 -1.122883300379928784e+00 -1.583013878942447050e+00 -2.366404609138541115e+00 -2.452227910234328068e+00 -2.386312206430611038e+00 -2.367140090943284036e+00 -2.449672041575470249e+00 -2.373363124871987306e+00 -2.366387972067889756e+00 -2.680811576164980892e+00 -2.090566473685706139e+00 -2.960271604514318700e+00 -3.015157081958590002e+00 -3.378799463691387839e+00 -3.088566352247324787e+00 -2.108281485243120645e+00 -8.854003795869418436e-01 -7.171303221331457589e-01 -4.269827135642450533e-01 5.980536405914132006e-03 2.015429964831216392e+00 2.435533020335075793e+00 9.078869016190127539e-01 1.478684863694681662e+00 1.778207429639660386e+00 2.402214349683517103e+00 1.530021645726263646e+00 1.505875955760112683e+00 2.049538988168281950e+00 1.860192459602316939e+00 1.156722823167853909e+00 9.832315802253370832e-03 -1.447492758005220370e+00 -2.044099118414147487e+00 -2.462749422544388000e+00 -2.419768102797332787e+00 -2.518827937826221941e+00 -2.401875243662355608e+00 -2.532949567520784040e+00 -2.556224541500050851e+00 -1.699722402428948120e+00 -1.411861164397280266e+00 -5.275057311695749984e-01 -4.604259399995888069e-01 -3.123873946388954215e-01 2.705116580296395012e-01 8.150342878014773529e-01 4.037957225337800438e-01 1.240757546553831192e+00 1.179976420386607217e+00 1.398241378098689758e+00 3.479668334166369892e+00 3.850436497502173427e+00 2.265901797985363952e+00 2.376638002473928424e+00 1.882229863607742804e+00 2.270558643598229231e+00 2.177031936344081320e+00 1.814516086457917732e+00 1.977179645598536650e+00 1.370424291844184239e+00 1.627388786755048278e+00 6.055260870932702710e-01 -1.611304206894720759e+00 -1.837100097354080308e+00 -2.375683430614598635e+00 -2.432759793788424219e+00 -2.260300006064976053e+00 -2.394815993273404331e+00 -2.373549340248160444e+00 -2.155843047018975778e+00 -1.690731499117965830e+00 -6.022264677102158181e-01 -1.183257987652991533e-01 -4.345713453447646035e-01 3.164703216588441448e-01 4.691234435906546096e-01 1.124967952863835663e+00 4.616526847052790927e-01 5.841662065045336583e-01 6.475564968323022086e-01 1.097115694016455256e+00 2.610839866928849951e+00 3.555290623515762416e+00 3.116838645197488322e+00 2.657308683676391059e+00 2.850107458920794645e+00 2.876306246227802621e+00 2.915342310005744508e+00 2.438335605534070805e+00 1.331424533629372853e+00 1.529665647926575112e+00 1.151053089145666952e+00 1.205885237465928600e-01 -1.843633611138522532e+00 -1.967452787906335043e+00 -2.438566388204628677e+00 -2.308732309445009179e+00 -2.476996948875050730e+00 -2.388280359637450889e+00 -3.054585851837935628e+00 -3.156484146605422758e+00 -1.986402073717511652e+00 -2.196557754580052091e+00 -1.343947174943397549e+00 -1.180429150015582795e+00 -1.118175551237819754e+00 -4.372833256294393345e-01 -8.823872766273654911e-02 1.829805764345842078e-01 -1.180519604928774308e-01 -2.979671444544216841e-01 8.795095358338174130e-01 2.430357434714319531e+00 4.162554046503037952e+00 3.051486440104843378e+00 2.877375853809911455e+00 3.332452505958812150e+00 2.145177438997043939e+00 2.672438726177573720e+00 1.383148314133139101e+00 1.470977845482321911e+00 1.565449552205267159e+00 5.356216935382688282e-01 2.613517067481058165e-01 -1.627326696068857936e+00 -2.378432234356076869e+00 -2.460343709711272364e+00 -2.331928427012809113e+00 -2.317930479698385504e+00 -2.416187192115138771e+00 -2.983418003088727843e+00 -2.950887486974210550e+00 -3.513754109553343330e+00 -3.592683795305212868e+00 -2.488741961596432795e+00 -1.783921776467246811e+00 -1.326565349449264408e+00 -1.544529546470962966e-01 -8.831130119547797586e-02 -8.310141861519182438e-01 -1.091940794927099390e+00 -6.448455660277170320e-01 8.137482140830533117e-01 2.229223462864044603e+00 3.755662005682967930e+00 1.990225007616502007e+00 1.149173648270255033e+00 8.254069875939329393e-01 2.289081847287746108e+00 8.719866466640453506e-01 4.733280861448909693e-01 6.097489840167916730e-01 6.162412998884012616e-01 1.178725067560247641e+00 -3.570952588064583710e-01 -1.718255464765748863e+00 -2.484403830017104298e+00 -2.403134167125268839e+00 -2.290496719285694205e+00 -2.468261570358061707e+00 -2.298327193910154609e+00 -2.278794412444201445e+00 -2.835897419043083012e+00 -2.954543115537715980e+00 -2.448975808591051351e+00 -3.033173338083242854e+00 -2.543521561623571792e+00 -2.300963192202821528e+00 -2.891804640051856445e+00 -3.821901166329345401e+00 -1.003428046184522238e+01 -5.960301898167063683e+00 -3.654225821841052824e+00 -2.971039979804581677e-01 6.841610061617258154e-01 7.800993499701160516e+00 -1.125380326840312584e-01 -4.686537149478881004e-01 -3.670353520749222165e-01 -1.266314910073162436e-01 1.853450005938435119e-01 -1.690126294505107096e-01 -1.037553434426686655e-01 4.323582042877258669e-01 6.180424070459822339e-01 -1.348396447752284177e-01 -2.262457794089268059e+00 -2.436383576763943903e+00 -2.425653792798603714e+00 -2.330578591789819853e+00 -2.513249412281320705e+00 -2.331286788918698782e+00 -2.422979752925190855e+00 -2.582073214186070054e+00 -2.677517803977929933e+00 -3.057590570385209094e+00 -2.288739623673676338e+00 -2.980635969756843195e+00 -2.203385573654600638e+00 -2.820534284207719455e+00 -5.942431917320534218e+00 -8.705529675815803614e+00 -6.369678011195381906e+00 -3.085645291908471588e+00 -3.978485747148119422e-01 1.192651464368425396e+00 1.205599228907774823e+00 -1.086480529232689285e-01 -6.945289048564503576e-01 -2.961095277272632886e-01 8.901041983804902635e-02 2.979618732599922382e-01 3.488368014493116176e-01 -1.382096195707845955e-02 -4.406310835228692824e-01 6.577347515247286558e-02 -2.906738771316499381e-01 -1.921693712797734488e+00 -1.998174444077283285e+00 -1.893791692392305492e+00 -1.983490988472796479e+00 -1.811527005574672833e+00 -2.403864693123360041e+00 -2.308508565848457206e+00 -2.609952485172229775e+00 -2.660305817301158005e+00 -2.606653212062677305e+00 -2.590093914290536592e+00 -3.084641967063046053e+00 -3.141033425480061592e+00 -2.107124875115963025e+00 -5.178631700566411311e+00 -6.244323503792561958e+00 -4.573982453790349290e+00 -4.097002227864133594e+00 2.215957743460453822e-01 2.633759989476805785e+00 4.692285775511861878e-01 -4.014272732900224239e-01 -2.308943569367117865e-01 8.822699829395717064e-01 1.502054197751332643e+00 1.338333607244873713e+00 4.501729218974974689e-01 3.207895173065243855e-01 3.964125841497047054e-01 1.984418223876475151e-01 -8.161839045498815726e-02 -1.813586834751292010e+00 -2.118296498121031934e+00 -1.894691293724854120e+00 -1.969374945473115091e+00 -1.883721265513543797e+00 -2.454692637470667016e+00 -2.399285665946088830e+00 -2.559568435464086633e+00 -2.596446942910907385e+00 -2.664232003671122229e+00 -2.492031381208868801e+00 -2.563246469507915126e+00 -3.018151653123874567e+00 -3.092677855681170929e+00 -3.588843079668664338e+00 -2.415296176744566203e+00 -2.924710645588251889e+00 -2.601133514027245575e+00 1.991811522051731842e-01 6.059532398657574426e-01 2.931853387529772537e-01 8.350618247736825428e-02 -1.503973965393352596e-01 1.234736566359616372e+00 1.095323903912108987e+00 6.838680153035732179e-01 7.839777759794365197e-01 9.301182301395141128e-01 6.369133910568651746e-01 2.612540491647792340e-01 -5.636435923695387595e-01 -1.934048324150184461e+00 -2.661233929908539242e+00 -2.266060219260538577e+00 -2.468407520212016593e+00 -2.231810618654303635e+00 -2.413791989589951115e+00 -2.512555146516111559e+00 -2.524172141456605178e+00 -2.536424620425596910e+00 -2.678920665660196931e+00 -2.462220559775854856e+00 -2.625488246231526102e+00 -2.230151865641077702e+00 -2.556584027454486208e+00 -3.092629212984243647e+00 -1.995040155122142389e+00 -3.805648981587972823e+00 -4.275388482968658366e+00 2.374328553102218742e-02 2.411781742968648889e-01 1.860468772657310477e-01 -1.132541336997400228e+00 -7.035120435512993708e-01 1.826727980515386318e-01 -6.314945621789234964e-02 -7.972270927997666956e-02 3.650656174606219384e-01 1.261092543788860265e+00 1.064194558264423218e+00 3.139793771581831511e-03 -6.248871748898042755e-01 -2.356107962984380855e+00 -2.355759446363064669e+00 -2.458709470902909366e+00 -2.472378653556464467e+00 -2.322837068007106431e+00 -2.464842497741673633e+00 -2.430136923026506857e+00 -2.448833341224589955e+00 -2.399086902246837294e+00 -2.875714921277009228e+00 -3.016574103114247229e+00 -3.126586096293867634e+00 -2.392842628125688709e+00 -2.843492856931048252e+00 -2.306984756153622751e+00 -2.369748738852985870e+00 -3.931523028006973952e+00 -5.830099950979193757e+00 -1.199165386941750677e+00 -1.474713011064807011e+00 -7.722314809287460502e-01 -8.312144562907606282e-01 -5.149602211390276185e-01 1.242983761301987428e-01 -5.066452307934903310e-01 -3.467008629923518104e-01 1.075526641561194985e-01 8.172119207035231092e-01 1.096064167408869805e+00 2.417861829779116567e-01 -5.939663860016995006e-02 -2.078494183819905583e+00 -2.466654950323432516e+00 -2.357040443545311170e+00 -2.326847760968766110e+00 -2.427799428328569764e+00 -2.546368945381566107e+00 -2.478137296567449521e+00 -2.450977194306245277e+00 -2.323607407153894577e+00 -2.699970131213310864e+00 -2.865136992725077825e+00 -2.738919753287083925e+00 -2.649193428937834049e+00 -2.632705709537696670e+00 -1.424435140483258033e+00 -2.617713811637038201e+00 -1.936469969903333643e+00 -2.082532576849846606e+00 -1.916644957193259335e+00 -1.545075591669424320e+00 -1.608477008702615674e-01 2.913752173931848932e-01 -2.408342425144636145e-01 -2.542694606747081254e-02 -6.510602788781452155e-01 -1.082129814582081906e+00 2.814030880438552762e-01 -9.778922059215482132e-02 7.764246521118856048e-01 4.628004333419983851e-01 -4.868133332017023918e-01 -1.575151166761773913e+00 -2.378682703835473422e+00 -2.272789230781764758e+00 -2.426637845787028791e+00 -2.459168357339701405e+00 -2.496552572905285317e+00 -2.427160573364189666e+00 -2.452929877127652425e+00 -2.381094413090238060e+00 -2.284282717001233642e+00 -2.358878599952058064e+00 -2.329383707772992196e+00 -2.493380920189848471e+00 -1.210452833244750614e+00 -1.528364479366191242e+00 -1.527273030154963074e+00 -1.226631552943984627e+00 -2.504503917485581876e+00 -1.434831164130963455e+00 -9.290274906252153908e-01 -5.244559157091052137e-01 1.342772113318521088e-01 -2.026604837228297984e-01 -9.166613580143503359e-01 -1.349836186062806531e+00 -9.328503543342270277e-01 -1.521199690584361663e-01 -7.180740317519958005e-01 -5.774110553024454084e-01 -7.172891708568193692e-02 -3.043438026136193741e-01 -2.467842295443699818e+00 -2.443739927756460872e+00 -2.421058621964837343e+00 -2.373676666251256506e+00 -2.283434119232468973e+00 -2.553066447680464979e+00 -2.470927677645932796e+00 -2.301755656507912473e+00 -2.367370343509508146e+00 -2.411963418833675821e+00 -2.657109695220095436e+00 -2.402496243210034521e+00 -2.354724152636715750e+00 -1.123265822466396502e+00 -1.890083586019967843e+00 -8.040735080135413826e-01 -1.224148422337355324e+00 -2.868749494784276877e+00 -1.617367446954621091e+00 -4.050719083141773869e-01 1.537416607063899487e-01 9.135914247747745076e-02 -6.287898832934082360e-01 -1.298411169110645469e+00 -1.487497450779680763e+00 -8.956944511343114534e-01 -4.563576979129077005e-01 -2.002981292694218762e+00 -6.593025012005803154e-01 -9.235850520376061024e-01 -1.165744474849452539e+00 -2.372378553924227251e+00 -2.411296828778794143e+00 -2.469061853373379023e+00 -2.584758721344659893e+00 -2.293477204227567068e+00 -2.500740837115133175e+00 -2.431442684272819843e+00 -2.482373042083013903e+00 -2.402360595313560943e+00 -2.205674733306675517e+00 -2.120718401740724346e+00 -2.243521682033233322e+00 -1.986608776588290048e+00 -8.613515466176705493e-01 -3.373049498622888720e-01 -9.295064785657107809e-01 -2.023575902095820833e+00 -2.599561847078387000e+00 -1.574413073266588636e+00 -3.077860796020820411e-01 3.931128761153170337e-01 -6.746223232576038509e-01 -1.384038375237942819e+00 -1.330370605371039794e+00 -1.086853497952769310e+00 -4.629800172724316543e-01 -2.191837116475645608e+00 -1.835487928057085272e+00 -8.752016961827833175e-01 -8.223833788738846851e-01 -1.797655976681141743e+00 -2.401019290228742609e+00 -2.374017851509636845e+00 -2.487187859292975922e+00 -2.456502560706310678e+00 -2.501974175701611625e+00 -2.369731902192365958e+00 -2.558789934990440162e+00 -2.542860138177662321e+00 -2.403339193457237677e+00 -2.357867616498741103e+00 -2.158974357876102701e+00 -2.206528763490022360e+00 -2.329487078081319495e+00 -1.246614764456958735e+00 -4.077331082104088678e-01 -1.882474958837016210e+00 -1.243769963355197739e+00 -1.632337891456167700e+00 -1.474105667473778913e+00 -4.740513758783358733e-02 1.951812511148123819e-01 -5.001108463990970865e-01 -1.120009108923152308e+00 -1.510705185521697969e+00 -5.367736546486383542e-01 -4.416410092770381990e-01 -1.905061223465029041e+00 -1.835560794440045607e+00 -1.462949483325566069e+00 -1.501420274538515010e+00 -1.502355309545541528e+00 -2.132978517762277981e+00 -2.468071304632177387e+00 -2.446528234423299697e+00 -2.526995729428394455e+00 -2.369379277369185299e+00 -2.235674607112811518e+00 -2.378487876447907379e+00 -2.701880651151033597e+00 -2.593787445543188852e+00 -2.454411323869207351e+00 -2.532354098294678391e+00 -2.645834956335348487e+00 -2.950514000463593245e+00 -1.224310376343855200e+00 -1.865029464263963987e+00 -2.110349891284306612e+00 -1.772910159634682126e+00 -1.437281453906441131e+00 -4.110403526208307179e-01 2.246514737304643461e-01 -1.216067181336185216e-01 -8.172764292808680775e-01 -8.842198550058406603e-01 -3.190866831612606536e-01 -2.050970137967076390e-01 -5.797965340812325508e-01 -1.331693899911695178e+00 -2.520457221693868544e+00 -1.765246668623638548e+00 -1.836531893425899176e+00 -2.053598539460229411e+00 -1.992317620404042477e+00 -2.461311705650659487e+00 -2.387006934517098777e+00 -2.255816713858016964e+00 -2.374261603240054530e+00 -2.630717269019499760e+00 -2.338593214677631593e+00 -2.593262525343593694e+00 -2.723026898127508311e+00 -2.625051651426784538e+00 -2.405784639341777442e+00 -2.689535753239777005e+00 -2.055507855472287204e+00 -1.485979659050184365e+00 -2.503305382299701343e+00 -3.693499099339409231e+00 -3.094889214532753563e+00 -2.242230456547618100e+00 -6.928391298883884719e-01 -3.888751154834851342e-01 -8.670892344667197049e-01 -9.552358416922490658e-01 -7.516682042720181922e-01 9.750376316020241407e-02 -8.449344416146271908e-02 -1.132807769125910635e+00 -1.843434706506150711e+00 -1.680875495053725466e+00 -2.041050035858077205e+00 -2.110745034372306872e+00 -1.677174348796351522e+00 -2.738271497452460235e+00 -2.461246047566961082e+00 -2.423939671485868530e+00 -2.281255975312702411e+00 -2.367949737086335382e+00 -2.368577626414853476e+00 -2.289937302313224343e+00 -2.441469244725498200e+00 -2.329019912828122152e+00 -2.358712380141628540e+00 -2.320429558801317516e+00 -2.619500546282993003e+00 -1.586340289968477979e+00 -1.575267644917997867e+00 -1.554088872347965777e+00 -2.111904032768380013e+00 -1.548109789412980497e+00 -1.253264911592094188e+00 -8.996640246368069471e-01 -9.656548341089363774e-01 -8.402787356624588089e-01 -9.712474021964003779e-01 -7.561213564152289290e-01 -1.670635777922589993e-01 -6.922701698572686357e-01 -8.149480806535507327e-01 -1.206348203561419252e+00 -1.861472152771019850e+00 -1.739924391947758497e+00 -1.600255278525220648e+00 -2.106846681542423827e+00 -2.476798097935795973e+00 -2.349165575642914394e+00 -2.260738880756034241e+00 -2.363009591648361774e+00 -2.485135930328969511e+00 -2.426122117799753841e+00 -2.360494163624782260e+00 -2.282023093394817792e+00 -2.345681488273846593e+00 -2.314143255323122261e+00 -2.293811385955332405e+00 -2.594864281564956077e+00 -1.667498087896989389e+00 -2.944429422133433505e+00 -3.144932655375383135e+00 -2.409344249407902705e+00 -2.658268139779353945e+00 -2.358500095965790244e+00 -2.395520344316482753e+00 -2.195990627812212548e+00 -2.288795332062267818e+00 -2.536201763531416020e+00 -2.996503665305244368e+00 -2.414260424482500333e+00 -2.350161752037164042e+00 -1.799097398389677194e+00 -1.661831436042980670e+00 -1.981407630158703359e+00 -2.486909975785363880e+00 -2.710517790882567279e+00 -3.252455765437961333e+00 -2.400202591062104318e+00 -2.363735902068785144e+00 -2.325530846387887429e+00 -2.386027897896918493e+00 -2.354207815705691154e+00 -2.376232729550471934e+00 -2.522474329647883096e+00 -2.333112643797849550e+00 -2.351557887143618686e+00 -2.421975210536001732e+00 -2.483190820199220994e+00 -2.162259059327277910e+00 -2.463508248693663916e+00 -2.618152181760818209e+00 -2.654048059401283410e+00 -3.005470624749090991e+00 -3.129308206789249258e+00 -3.207959605435981576e+00 -3.364176108090988659e+00 -3.454660391501611194e+00 -3.260899825603309932e+00 -3.252813774675823222e+00 -4.127930611857557608e+00 -3.866601413486818739e+00 -3.483021867303432995e+00 -3.225914509210283221e+00 -3.262594180014476208e+00 -3.660250566687648810e+00 -3.451105231732909839e+00 -3.422709265131997025e+00 -2.814593255884410006e+00 -2.326973668658820937e+00 -2.358102544014267110e+00 -2.483061777050385555e+00 -2.373649282191294674e+00 -2.381654533766382809e+00 -2.285845146111659343e+00 -2.262779604822828361e+00 -2.369511807784508317e+00 -2.372901834405874766e+00 -2.460002220579204479e+00 -2.412536147102745332e+00 -2.462398698531896191e+00 -2.554082635863926587e+00 -2.807981401216688155e+00 -2.757471972767658652e+00 -2.637284610253898709e+00 -2.698580714390749424e+00 -3.189604551895155904e+00 -3.417965358617037097e+00 -3.348736168664235624e+00 -3.330135516186886857e+00 -3.410864232222502679e+00 -3.694297388249525582e+00 -3.719193741168167477e+00 -3.266948964168717051e+00 -2.998170811040488104e+00 -3.714728196210600242e+00 -3.535008101034170735e+00 -2.756852288017406671e+00 -2.542044992388365454e+00 -2.470548717412593742e+00 -2.558596780330755216e+00 -2.385597356566119931e+00 -2.462387989493224794e+00 -2.395527049972400402e+00 -2.295276517517738757e+00 -2.305824146821710219e+00 -2.311973354069644770e+00 -2.346449795579923947e+00 -2.311133522377985638e+00 -2.282706161062050931e+00 -2.320788777753085341e+00 -2.407352381503423455e+00 -1.546179365333425260e+00 -2.633322614227235459e+00 -2.946736350533578186e+00 -2.950236771343166975e+00 -2.735645903136626700e+00 -2.463026822958514384e+00 -3.251300349776939491e+00 -3.261382125032419310e+00 -3.234147868312008622e+00 -3.163650442007479580e+00 -3.265161568457238594e+00 -3.295748858949225646e+00 -3.143089204955004767e+00 -3.416047017147370912e+00 -3.820167465319961764e+00 -3.561682897705683359e+00 -2.685099021879849168e+00 -2.795238228824018289e+00 -2.769675182603352326e+00 -2.252229255873221536e+00 -2.415862596828776798e+00 -2.347393746226441813e+00 -2.383628058172771347e+00 -2.238012982814928442e+00 -2.423501610448009380e+00 -2.382197154193565591e+00 -2.358669401359783979e+00 -2.316559023563527386e+00 -2.268022370094168849e+00 -2.255620196618059570e+00 -1.292170210496911054e+00 -1.103385469416255260e+00 -1.324447109902485487e+00 -2.342751997781812090e+00 -2.473522142664863477e+00 -2.121148092372319383e+00 -2.127976587288044730e+00 -2.196870495808359358e+00 -2.833970990503525744e+00 -3.073753229295338230e+00 -3.189481840203282292e+00 -3.031072416967140359e+00 -2.911300955849100980e+00 -2.379127969020510491e+00 -2.658341053771898554e+00 -2.821328488834213388e+00 -2.862646852469232339e+00 -2.316366012179602585e+00 -2.110725453062662016e+00 -1.886787336210512533e+00 -2.312222441518640981e+00 -2.375180136790784768e+00 -2.437678766763061500e+00 -2.374125216966461061e+00 -2.379196282065458412e+00 -2.448809750314946410e+00 -2.285036494360108250e+00 -2.580063631642919741e+00 -2.318643053538581356e+00 -2.212304130221547371e+00 -2.373090420514516907e+00 -1.178406004897344594e+00 -1.256167449584550289e+00 -1.366580082491265946e+00 -1.222298759222222753e+00 -2.685352036899064654e+00 -2.195095188629736072e+00 -2.028200124884137701e+00 -1.842287160444682215e+00 -2.229880045497548924e+00 -2.811870526748782684e+00
